{"architecture": [200, 128, 64, 1], "n_sensors": 4, "window_size": 50, "feat_min": [641.2100219726562, 1571.0400390625, 1382.25, 549.8499755859375], "feat_max": [644.530029296875, 1616.9100341796875, 1441.489990234375, 556.0599975585938], "layers": [{"W": [[0.0321463835793057, 0.10402077393394332, -0.022351513065891077, 0.13734480359986945, -0.18448975349934632, -0.008145980520345951, -0.21134895543147839, 0.07324696121843276, 0.05056436749045705, -0.07798763715063474, -0.09737287566848844, 0.0005177335459899207, 0.10409640241966399, 0.12222140212920055, 0.06269517499301196, -0.06271049225108251, 0.06527100824008397, -0.004363705279089949, 0.0040845011433696685, 0.021587072797670775, 0.06948073565521572, 0.09756090407470208, -0.011513986969513024, -0.04052300014859574, 0.0666620030287846, -0.0415547010469951, 0.03705766142389922, 0.2377708268756712, -0.18991555444088928, -0.1333318188019275, 0.00503026339927442, -0.07850470494233798, -0.08842034445632138, -0.15442478890840133, -0.0459441908503809, -0.051163490860500475, 0.0053391150898319814, -0.09672896177187389, 0.0243276009462713, 0.04204273814454582, -0.027090956895294834, 0.1817957029274945, -0.13870759038569852, 0.313733418998745, -0.0869524168488784, -0.05287121688875568, 0.09869896956276045, -0.18549734879660046, 0.01960103157510165, 0.022944489940900904, -0.0672307106891685, -0.05294788349277285, 0.03774310345504116, 0.06752803653907448, 0.15050390009447834, -0.03706920933452624, -0.03193700185793115, 0.053724014356619346, -0.0955684637633716, -0.08858309271920217, 0.02387662563264848, 0.04479291120645491, -0.04508639538747287, -0.14667123894999692, -0.16622444754351318, 0.03573353228733226, 0.07423455953813811, -0.017058550759783044, 0.15608839580363865, 0.22965221396564614, -0.04430492714479444, 0.01573587343589606, 0.08011286287906091, -0.12814867600277496, 0.06191556215122752, -0.12414348306064231, 0.22388331150362747, -0.011854924636867157, -0.1849612711804612, 0.1871956686766217, -0.13581982465427095, -0.011220733413806736, 0.12257845358679846, 0.1568177316480162, -0.03066977759370782, -0.017095850346583334, -0.017485791670608524, 0.025279954265720144, -0.0537736317488334, 0.049573223265449225, 0.04765467509991584, -0.021890342707826443, 0.1709244937346107, 0.05326205815519655, 0.05640847256425961, 0.059828478251966015, -0.11106379799198779, 0.06195123159531069, -0.11973784235493642, -0.039311131600932685, -0.1502958814793091, -0.0977542798069768, -0.13999089102015996, -0.09378377833897532, 0.043607222413224615, 0.13611633000095222, 0.10026776321099026, 0.14454429147060815, -0.02739355918963513, 0.12085724335490464, 0.18621178030213348, -0.08831084026438503, -0.029311210339947887, 0.02369221973848985, 0.07916555620506861, -0.06259479207274292, 0.17613589343927047, 0.10663849438888523, 0.06046721612290213, 0.040730696436701505, 0.1275999347467562, 0.1573619982312659, 0.12884885341978267, -0.1464281034288813, 0.05240603294213027, 0.0021517760882465665, 0.07953129689595279, -0.1268235220118996, 0.11701313319483621, 0.09905601057944706, 0.03484229342835598, 0.10039369311811092, 0.030488408473825765, -0.04417254475097166, 0.12098167636666796, -0.06727554493484923, 0.09687239453214261, 0.17895630292620798, -0.0005372313816377691, -0.0572677281894481, -0.16576435566552114, -0.05318442355660624, 0.0010900011271312265, -0.07800747284779273, 0.11539269273083064, 0.003976973457938627, -0.06489160304025275, 0.019790919117199324, -0.027987226936955267, -0.07183227037958924, 0.03794341067078877, -0.035231383540176936, 0.080135740881065, 0.11076683933471204, -0.049674215882454645, -0.07199270988904169, 0.13982469955462637, 0.06320606777380484, 0.05028626152310201, -0.1631912000540926, 0.038794803671489415, 0.07217793273441939, 0.05989314062889275, -0.1564158107796899, 0.09448977505199041, 0.19658988960247278, -0.06661893847816591, 0.0009285847010151561, -0.2020947647636286, -0.000468883971435526, 0.04093950722534207, -0.09339952144925333, 0.046008104956299894, -0.0003541838374025849, 0.2034579768767536, -0.21585296561886141, -0.08833293963577925, 0.001981103345380893, 0.22011142444189866, -0.07666504170263316, -0.034738317535979384, -0.09691604243363683, -0.06270438276938321, 0.07353870055096803, 0.07407936733068313, 0.06959404296008813, -0.001399709785100814, -0.2254919775786041, 0.051616384057868975, -0.1686448405092556, 0.19518653134190356, -0.13774110103625528, 0.11176208375541379, -0.032121080381955186, 0.14980074899402793, -0.03985728418625304, 0.03175749825778337, 0.001284057628311842, -0.11862550980350352, 0.04581574871880491], [-0.1124939711038964, -0.11359519064013149, -0.057441711027668874, -0.006634812016600834, -0.03256503264494972, -0.06864445769426399, 0.008607216299877674, -0.027481984148196237, 0.06676291390965311, 0.1500121977824645, 0.026804549251562483, -0.1261206799235896, -0.18480884190500707, 0.07258883247819019, 0.08495304042773202, -0.004462189198403102, -0.08719812942389908, 0.144027115443829, 0.03551254856719133, 0.03818819595064684, -0.004836826037586421, -0.06482591061643803, 0.0965656511439323, 0.14743584128665221, 0.04834395527172828, 0.01623777680904383, 0.1315799375864405, -0.06849441390564731, 0.21721869333712346, 0.03243630069943213, -0.09077985915868103, 0.11413779352919727, -0.13252706102694586, -0.08169852062149119, 0.028673710725376656, -0.12080834650655073, 0.023752820941010184, 0.009387546271336178, 0.1134434897707082, 0.09512171073360752, -0.20398935699662765, -0.045264304683994463, 0.02469847231201344, -0.1323960889674468, -0.014721741983666223, 0.3219291572083897, -0.0771149720933009, 0.02145697368809306, -0.1393550487536555, -0.08159818032817316, -0.0661920220679641, 0.05879641186685476, -0.12311994779345076, 0.03423685809132289, -0.18438509244113133, -0.1368233395849754, 0.1242471000127299, -0.0771922479533635, 0.08045609787794007, -0.016870843803148756, 0.1665234470342241, 0.0013009833696600735, 0.19913080140139694, -0.09078845563759931, 0.10727362357586084, -0.029699851915300522, 0.046026775786893175, 0.02027802407989388, -0.10718553524168463, -0.04263520750448691, -0.03610737499392183, -0.20611815262242353, 0.11022362010612399, -0.11841383357028053, -0.12136100380657869, 0.07722589762876071, -0.2630680532906087, -0.07817526212554808, -0.013468638265301753, 0.111539177508755, 0.10849141532917289, 0.009119947868612895, -0.04737770559660616, 0.01564116951867079, 0.11284753432390744, -0.058275922206650975, -0.07529218102225999, -0.11040470061315646, -0.031900930217744906, -0.08003264844218638, 0.026912771261098208, 0.019272397876083154, 0.06881981078595319, 0.03614895112268187, -0.14728159810546357, 0.051699424432084855, 0.04396714833423539, -0.14891668248638606, -0.004771289243791983, -0.08788071800649046, 0.018220745935524075, 0.02740267352209046, 0.19944604082997253, 0.11475504522026997, 0.2345433866309296, 0.2481864767420078, -0.013760777427002822, -0.05964018319546471, 0.03812019756162096, 0.060943097005429755, -0.031681486121260406, 0.005065695853268199, 0.08427867763399204, -0.1377541750062456, 0.05955863419991311, -0.03241422225595897, 0.01753112488205883, -0.05696641740257916, -0.019099474058802562, -0.1166689444045869, -0.0023067164882561862, -0.03249241847351788, 0.029777651909523684, -0.09327926567617217, -0.05293865696467176, -0.036822660869573295, 0.161015258043127, -0.016320479460573863, 0.07754136548409823, -0.013016004308473635, 0.19559784370426125, 0.05192690660685934, -0.15959718383670154, 0.06456068766470094, -0.033109872152987864, -0.015652651600600455, 0.11009001069688981, 0.012593332973776086, 0.06843164407197258, 0.05233576998110935, 0.036476985741842376, -0.002327295313362803, 0.12089884040719384, -0.05551944165686747, -0.15979782413968335, -0.17485868354440365, 0.12373762457168112, -0.05394450640208911, 0.15290226554426806, -0.11026314149981294, -0.13269533958302984, -0.053472126639876855, -0.017301158354743277, -0.15624764169118738, -0.1680792868706315, -0.037799514676938845, -0.0003692093368029609, -0.17251877992953185, -0.03765144124126454, 0.15103608703662447, 0.1145179351472447, -0.159093819888429, -0.21796821126767182, -0.1199030332125014, 0.12145469055016045, 0.053048686938396546, -0.11474045646243011, 0.043888982529077906, -0.033031014801916295, 0.055140131260998176, -0.056092442540248186, 0.015211491597117842, 0.1775696153403667, -0.010658639192130262, -0.12102678798791333, 0.12270970507785625, 0.05506039923260887, -0.03399665816831188, 0.10105738000351092, 0.10814723978161053, 0.03474561735294328, 0.2298772703221081, -0.16110233244672123, 0.04512336803501922, -0.08840042328206262, 0.054872144187732064, -0.09966079016368425, -0.08558412248998745, -0.10059674170383526, -0.1394480000163611, 0.0345970591338683, -0.11748006325256613, -0.035717716850166, -0.026240168736306024, 0.018450262815634586, 0.1701483870961226, 0.0884566005736434, -0.29480960543765566, -0.09229751407018667, 0.12249209117405054], [-0.07542325069443646, -0.009815024712034812, -0.0699848966883321, 0.029195116299275334, 0.003716329822270065, -0.11966378681023054, 0.04793352242858985, -0.07255090004166641, 0.0288706628754701, 0.010886497822540241, -0.05214451190529899, 0.08244892941078248, 0.09258459576957999, -0.00680426341524101, 0.049688591815602805, 0.002891446689995243, -0.04165576091147081, 0.02772407061372739, 0.1486898296914019, 0.006578586321470417, 0.013080114815362115, 0.021464884180470614, 0.020652705460763313, 0.06864062307265585, 0.06595674874456996, -0.03848945493349025, 0.03288574791356606, -0.19565362541172332, 0.07420632051915903, 0.037846717359912845, 0.06136530521501658, 0.1392300287575547, 0.04878036756092749, -0.05032579518406551, 0.043765845119030804, 0.09473650403449368, -0.09341980877172133, -0.10342714029830087, -0.11173483631308517, -0.0024420012606757614, -0.10719709994842262, 0.02321820121053261, -0.05614698367841027, -0.07034335513864383, -0.2662603989845417, 0.07603125801270144, -0.07328874064678986, 0.1405566208682427, -0.06083088069839515, -0.03335063745765001, 0.11935905283577307, 0.02561271974110207, -0.1004616535258271, 0.12490395898573715, 0.007567720353815743, -0.03839267127655367, 0.049908431656486375, 0.07781555839541995, 0.036467683929759825, -0.13425248646490998, 0.03524708737583393, -0.0009922072728873375, 0.00627881855642591, -0.011703740807777578, 0.20808572162232689, 0.09977184408667801, -0.016358707726713956, 0.0133566470615482, 0.08749108042051172, 0.09189994686687292, -0.10690446829503893, -0.09200186656495316, 0.008863564615276728, -0.07585670508883369, 0.0859521126046113, 0.18014180784756614, -0.014812232913635, 0.04373912544449954, -0.15317011149463156, 0.014625752581443122, 0.1830236127646794, -0.036781062568734035, -0.06416642704044304, -0.29061955605687323, -0.09813990381620984, 0.1200478340642385, 0.15835076564816555, 0.014263703708720776, 0.08898882215679144, -0.017229987764616338, -0.0003235143733336623, 0.14333973961002275, 0.010687870061303893, -0.023328476294998252, 0.06514333196075485, -0.11800463637213413, 0.05284963567625173, 0.015723894832439512, 0.02401835038875595, 0.07115721017746347, -0.1860898975642962, 0.09104011467513584, 0.1026319588674452, 0.016496298455525322, -0.06521241530698701, 0.015422044037928816, -0.02639009901657537, -0.02810865864854551, -0.05448378173789689, -0.019080445938774178, -0.025736119834462754, -0.08009654738355337, 0.28605592395454144, -0.05891730812287393, -0.10792394650408399, -0.08268495895755364, 0.08861566943907062, 0.07063142015829943, -0.1699030916209684, -0.12099281900590579, -0.005550928241948981, 0.07724254670379588, 0.11830228984139995, 0.04502261532808873, 0.17944073816778694, -0.04610668067503895, 0.11780528621404672, -0.0037709892340687425, 0.014374515295641968, 0.09902676433385314, -0.13506171398684444, -0.1271311685919115, -0.1867702583544885, 0.18165548158289868, -0.09508923498396427, 0.022296045474849098, -0.030105495050342757, 0.018913109789277956, 0.002020335147569676, 0.0345703611404349, -0.0668619221471569, -0.0740235131855433, 0.05596932547401608, -0.16901575254079088, 0.18675474602145864, 0.1398881509432709, 0.10259602768540056, -0.028978836911054313, -0.035819502914724334, -0.10987063587652804, 0.12905375025306026, -0.08582677452362858, 0.1852797790761958, 0.06488192832717206, -0.05519402189381907, 0.032096323989346094, 0.30415376502961383, 0.028640557829104348, -0.012993919796663141, -0.21009130813130988, 0.1496502342790333, 0.062034081057701224, -0.0029090243185774904, -0.014665523391902285, 0.1447705065001493, -0.09727450446506766, 0.04683478885177767, 0.08966729073108506, 0.054354584293596096, 0.06190487189803502, 0.1340844895800678, -0.08591243707811813, 0.1927638725248181, -0.025550476427378666, 0.028733854077017867, -0.19410155419788896, -0.060634347201911826, -0.12453789360544666, 0.09744994960824353, 0.05281930053204475, 0.08508290965614623, 0.07732666126442585, 0.031028613785811263, -0.15437498016939352, 0.12583882244522548, -0.11258650155501322, 0.07136864105486895, -0.18873782738532133, 0.12519563494506736, 0.0018863554912990673, 0.17997165782012106, 0.1606081357608651, 0.20307479659787783, -0.005190719311597166, -0.10450715853458985, -0.12560721304993874, -0.11410044970350781, 0.27628717134971537, 0.08188940099399857, 0.009127907051478628], [0.18125054303141944, -0.05355378381987335, -0.04294076526401701, 0.005547811938334105, -0.04554029317716374, -0.17279667563583267, -0.054673684332641685, -0.021215709737706895, -0.06972149878269367, 0.008098289220909799, -0.00287043017945961, 0.061930871482868965, -0.05916845180135802, -0.08156107244147302, 0.033723743982209106, -0.13825889486917906, -0.13301919649696858, -0.01492457075613439, 0.017618259808260053, 0.0758145429509008, 0.08314312476628839, -0.036481406119315433, -0.14990733585590368, 0.0035607018172706356, 0.08504617008341946, -0.022813990276829465, -0.025106555312092094, -0.05229463426366773, -0.1656432794050292, -0.006485369143245039, -0.08890255127522022, 0.06834848388600062, -0.14554837436312504, -0.02734772287183972, 0.14596305003357588, 0.15705746371452545, 0.1346050968074515, -0.0006495973138082129, -0.104195032820104, -0.0823978182276846, -0.08287818283210763, -0.07681631248334009, -0.17984177187534447, 0.06810786826685226, 0.08075243689890155, 0.11296048438423088, -0.06798118668578157, -0.03880733358285139, -0.08853097964344303, -0.07245584946795512, -0.037926017644067445, -0.0016653746076712704, -0.006272832481017733, 0.06848881135603715, -0.08312176312249733, 0.028738868658172535, -0.2011258555569272, 0.00592469204671604, 0.08742115835751252, -0.055182688649005975, 0.0575253564910196, 0.02082556729307144, -0.08626900081212963, -0.07312968738727553, -0.24091581928594352, -0.08965245147234213, 0.029071581400489755, -0.07799348250823136, -0.02982183271585146, -0.04277977039736643, 0.004986377299035279, -0.04901496362924109, 0.08112169546910176, 0.08501803353579535, 0.09058931773175627, -0.15838400431064678, 0.1766716391620371, 0.0006854673458850588, -0.004509448335870183, -0.02955906305004833, 0.05312413642932996, 0.043081545515637865, -0.0034266563158446535, -0.07445229550951303, -0.13132884697293057, -0.06037124407143275, -0.02363810400222049, 0.029125099049324227, 0.09537516055062675, -0.03191694828965718, -0.24445466959546766, 0.14601129662580511, -0.17202575671644169, 0.20154621357476676, -0.04584805510807973, -0.02809091037194746, 0.002994957793311281, 0.10647815383268143, 0.033542163285033406, -0.09269334858289584, -0.11381491161951636, -0.020763870964567836, 0.01588851766437522, -0.00644683010277623, -0.004047685465010461, -0.11268025153522652, -0.07735072228138606, -0.012998028151002103, 0.07292852495217017, -0.05737272242830262, -0.06772316729286985, -0.19534525117538024, -0.09502490474090419, 0.11682398523402489, 0.09897501840705733, -0.028291223616059263, 0.1468914696591248, 0.2981051244094414, 0.040389660248037085, -0.026816339239892125, 0.1624227692068268, 0.046426920532617044, 0.045034254764864806, -0.089299922252351, -0.01595733289281895, -0.1358761709587942, -0.046137033698598826, -0.024664227739905, -0.07377270488755379, -0.0746102158509595, 0.042955326690994874, 0.007791565752305896, 0.18985726693492863, 0.01951701230329181, -0.0700745747372586, -0.03503933499701375, -0.10431831486871777, 0.09451333477117652, 0.0754645673889499, -0.018640577201356354, -0.2030528322900954, -0.07043427877329472, -0.004916651495579139, -0.2642007552372349, 0.24787838039395754, 0.11097610347342533, 0.05791487270857424, -0.1158292307603363, -0.07040559136911709, -0.04471691764138183, -0.11215031806237236, 0.10741814882433252, 0.06046634841720422, -0.025301621550345904, -0.06546301890705761, 0.16272384044442412, 0.09148636421984824, -0.00694191774653266, -0.1669988639140549, 0.0963319549403941, 0.008075553483507093, -0.0035435871294161253, 0.1109779681218674, 0.14028214973620307, 0.06063285575247658, 0.11838166259789303, -0.030642886483003624, -0.09404714768301937, -0.0808000562774215, -0.10854771793028535, 0.0009303524182783076, 0.1430054176722191, 0.03574362223597743, -0.033457028239056094, 0.03629465188130889, -0.06242622328565234, -0.055741141140336015, -0.032246173534648134, -0.09273527188925812, -0.09262038780734554, -0.22223810874920513, -0.037814534596061274, -0.011859456118427623, -0.09199056144418107, -0.19926807556054685, -0.06847826928544049, 0.034781936679018625, -0.00583446578458432, 0.03616476477614441, -0.12497917633282916, -0.13695241977119435, -0.1705179522592033, -0.08304412075087739, 0.049967673763517524, 0.023390788823762942, -0.0076803899210315775, -0.032960380538616316, -0.08059078206922299, 0.029761436946263337, 0.18742041921845295], [-0.14564536413914508, -0.137010707190973, 0.022906850254171843, -0.012194755259049277, -0.02311273028141027, -0.07796513703166176, -0.11943115670795308, 0.1800899792636912, 0.08583841538166251, 0.009595070420058707, 0.06876703523239426, -0.10401062844186464, 0.13927725431898832, 0.025117545394998112, -0.08437514827371936, -0.19272870047505805, -0.06703729317210291, -0.0014858880056899644, 0.09264281139618746, -0.09388711120059581, -0.0029580488065389285, -0.03316650311460299, 0.12822321078234855, 0.007913337651998182, 0.05514567508328181, 0.10116015019010301, -0.026875721932426953, 0.055582747013120715, -0.1253842099825205, 0.3251435020046286, 0.08761890967416162, -0.07278772414348593, 0.0444281607825405, 0.14863527868459503, -0.08957788504966387, 0.03050068287807444, 0.04395347983484924, -0.08774398077799454, -0.12446895437451948, 0.13974169301188352, -0.0495353355530017, -0.23803692507567714, -0.007303333993417406, -0.11160627787382403, 0.023269238485204694, -0.06604098663588873, -0.07565192438095435, 0.026837370974888995, -0.09468805455747888, 0.09370241459638175, 0.037419247793497916, 0.03675315035532181, 0.013022274791634645, 0.09910280686535636, -0.008537408888965, 0.06741340232720675, -0.22786272299568341, -0.08876665720773776, -0.1374665172287755, 0.0002578390396114916, -0.05580994966330518, -0.07328613235138907, -0.12366679345419854, -0.04234607009797197, -0.08771308367253174, 0.0573753962232322, -0.05176223998302409, 0.044974703844361946, 0.09602186555512696, 0.015933148225039453, 0.024307440771812603, -0.16273631324116994, -0.08911015521069579, -0.03406187516563956, -0.07342080809232955, 0.039853904297979026, -0.2058422591918419, -0.009057151810576907, -0.06441068116424457, -0.11405150953017754, 0.12503913208479916, 0.00940120216962345, -0.06054381578119814, 0.12099374150220256, -0.096734784510622, -0.0009719021937745043, 0.043188472514769684, -0.06789099519550905, 0.14649951394135274, 0.0029261219201903985, -0.08804377285323986, 0.2692124611183186, -0.20395238629702975, -0.05286864308386611, -0.04737604850738328, -0.05982084772911506, -0.011130631906761333, 0.0650927998386974, -0.027496600587467886, -0.013960110007475626, 0.020880144963266793, -0.02795167180960817, 0.11823377251370894, -0.08421692615068657, -0.015012715092535444, 0.1263833667391889, -0.00657915452660193, -0.012143763806915156, 0.003907282958054715, 0.03517387109076372, 0.08997727256404132, -0.16273332809685517, -0.14866945329708567, 0.006191759291117824, -0.11589338767793943, 0.0119952627913137, 0.08129693192758676, 0.1376572594348865, 0.03495912336586427, -0.010334070327110048, -0.09151944968119505, -0.07950198747092867, -0.09959274949959199, -0.04433132796820236, -0.28173550711626755, -0.1239218136508509, -0.20992413619025113, 0.04456284554501911, -0.18745287151852558, -0.12802247739379946, -0.029581710811988206, 0.058305535408950414, 0.03953473073531021, 0.08477573246985522, 0.08806687727724999, 0.12518931721572724, 0.04666073724040028, 0.08189980283943309, -0.14418631299203827, -0.007190337133881591, 0.04148770928380971, 0.13096024827671165, -0.10489531573288238, 0.0023916257844480253, -0.010623382265461733, 0.06917915221809297, 0.022855660290747183, -0.045038365480724096, 0.06579189223789868, 0.14966292829250064, 0.17063366469270647, -0.08777450546403395, 0.24364714473250107, 0.09875578901858215, 0.08759384158921893, -0.13242180596313255, -0.12936334936113397, 0.057333055108203364, -0.09104997423487597, 0.07096394958955977, 0.042172531798361904, 0.0003126680155803764, 0.0680915594925507, 0.007206910324219062, -0.12178204276678745, -0.11342916745932656, -0.1294778287502392, -0.08136291068277844, 0.06793453477460866, -0.002563474124991234, 0.02675804418573262, 0.07405383290815397, 0.17870184841616413, -0.04652267584700819, 0.053994694339281835, -0.04705755732034553, -0.08682927135998159, 0.07466667778412986, 0.07135591538821082, 0.0288529442441653, 0.017527540902496776, 0.041651624904182616, 0.037878864083857905, 0.038861105826206874, 0.1185164767717074, 0.1284037403286206, 0.0429733499160544, -0.042948055015599985, 0.13400233784076357, 0.22236251791844944, -0.08241725711571715, 0.03575744644946296, -0.046588472611623785, 0.06867053494228939, -0.17548954475787323, 0.012917604637504307, 0.054873069110815444, -0.005999493033662645, -0.09013594978065426, -0.032057639458454086], [0.020993005718883403, -0.17439445884654495, -0.08663934197164277, -0.10462276419120053, -0.030863135547483933, 0.02594447505072696, -0.0835789726333536, 0.04356293285809808, 0.014179026220011357, -0.0487497144793922, 0.12286020448132903, -0.16749551375347085, 0.06238174160619164, -0.027026443622589675, 0.1165516999704198, -0.03794956292092649, 0.04024390670641186, -0.08083494282995851, 0.13629068320238313, -0.07625202952415111, 0.14733949114897513, 0.0433641611347971, 0.029263237969565502, 0.011580847973561608, 0.0752191686270599, -0.04882575433834495, -0.06812192245041379, -0.04377651195270728, -0.001740907177354987, 0.17598448300917882, -0.06539081944021014, -0.009455097217217654, 0.049220825191193356, 0.07863328659281983, 0.016057128889906916, 0.061446287572069914, 0.05319159277042104, -0.009007485563161815, 0.03808293118940678, 0.15958243791258186, 0.09097198326610065, -0.013193199539775003, 0.16374597204871433, -0.055600320746122124, -0.10383693783652359, -0.09038105887247963, 0.15609084180216248, -0.1703011303558438, 0.1306324228234916, 0.10117896007119237, -0.09596562789897341, 0.01251361967992508, -0.039342667406534436, 0.033173760673408624, 0.11021004318043881, 0.05832316199963407, 0.08295063379358275, -0.07587027397228881, 0.020118852702086305, -0.12091628554570609, 0.04719587744498466, -0.10156220756486779, 0.12357491964869613, -0.010386527315020842, 0.09591461428022943, 0.044432647897751754, 0.08659424152829456, 0.10856635608195457, 0.05986312981131478, 0.08354729804828452, 0.07006377540654508, -0.10797809574635497, 0.021892485939139804, -0.14293687173825886, 0.19198742477289502, -0.07849313089473348, 0.05513011935243918, 0.17903354283998568, 0.1433152118904675, 0.01775910123070537, 0.169986332299454, -0.04490847574185176, 0.15796347663797486, 0.1013544288693185, -0.01341558440403104, 0.21526679357843959, 0.028734490973283625, 0.009976383036019996, -0.12929256279799653, 0.011421887301248374, 0.06773917596898209, 0.04619644926783019, 0.16817456688202498, 0.0988750113561082, -0.009238214375528716, 0.17600633993852327, 0.2888079918971105, -0.045854580111794684, 0.034804996803464196, 0.12906317308543702, -0.03729154754345739, -0.009154205042143683, -0.08692414001472187, 0.15534454856397975, 0.041637652706309605, 0.07020851400145185, -0.0715815529297422, -0.047543376785042085, -0.04112996776487675, 0.04079007154060298, -0.06077908909519964, 0.006345611287984642, 0.051729585101356175, -0.10594548569561323, 0.08546238614326025, -0.009113890446081315, -0.12378625383876754, 0.14560423978069512, -0.040614675873910475, -0.08222466533493712, -0.02384796247873553, -0.01609270761639895, -0.0026667359357554904, -0.04194081781323986, 0.05826899641986817, -0.08778244083135515, 0.11602674649467852, 0.05034579480384428, 0.06893415977159517, -0.14505860052975206, 0.013340318469367913, -0.11071145907739174, 0.11464459174554788, 0.03888717990247263, -0.05721437435232563, -0.038488821716900684, -0.01856889579801584, -0.015477090626562526, -0.0033399139333769867, 0.06747364229582926, 0.10828998455067014, 0.20059700910146075, -0.010589052438942571, -0.059102131917101744, -0.3005449667192046, -0.20380544551416996, -0.09566556528085497, -0.04109927646017548, 0.018664508244055043, 0.08731498315396008, -0.08650911262932608, -0.04127578407772901, -0.12071213191005448, -0.13644764561164255, -0.026694082074560362, 0.08885460099443145, 0.036374739022530175, -0.0728814039866483, -0.12106988072445463, -0.05040145835612817, 0.1306279538246437, -0.0061795928693091935, 0.002793263908421437, 0.07185157903291074, -0.08685534381296942, -0.15185149248251908, 0.0950248942416841, 0.2195960167863089, -0.007090593699372689, -0.016367929938664254, 0.017712510106017407, 0.21108196822680206, -0.0023166491443296954, -0.08121645386456022, -0.031272134587823, 0.10588541245948614, -0.045438866962286856, 0.03382356464732158, -0.10704361492968877, 0.14569098877952616, -0.010207136154594376, -0.0023867154712688514, -0.019891273915305093, 0.0672882311887545, 0.09354855792964502, -0.04259174728978301, -0.03638323026477484, 0.06667087671646063, -0.18062949308145806, -0.025298007317836227, -0.17036980014124034, -0.11913171424736185, -0.03932521828178485, -0.0302352014279508, -0.13107873105695814, -0.035965632420264876, -0.055373675874273595, 0.03917646949613078, 0.046707085747359586, 0.12105933214810441], [0.14792386989089407, 0.010605400690321197, 0.17098957508318743, -0.07459300422231376, 0.07970959508752092, -0.013252389510601082, 0.12557393547349915, -0.0906764751953948, 0.13169895282212143, 0.10614292492761417, 0.14215055699580567, 0.06630818935769076, 0.030309405243513138, 0.1690757883234473, 0.011562233603786784, 0.09288220084401606, -0.12815967914909424, 0.035778695237685565, 0.015570280315944006, -0.14227578526494844, 0.19862148119272463, 0.01267341107219176, 0.07614367048060942, -0.05814317045291555, 0.02557093560960088, 0.03607285492561557, 0.24890241043456207, -0.11512515024105022, -0.203165680460743, 0.1114434846910001, -0.05816616521212996, 0.07645350758424, 0.04340477691594667, -0.0060057086488305746, 0.15513304151378882, -0.037630665569379426, 0.06960433137860537, 0.22781307368336662, 0.14555157701032687, 0.05828380769529398, 0.06907580237645407, 0.0766863513247525, 0.033368574236770365, 0.015074539309682748, 0.12177851646893809, -0.06217846395091388, 0.23933436154176402, -0.020057877361028213, -0.027119401813283043, -0.0008637875997186155, 0.08398308610626491, -0.036325530809642737, 0.12319825954454737, -0.08527796652874846, -0.036109630064232054, -0.02030789253356175, -0.036527590682734576, -0.028736227062555554, 0.03601895692541717, -0.16964593030269007, 0.09271366244084928, 0.06878047899595745, 0.1335746184362464, 0.05248915809769079, 0.07884514034915839, -0.011512749385710558, -0.044187185572080775, -0.12028866076336808, 0.23323946843235083, -0.0724987054525256, 0.15739082397187976, 0.0994711727666335, 0.01719755969178093, -0.019585246842911398, -0.011393276355749937, 0.042112185076288465, 0.01786547161881315, 0.029020716251906453, 0.054343919102677045, -0.07472902686018573, 0.0803398160312281, -0.05782611137358619, -0.020714995848025615, 0.023412414132347473, 0.1020679034885895, -0.07819485046984166, -0.07167853176162889, 0.03298943009789126, 0.11227811787385392, -0.08904254707973641, -0.12254759569036051, 0.05469078617623207, 0.12988260495572868, 0.12908852256355738, 0.09887191630338306, -0.07843224640497107, 0.03355274782811987, -0.09068979091798071, 0.06437257994157412, -0.043150189069684514, -0.06160285323534064, -0.1801235370692826, -0.01748528202823127, 0.020473978490275182, 0.04994268141017501, 0.10487993226720334, -0.13998640645412824, -0.17663016574431945, 0.008261287939464328, 0.05835854123914258, 0.009580828844228891, 0.08915442422896179, -0.09654991474839954, 0.03572592353014003, -0.04867640137084499, -0.11972491313294525, 0.12975600450209715, 0.061429434197700056, -0.04649041412621303, 0.10223904644468194, -0.16861782470597703, 0.04344192192535198, 0.01954587265777964, 0.11078170173051362, 0.07593465341679269, 0.029348539648112446, -0.04408465140396243, 0.0043454108849307485, -0.009744490121975223, 0.01076152215504884, -0.23146301800755023, -0.1318160052420234, 0.07630174685643368, -0.0794366684599233, -0.07958268712001987, 0.23168859736444938, -0.11409412412285388, 0.023302082886946806, -0.19074652332759495, -0.01495524935353446, -0.019032259624429494, 0.14460837405973548, 0.03744916198686785, 0.10748970020655704, 0.09316759484390863, -0.03900130416026148, -0.12902238099506497, 0.03758668815788315, -0.02080187124312773, -0.28536879284321026, 0.09700563436520139, -0.03304117935805412, -0.009491467217246861, -0.017103050898774303, -0.04516052932898789, -0.025068898135697203, 0.023294354044778906, 0.03762464802044923, -0.05540007735592862, -0.04435749486893364, -0.10283931680892905, -0.04594334942898893, -0.08124361049174485, 0.03250914774936234, 0.05079640462376007, -0.0279405249464156, -0.01745826760665576, 0.22748677405050863, -0.0462386362680275, -0.05646336937148912, 0.0681424689185526, 0.1300635014543666, 0.029171393852788413, -0.06261431936852631, -0.03416994932160459, 0.14223844938791885, -0.07146637487078711, -0.23235478262316053, -0.1962345491243871, 0.009808752240308605, 0.09380650618131971, -0.15425790912621576, -0.059869838812650844, 0.23524009776059177, -0.14863457011151474, 0.06599547890597494, 0.10007481739505507, 0.10704339960455511, -0.13132293839250256, -0.1566723492108043, -0.15365544775860232, 0.03025110228541928, -0.06972840939237533, -0.1701032399986313, -0.08296334823960255, 0.18733090765275548, 0.00380777190859929, -0.12643482581170515, -0.21652709728815359, 0.06218072950330164], [0.13825860897070835, -0.007410645567578766, 0.07905402882664543, 0.06360590761574622, -0.03814656390097751, -0.17555373358899923, -0.1067642798474756, 0.04938758899097483, -0.06861312944142604, 0.1291120637783093, 0.059721470718799644, 0.00852846029853904, -0.1436346582020737, -0.05344784619235304, -0.13933259975035334, -0.05278067080683511, 0.14428314330047562, -0.001747898291985775, -0.08048117637549207, 0.0900293234559963, 0.1545561742573393, -0.09888421104455473, -0.05809206969855589, 0.15642223502553843, 0.17009202121128422, -0.08173711423640613, -0.09959638538996839, -0.001750864861203454, 0.002338891752141956, 0.12167855174486522, -0.01255569360141611, -0.1770290662202546, -0.022447579459323963, -0.07057955186795326, -0.02261850583193006, 0.12304205734567006, 0.10678853029493977, -0.15014388826199443, 0.18752255036225038, 0.003757283691492311, -0.031182686237635853, -0.08723898463994378, -0.023830042299037523, 0.03407529506245157, 0.07846398872206929, -0.09351133888248077, -0.03373716322089665, -0.048119992184192724, -0.08405904342606949, -0.018212370969064653, -0.047337937944946507, -0.03534465205839917, 0.024983419752801786, -0.004035495746079536, 0.03273925303481849, -0.04716181004029724, -0.030671714375975035, 0.217306412594992, -0.20422872387511443, 0.0034309049408855936, 0.12459089182727463, -0.09118409377417587, -0.18566413483461305, -0.025060824915613303, 0.13727335402315266, 0.04476231426289373, -0.06118712415282966, -0.032678673117762055, -0.22703471376249323, 0.1492409524683993, -0.012209345551846761, 0.19924591696143756, -0.05647101558400529, -0.00017367841355133088, -0.05317785579504791, 0.03209435883029035, -0.07849589205080205, 0.0004616512106434774, 0.0001985415053699288, 0.1159406354105912, -0.013758273343175172, -0.07938966677350628, -0.05402431379055807, 0.040393032584072314, 0.004805948449131973, -0.0156934851757536, -0.10480292717317446, -0.04818171931978269, 0.0874396497885313, 0.0781176875780768, -0.08207529683436698, 0.02531164169797784, 0.040708850698273714, 0.07570977869037666, 0.08055759623029113, 0.03995240551836245, 0.21947511556907656, -0.09593158519130632, 0.11522183528070264, 0.11565952093749728, -0.008126213487005976, -0.2855061463005262, -0.0630832237674643, -0.04187554724558778, 0.11180797365838958, 0.15250145585928693, 0.061396347063635594, -0.00450320842099412, 0.38711895934723906, 0.16555061667184917, 0.0020322885379930405, -0.036295693243265294, 0.05648503058333306, 0.17956005702422298, -0.07110553542757637, 0.15157641109816425, -0.025238912758508217, -0.02108972748735309, 0.012495114987755877, -0.08982181502657301, -0.11267394445017791, 0.010820204838761524, -0.07994730058424976, 0.12175643844932416, -0.06483514407930212, 0.03526056043861532, 0.06118451727632496, -0.29906920090558126, 0.18096450271993914, 0.17006290426314746, 0.01589347896551321, 0.060583368736110005, 0.05703342013388549, -0.02209355688210712, 0.016975863835273844, -0.17202555527206476, 0.04335405110459477, -0.05392083899813729, 0.033333683366101784, 0.02671349824459159, 0.0889674494778735, -0.09576878153938556, 0.11009770941869773, 0.11989816593141207, -0.06174488089349155, 0.04934938142137146, -0.22383368463418468, 0.11350457724830551, 0.022859496186405415, 0.17920644814984046, 0.06485985354632563, 0.023859263926462784, 0.04925250336558474, -0.03679006805877386, -0.13399998559926335, 0.04011655043869707, -0.022977580382783597, -0.19926673977367806, 0.0038509410665066575, 0.025831086563363238, -0.06423149866508399, 0.15698574335644291, 0.015676262619718887, -0.024072411446399742, -0.07562665403218737, 0.03332956540873703, 0.024221901498791554, 0.08259613296868892, -0.11168247521379893, 0.02433372736456934, 0.06539030113567375, -0.18536516402778602, 0.049019004469513655, 0.10912295159132775, 0.07459008882293823, -0.07078668895174577, -0.015693204072385485, 0.10522611297931711, 0.016542392829396155, 0.10376991860841962, 0.06321198657453439, 0.025750400478366735, -0.17625700985245038, 0.20628886834997182, -0.154945495531456, -0.02324111540700402, 0.03607039170011613, 0.053617915829806836, 0.04422236699176293, 0.06872604254014293, 0.06177746525128236, -0.1815526680789636, 0.04390155681446892, 0.0028255070250651337, 0.06283286384652004, -0.07789543763488355, -0.12813816710121353, 0.09198590056161791, 0.18404657100628666, 0.03965102203915892], [0.14040355451696093, -0.2427312844227562, 0.05224143713809105, 0.06020715034368865, -0.09819554439677775, 0.12277427815015442, 0.06907997644487805, -0.07580059027848107, 0.01223272147904095, -0.02345622283382646, 0.1676835252695007, -0.10914417752289106, 0.022253129605193593, -0.13201072899190053, -0.09192942553391661, 0.032175876224845995, -0.03052375918241804, -0.1326389853533522, 0.022662275806492254, 0.10249616797203684, -0.15008239843328, -0.10597729127022455, 0.0671596134706703, -0.0168297430237024, 0.07948162376715415, -0.07225276629106683, 0.1006154680987803, 0.040957427423617236, 0.11682672504464957, 0.028417862467400513, -0.05071809220046173, -0.0995773215061089, -0.10668280869826192, -0.07917770472672322, -0.12658846595937878, -0.0020081521062542034, 0.19899480011190152, 0.16536669778591406, 0.02144623582210595, 0.0017112639019616635, 0.03368643607185285, -0.0008977336102755776, -0.06472947534330899, 0.04227986281056026, 0.0602274409788203, -0.028779747027737647, -0.025614944173211498, -0.031311610561896866, 0.07859789375185312, -0.16872813401194356, -0.2707070951108539, 0.07521613402144003, -0.14309323183385506, 0.056675642327704404, 0.09766234361624905, -0.08261876691662157, -0.07035016728777048, 0.022833722542032336, -0.02839014732274156, -0.17054561487931755, -0.15053959570162448, -0.008889651542666244, 0.07023861174633109, -0.13102784019242977, 0.12023265817633354, 0.014653020298230231, 0.04074133359188425, -0.00021700680311500636, 0.26816233331982153, -0.10358627542164646, 0.06470372769641704, -0.03394500411779913, -0.07194148788255456, -0.12408399875822848, -0.16264882174398168, -0.2088653145127562, -0.11487035553011636, -0.03913987502954658, 0.24541855499790632, -0.1503719009893366, 0.07889863780470392, 0.011596487915466453, 0.143937400766071, -0.042003404270244134, -0.06423726672203398, -0.1298560803072583, 0.0894840242120843, -0.054904392147588486, 0.15097200745390102, -0.165971758256846, -0.0874803075716288, 0.0015301352357072618, -0.06668789262202146, 0.034096162662193764, 0.05515457157209243, -0.07624462487377298, -0.09928637335192148, 0.11053196464357429, 0.18511295532293734, 0.004547165972961026, -0.09504083977188263, 0.14109061168904863, 0.01578664743082405, 0.11365510587722275, 0.062315177735284374, 0.033311947034948455, 0.06286776106449488, 0.05552251418384184, -0.07244747879170386, 0.15616459522322507, -0.10433437296642871, -0.15300440173904004, -0.024969761101152895, -0.24407112267904738, -0.20375069316179906, 0.16809393099343425, -0.12235968280386342, -0.06162168395957264, 0.17269744155593791, -0.09589910456098724, 0.15045048357083796, -0.0293271679276181, 0.056558952561729346, -0.03920467763201274, -0.05123189130548975, -0.16651940420975506, -0.21324689956962523, 0.030986014668542568, 0.0535642443105618, 0.13350467013577522, -0.0383718651176755, 0.049309436736975805, -0.06090394059468976, -0.07593801529979362, 0.07303726522449781, 0.1896275447711611, -0.043140235063870526, -0.031135807404989693, 0.031859331371971354, 0.08402477694060459, 0.20819568933218283, 0.01731597752259357, 0.02051408378513207, -0.03155323617884085, 0.10263835747436041, -0.060187497910478796, 0.0018823951357451161, 0.029652867138479665, 0.12588728721307568, 0.03930814535310592, -0.060638147487191145, 0.039917551809258614, 0.010201273465928671, 0.06472833755497626, 0.11358990732041419, -0.08214953950783785, -0.014381543107711288, 0.018447068692226464, 0.06399785728437776, 0.043713616709197746, -0.1584856396119552, 0.11800337009158769, -0.01221726558404397, -0.1757784980724366, 0.07320488335832358, -0.02492286644798111, -0.23300467202447422, -0.008266696339040399, -0.13932463927225477, 0.03137398820601863, 0.06852085184188882, -0.07406244939399936, -0.08286394492911657, 0.11486541234115978, 0.09939757638624942, 0.05140145810070671, 0.17737809189438944, -0.010369273738063971, 0.1467171332682439, -0.044394623969782845, -0.10148784312388934, 0.10292503574249358, -0.017007143951434277, 0.02381386147885321, -0.08469199594733755, -0.055927934823098525, -0.0761014870746355, -0.12922019046341326, -0.031612186098810856, 0.14273919484014633, -0.08786209859750975, 0.06537736594792752, -0.044478493278752786, -0.01563675880128858, -0.03337470860101575, -0.000854893304512085, -0.047572206094749984, 0.03693390459644523, -0.04219852146860305, -0.13460543801098865], [-0.03570157507608148, -0.00953644811059928, -0.09106325567580661, -0.0465077896497626, 0.1608354178395596, -0.06127579125474744, 0.11686538725113335, -0.004498646813212405, 0.06807716410055929, -0.024745374532088003, 0.05537755455676876, -0.23518348348397503, 0.003901878848838549, 0.04633042708663626, -0.054243173704095975, -0.11346396817756288, -0.06079390642597399, 0.002232175378618675, 0.030241890951471083, -0.05965566511236342, -0.013774264382867562, -0.029284054788690023, -0.032452991861905055, 0.024241154211889375, -0.14051592948223735, 0.030262725869207346, -0.04265881002780412, -0.1426113955077116, -0.02109913688829326, -0.07312636954270878, 0.15267474615729323, -0.060969713236679275, 0.056773909557141206, 0.022109457838244723, -0.2366085165786096, -0.052536644011935654, 0.0853988936483104, -0.007739884197857464, -0.09051662753468848, -0.061624929604179285, -0.10136540572014346, -0.17957893025658186, -0.057341325906201265, 0.01644692121490958, 0.15733557978342572, 0.09327149579083688, -0.17536110590835435, 0.16518250511150426, -0.16653277913803746, -0.0984743332372471, 0.07356642847484778, -0.05822466990872251, -0.1785112353476053, 0.06064719962930639, -0.13202878970646645, 0.020175074160701287, -0.042736139945455734, 0.01582243041003682, -0.05644174039272688, -0.10655904240079069, -0.09178916025459034, -0.05849929521894996, 0.17809701862499938, -0.013638373440460611, 0.07494354769789115, -0.014458148211058354, -0.09115225956495578, 0.0381540447608243, -0.04289723411407675, -0.20592454026732876, 0.1455607824557076, 0.12816785362893468, 0.03001270021919011, -0.10814156296229617, 0.037882797850353526, -0.0732253638076979, 0.037714992042659115, -0.03378221506926286, 0.08842299940003293, 0.15381772763978774, 0.07022489151047405, -0.048430594865725464, 0.007316098241423467, -0.0022949076875426297, 0.07175412459738979, -0.15244862431967487, -0.07455215124495584, -0.29659547983821644, 0.04498688710284145, 0.14585980885328406, -0.06738058960947775, 0.06733193927650531, -0.16716997402799508, -0.08348062582139916, -0.055053374642887204, 0.01463381320228009, 0.07220251554186077, 0.16647301441208642, 0.11407188958774873, -0.005218195095037509, -0.016192303967865702, -0.004674768309826553, 0.07661909209885, -0.22216688945076035, 0.08604744977612751, 0.05463430973810208, -0.0008679256487576259, -0.05377882908791272, 0.0383758579934596, 0.13186438697491068, 0.061122743246832194, -0.004275389314647413, 0.08161720218247204, 0.12015463470511628, -0.03437454280070223, -0.10149968740288201, 0.016696763362187637, 0.22396816206135237, -0.017974527594387123, -0.037474864087658, -0.05299381909745772, -0.10849692448042127, -0.13523863597070354, 0.07023434906829812, 0.06312134006471184, 0.009370056280990045, -0.02383810841538946, 0.07214763791172026, -0.11506491699532853, -0.0682528643854512, -0.0036970945847441903, -0.01757299231234312, 0.12636322807900707, 0.03419019271561758, 0.05401689427918353, -0.05300677734385915, 0.19866896284675867, -0.0925549829307061, 0.14503201152075507, 0.040881945527526026, -0.05872258442830975, 0.06803461975584081, 0.18509072602812585, 0.09981037182457105, 0.04041269558491511, 0.12096820072363904, -0.11688675915016486, -0.04782016669049108, -0.13091858338400936, -0.03098101742503535, 0.014698638158874622, -0.10924248928470906, -0.09347925937126328, -0.10702488572133495, -0.0029741195170043416, -0.09969700898667058, 0.029532047576033883, -0.07977023025855945, 0.0996702697011198, 0.10503367676231969, -0.017672695001481654, -0.1050213759213159, -0.006842100684686002, 0.10303730012799905, 0.042696020829457774, -0.14867795812058007, -0.0036971365319515997, -0.02665188748122669, -0.1349631047075682, -0.14573711093353645, 0.06753656913831395, 0.029130052549295755, 0.08598221187276779, 0.0038973702373300894, -0.006249544249314232, -0.026311277758751608, -0.12712288931694404, 0.18966358904254565, 0.058778330182581995, 0.07677675077503045, -0.07329553730353167, 0.13850786243059487, -0.004312378462454906, 0.07704925119133639, 0.03225653356013495, -0.12548407709084855, -0.13554830358987163, 0.02960067459308655, -0.03544027396580005, -0.19546979313969867, 0.08487203674518504, 0.09261284460510186, -0.07907663261235116, -0.011753843771035033, 0.11454873182792996, -0.056580981427871595, 0.06528290503238728, 0.03709189554016446, 0.1439204472961794, -0.12081354338539554], [0.021831461628099035, -0.06180363896135518, 0.07969882744097452, -0.010381616450848173, 0.23082146129156608, 0.07509848646554193, 0.017773505734925484, -0.12202737550657784, 0.05640983680494711, -0.041063924196003875, 0.0906230375374902, 0.06700095933583361, -0.08985426078892263, 0.1364499726072117, 0.0034052468437563072, -0.08819557111917062, 0.08595245430899566, -0.010019225739830372, -0.007003990931639349, -0.03644699136617077, -0.0613242659358772, 0.10440115049728091, 0.10474489513543365, -0.10163602256109433, -0.17716544165049875, 0.2068706545829879, -0.13390484068692038, 0.13909148641568936, -0.025418876518513052, 0.0460864475594443, -0.09629012263220581, -0.017727345748268376, 0.02726698304051101, 0.1265258695694779, -0.12037814696763237, 0.08276093025989352, -0.006233209677288407, -0.06518934620731764, -0.07102050040162909, 0.0018156580765573925, -0.005237711944189905, -0.18026877478097356, 0.08316927960781491, -0.1800217931361755, 0.03128180237494169, -0.11633011675050008, 0.22422977768867924, -0.25132663057000626, 0.12698867263515745, 0.03160508459733418, 0.07103070577507378, -0.02702666581111669, 0.01784886083548193, -0.14783048776533522, -0.07663768360445895, 0.013232636767328393, 0.04169761096841626, 0.08010798260587408, 0.021578508663452994, -0.09764818857231099, 0.028568589545128215, -0.13454257436006437, 0.11508510813920433, -0.008583660252367805, -0.0926979995089251, 0.031919295840218014, 0.07154252223757347, -0.0742880275439471, 0.03192101005940427, -0.21347267279189885, 0.06834239217297568, 0.1496370914483777, 0.03290840707985893, -0.032814602119690645, -0.09693647347184994, 0.05649709176738655, -0.051063773738705576, -0.010728135631255459, -0.06172039814529042, 0.1066180177133565, 0.13474369827569052, 0.07885091063442279, -0.03257050194667249, -0.11968081565847528, -0.1724602643806886, 0.16950620795334334, 0.06731469238206328, -0.053640590289198965, -0.02076002984688021, 0.058700529320978925, -0.19862246571613582, 0.0910129751368944, -0.009670778469478575, -0.08468088887803643, 0.022450553239256103, 0.04871300115563057, 0.13759548177470257, -0.0215799249040379, 0.05275323901627022, 0.06144355218891682, -0.10980702964196895, 0.07324613930175493, -0.07992700008392088, -0.07485874446676608, 0.02511327736252535, 0.07650899421281306, 0.04158340256290038, -0.011735098157346108, -0.18550632853759813, 0.16183532647438584, -0.14810075794800895, -0.02913339008034077, -0.11956079008526645, -0.14213110223686556, -0.1121357462351799, -0.04426168698508171, 0.11833630732573945, -0.024416569083428354, -0.07241049794243579, -0.03246732004305965, 0.02932463419742617, 0.05936872271556781, -0.00020284936999199102, 0.09066842128584937, -0.09302173221977307, -0.07776635576030745, 0.0167145560858576, 0.29318710698319694, -0.14832381909073322, 0.03538151424818859, 7.413828483079434e-06, -0.1212471023999829, 0.13277240899385, 0.12064629067269689, -0.07917964489831905, -0.06753140460302552, 0.07653503395597511, 0.09218735086916177, 0.06789073471323738, 0.08653862199016343, -0.156305931790457, 0.01188273742662881, 0.09742560950305956, -0.06507396201839825, -0.04227258677419347, 0.027000734504877277, 0.16174076737537563, 0.016891270425549127, -0.0898044128254077, -0.07736388355241992, -0.05399409866650055, 0.0747967771962595, 0.02605454547058996, -0.05583967422533172, -0.06631622709685993, -0.12775729137293912, 0.12763782312654304, 0.09141691469487721, -0.09532264295823158, -0.011777504846341002, 0.03640168779862346, -0.06271041719098246, 0.007931542610681802, -0.07550367713988973, -0.021577448065834236, -0.011346336916629186, 0.06505214478565485, -0.05450954404829112, -0.06236411791932166, -0.13924364740846767, -0.024635794313507917, -0.08836646513501317, -0.07418892812791215, 0.01776520788291507, -0.05775669720106697, 0.027128298893964363, 0.17989757886037208, 0.07648297686629074, -0.009727724808748192, 0.22154481572705007, -0.1789703453978966, -0.044230930902367196, -0.07020490480872031, -0.02988603360420101, -0.10648942582367259, 0.07447784737218512, -0.17086545401889816, -0.1668926862442125, 0.04956741828062264, -0.1263522878054372, 0.03975757322040109, 0.0390528449195702, -0.055718470982479215, -0.12059823482231861, 0.032635329321190905, -0.057726175218756594, -0.029208390042095356, 0.025965312216703205, 0.15230244899759507, 0.10464081791456799], [0.04982126230194876, 0.08089094639594195, 0.16635637534957048, 0.006912277685880095, 0.19369655275284337, 0.0006274192463966633, -0.12326032720363586, 0.11985692361425555, 0.08829487399355407, 0.15722998154567117, -0.07896030157788088, -0.05706438251002026, -0.08184342091107584, 0.09686653072350869, -0.0024441852691560327, -0.1078640912525385, 0.01703070316771311, 0.12105717010280549, 0.018240826879259382, -0.07825515246862996, -0.14204893463992213, 0.06702399600661131, 0.11421689479617213, 0.11253911066532778, 0.017336286188917013, -0.007606376546106474, 0.0524091660416334, 0.03367319922011117, 0.015371185536488379, -0.03198468941087404, 0.032337138978681734, -0.015944550073633674, -0.1233075376835885, 0.0959190687538042, 0.12170359150720376, 0.03919952184252913, 0.08171875166425231, -0.0010816153221568632, 0.15278587626646586, -0.023577697727062603, 0.027061035657706685, -0.0015754105101186931, 0.030309488964350702, 0.14020643152633439, 0.11998390942627597, 0.13181520247531847, 0.02675732546368957, -0.019240570298488677, 0.00578760499747924, -0.00854528998774258, -0.04677618986978268, -0.04041104710731301, 0.003469457407616711, 0.18761843695496594, 0.0698138481411572, -0.004829905779795812, 0.02487761600002665, 0.1197611825019093, 0.10741919630871125, -0.0820812601134759, -0.010324217942628838, 0.060190592017861186, -0.14907018825793633, -0.03917442301923335, -0.08078887711405111, 0.06517699535952926, -0.00222908290575639, 0.03466573254999218, 0.10472836402707238, 0.054753348081874015, 0.18964907839986925, 0.028976139519713, -0.19259376696300132, -0.08798840640343891, -0.11547244212756225, -0.2090709238202591, -0.024667329217799114, -0.08674279193014782, 0.006183583412855924, -0.03256133157812808, -0.1367802605578524, 0.10872208207063178, -0.11710141695472591, -0.021665604291448357, 0.03606720806282396, -0.14331820509473692, 0.1557040691910256, 0.049615868973325164, -0.020762494849693374, 0.2181102068442421, 0.02277072413571792, 0.08388472827346512, 0.06089295289047882, 0.09923151128738045, -0.08916867202931764, -0.2162174226009233, 0.07743313692115171, 0.039472137103289485, 0.009435742799098793, -0.08198836325118643, 0.11057084477533125, 0.1301486895831804, -0.10671962327399588, -0.10275607234476307, 0.2393033919754026, 0.06066444866459638, -0.019719224048681636, -0.03277364927050733, 0.06872582472268146, -0.058386515013412126, -0.06532125667404627, -0.07418211027377537, 0.0566573123721144, -0.060402424624030844, -0.01898807111696927, 0.05040973129606725, -0.027762807923449834, 0.08932413849529391, -0.16776952050820132, -0.12036642673718323, 0.021584263047809433, 0.11067818057454949, 0.04284763484397543, 0.06793860517289821, -0.06206451256524694, -0.08058333613259443, -0.05234905742416581, 0.0720891967644081, 0.14934759740755144, -0.10441824552312008, -0.11416117756726002, -0.0011299801147329337, -0.06915747675107319, 0.04881194217824905, -0.25984980552136105, 0.19545858368790864, 0.05294876308169208, 0.08081294880065659, 0.02362964780284294, 0.033518260471292284, -0.0901966351248194, -0.1277521315395074, -0.08584381313134441, 0.20854299789382186, 0.07087628114408417, -0.1254076690925006, -0.03305198683373449, -0.0002731740370175143, -0.06208545169035611, 0.0705874490983853, -0.08379887890122963, 0.02833275281607137, -0.15474746096478087, -0.1708188466851385, 0.08470038376296497, 0.1459503579950887, 0.20252732815838337, -0.07688236487327944, 0.12001685323719118, 0.12802903600623816, 0.09322677741900778, -0.02403097831896286, 0.06800594285388888, 0.061387999309373414, -0.04893264902996765, -0.01806177888625726, -0.03294013383097741, 0.009613936154919763, -0.053145048801579275, -0.16885649341691536, -0.060221200474683774, 0.10438880078699908, 0.0026201327425248795, 0.039853044617603646, -0.08412918262115571, 0.03303741695924269, 0.08013876316371871, -0.014229884551299336, 0.12754092741628817, -0.007860872863914294, -0.09887077372688821, 0.04805461251447936, -0.0001758976563847216, 0.01774155211854494, -0.0585532086778308, -0.02101002819515665, -0.10208470455097798, -0.05292517832822718, -0.005559771593997187, 0.0028830830050169767, -0.14075194812678096, -0.049488959838558264, -0.08928038142531824, -0.062647168681894, -0.04698926516317866, 0.3137608981948375, -0.17613899113601653, -0.21393293330761667, -0.16368594759391544, -0.06591386366446339], [-0.15127024160363095, -0.2808450413711839, -0.17673982538094793, 0.15979531531292507, -0.18997564399634287, 0.1085856021989034, -0.14623683061044426, 0.06376419419164252, -0.1429550896519611, 0.19686439340606748, -0.07973011384378909, 0.10996769984313245, -0.019274889874161424, -0.2911786444688698, -0.04581395497530123, -0.0019094973788440148, -0.06153239684112748, 0.004457645193394661, 0.028284601388078198, 0.1330807867208972, 0.08604338924070308, 0.05547619671656781, -0.027228728885798272, -0.0075043867867148435, -0.06074705579295095, -0.0196219240912531, -0.19196369065808502, 0.26056465838791837, -0.1972531596186602, -0.006489423294609652, -0.05172228697591865, -0.23499227104308146, 0.06563604104870155, -0.0749514113841853, -0.0923378364738953, 0.23610005165580808, -0.11574748366786665, 0.06312201601538349, 0.01613460802833293, 0.0248944808798756, 0.028826970502868938, 0.19596134265815204, -0.18558228943564295, 0.0392769872344995, 0.024519839211221747, 0.10995471800702836, -0.01739421234664692, 0.10115944005324266, -0.11001923491700429, 0.0755727252608214, 0.055699946678309735, -0.032850198595599234, 0.07948585160452076, 0.111513804109546, 0.005170478692243184, 0.07389844134588941, 0.0808138487733733, -0.021157707556946063, -0.036979408830514364, 0.11675816422763016, -0.08585242017660842, 0.042567719231996454, -0.2153613761600421, 0.06669920193792386, -0.01520238278640143, -0.04452138271379699, -0.07548673983062013, 0.13838915523907247, -0.08940493830074832, 0.02317970160559224, 0.11831838869943033, 0.17496614864003254, 0.021220055955115506, -0.0963136367530764, -0.014446435788056725, -0.007940895570493276, 0.026708404408855895, 0.222766070945145, 0.197534464595986, 0.03627251016118086, 0.0113772977644556, 0.011381006881570415, -0.1614235998454388, -0.10823172142430447, -0.17369317332476328, 0.05546798977568366, 0.08386055349799981, -0.027344214926590192, -0.022168132030050268, -0.09419177126746575, 0.1288052524246469, 0.15999108988167293, -0.04404272638659686, 0.03121612633472868, -0.0056128654083613, -0.00970624944302409, -0.10731435524343028, 0.11317646075854057, -0.147143460666889, 0.05740099107371409, 0.10521173486359042, 0.1497586413852807, 0.050664454206869707, 0.15068427394166636, -0.0711896163474609, 0.10295161897398909, -0.08944369006391417, 0.28377892353120415, -0.29268688710769386, -0.0025344720376308124, -0.05530713999732438, 0.13508194712067334, -0.09806182307070868, -0.023354509053640345, 0.014838759526189195, -0.011711261266497103, -0.1037522174427771, -0.18541958782584597, -0.13366757648362634, 0.03765304509409428, 0.06830992204908963, 0.06281543778545981, 0.04076024104492055, 0.15368796067915821, 0.11348638034910796, -0.04880300481831319, 0.05978748171694471, 0.19799193989975247, 0.015243748067168373, -0.08218731217706679, -0.06338220488203644, 0.2964279610725918, 0.12901756899239253, 0.09018170480691215, -0.15644570087265677, -0.02595934684394144, 0.10659209873028713, 0.006693249910325578, -0.2525820292389796, 0.00913477151723249, -0.04787332353042206, -0.1099324175114389, -0.029591883649322415, -0.04300524918896962, -0.07546443783723376, 0.15527517197689328, -0.02656729355358566, 0.04710662430782427, -0.1989409254864107, -0.24699232710386448, -0.022649321986500222, -0.04214883942851233, -0.05657234968255823, 0.003150122673406861, -0.013020415166313052, -0.084846456752493, 0.03641336668131373, -0.07732476016896923, -0.15245092101417423, -0.01736533946121817, 0.11347215473332932, 0.040514929731760095, -0.05735441519147281, 0.115758152351337, -0.11494106750316481, -0.0069198041437996535, -0.1151385257737692, 0.14620357934470066, 0.03093768451694316, -0.07437636885945342, 0.027764809089886818, 0.005324586198518742, 0.024074197450630785, -0.06709065130101081, -0.0332667539146725, 0.01780567752874258, -0.02651653018794516, 0.06476411459152916, 0.02877168375987032, -0.019281133205480028, 0.06140367556131261, 0.07218015497922219, 0.08994950783587381, -0.06851873589782304, 0.03819159905607508, -0.06886284733074109, 0.09863437990229183, 0.03315887203400426, 0.019458725744159768, 0.04422884746976528, -0.039039417305512664, 0.06361230381585706, 0.1784282153840037, -0.006329700160362649, -0.02596796105503882, -0.1481277704636102, 0.08160396029668242, 0.16968910485448407, 0.010729380208941661, -0.08396988625199793], [-0.11733009253907574, 0.060045308640871146, -0.04272868544693846, 0.027621747077555305, 0.11131809497248489, -0.11934407794705894, -0.007019372841888675, -0.02094481256082844, -0.03497354451026928, 0.06817714521390314, 0.04780042767247073, -0.06802041758772391, -0.11006910183672042, 0.05242092216908161, -0.015677324415153234, 0.018716847200466135, 0.08677052755260982, 0.028072278887799725, -0.047683983328111405, 0.22549604149646357, -0.07408020443227746, 0.0821458030868843, -0.11781688850053004, -0.12146890657253781, -0.09654942456391666, 0.19644877128755575, 0.038108804248808664, -0.06309920122079056, 0.000491530345575929, -0.07066324908102267, 0.00696308200438344, 0.038580278256984846, 0.017882371795214767, -0.0890486599657221, 0.019866836931569994, -0.004270989632666165, 0.1948196170177015, -0.06482241494420998, 0.02446294091701684, -0.013370508195544585, 0.03908744060393197, 0.09020206660287178, 0.035602242245061096, -0.1176967015311144, -0.035808180089615886, -0.05666628616925189, 0.054619020855895255, -0.060118192816487094, 0.031875267780247296, -0.19517059249316593, -0.12720163133137263, -0.0801004689566003, 0.005281002375668994, -0.046533162543319725, -0.0933245971041893, 0.02904848690388182, -0.05163236752493525, 0.24262085391909768, 0.0837258476748653, 0.06458730807607764, 0.005613611715972368, -0.17583744121060801, -0.03251512484094894, -0.13314499023790358, 0.002071919492211845, -0.14231491980127778, -0.021984464080746956, 0.0025463165203352105, -0.08154577516215936, 0.012867284157565027, 0.08566442037173426, -0.011484902187038406, 0.01410618574777538, -0.24378130024862749, 0.03879481727620498, -0.07225330496838359, -0.08507682531741396, 0.16197270732858993, -0.025100468740438774, -0.06283628625332009, 0.011406541990716577, 0.009779125932993885, 0.031970772220058875, 0.045097225552827705, 0.08562872838040006, -0.059876480761108714, 0.032031211768482636, 0.09868886113838031, 0.012692349398751057, 0.1716913416033155, 0.09636090721194544, 0.2264515337697039, 0.10128275797224909, -0.0806068610284061, -0.15458075567912252, 0.00844112253282919, -0.09995564006721173, -0.07170808865761887, -0.026305799946288292, 0.023965857615222255, -0.011312701561084626, -0.10077744747802408, 0.014509178473043864, -0.09674755365107336, -0.08448998172588475, 0.010458851301795745, 0.06694195959536896, 0.08907233735778258, 0.10538554234207666, 0.14337951285871636, -0.10476610069334627, 0.035320742897302, 0.0492885530045933, 0.11149966644667086, -0.13670848454044476, 0.08858132551745732, -0.006970464427058626, 0.07815883698088791, -0.048133190267219045, -0.05722957088846318, 0.1075109930206831, -0.008266494491281742, -0.1666841221917008, -0.06894077061075693, 0.13428908281878424, -0.24905072626251698, 0.10378165617275593, -0.10873425227111716, -0.10794566298412418, 0.035015015969881866, 0.06486885699329376, -0.15873114652738224, 0.034865671438658576, -0.22006331823250364, -0.09991841941784423, 0.07214850036331259, -0.10715120100743729, -0.10888859374536734, 0.11063010669616521, -0.15720642258116724, -0.11346430500626331, 0.09656375932037005, 0.10155592978616863, -0.018835016801825494, -0.1321300823258819, 0.01970450027643507, 0.09037021581928209, 0.0639994035804164, -0.00845815859055961, -0.066973623418412, 0.012246231489536439, -0.11690336597792884, -0.13268214795203448, -0.06480570846206296, -0.15858324351990558, -2.647337150223112e-05, 0.08829553722127619, -0.049942287178276375, 0.04117288824652999, -0.12181274769098573, 0.09926373461258271, -0.07215635078971794, 0.1255213958114468, 0.01659120162643002, -0.028270477939221755, 0.062009356365293894, 0.04335114359651327, 0.02654430067117047, -0.007817341168275194, -0.03749056507142893, 0.10148271102265925, 0.010732401541701927, -0.037055685596101964, 0.030800932310249125, 0.024828769043354123, 0.03909895640356027, -0.10817543381105824, -0.0459524052024897, -0.16356096397469813, -0.1068623743454524, 0.015242725909264466, 0.006055200657902446, 0.06213408416178718, 0.1992693937204494, 0.1469938104277417, -0.056890180017198554, -0.05094745176580527, 0.12991001303755462, -0.031398039110931905, -0.1063108247521322, -0.07799593901892429, 0.06301021707546646, 0.10988969503888031, -0.006625169373624782, 0.2388407135639598, -0.0344068542861628, -0.012168766936604174, 0.05240936197638932, -0.004148738346451432, -0.09738720514468645], [0.03172031198822303, 0.008080639599906597, -0.09156038487403032, -0.09081235849364701, 0.14782169037702514, 0.07485154620186851, -0.1064609495097136, -0.14766297012043672, -0.006368277242919391, 0.15091569485667033, 0.016083565920648555, 0.017193542540050247, -0.010046038188127526, 0.04888408948317121, 0.14273439276260613, 0.16314290643172288, -0.0364580593668829, 0.09414100598589471, 0.11173759345247178, -0.20334684502637287, -0.004164242493518506, -0.08232710883712488, -0.05511372441017492, -0.029113882569826034, -0.03644312989132362, -0.16376716445566875, -0.08967691155787598, 0.14552254696151168, -0.024851801170293356, -0.11082588623624007, -0.09532116981728546, -0.07603322072931626, 0.06718693578739515, 0.005571129299342233, 0.06004018661930799, -0.20771390326550673, 0.08589601421451125, -0.05056995622469996, 0.03319832087943716, -0.08358586765227136, -0.08116294353585218, 0.1637136550533681, 0.1256121914545298, 0.04735309745416328, -0.06749662210639226, 0.05282944857224262, 0.11915914089673828, 0.017024559213305007, 0.05906314346637763, 0.12287101801528075, -0.01885902319160095, -0.01826692027627513, 0.10979443637130314, 0.1770477607717428, 0.02750312372195611, 0.07278032849670837, -0.11579323499409655, 0.24110763554254905, 0.024943211788292122, -0.04070339347025128, 0.07818116918667972, 0.00045462258606119085, 0.07812431858524753, 0.24061550195846124, 0.05225685432113342, -0.01498783604135356, -0.012180376615795529, 0.054776840502686885, 0.019495524306695773, 0.2186170526493531, 0.059771287958509646, -0.017959230697871212, 0.10093560648169132, 0.09385278008038846, -0.108714810521422, 0.10249754906439809, -0.0500881761631266, -0.004806550213084862, 0.008678562764268184, 0.1376220269079898, 0.09064061365774287, 0.03959206674740288, 0.017184597616295465, -0.12452136467699688, -0.06689037274431507, 0.09304801453934378, 0.09886892622823769, 0.020823722288434078, -0.09208702298826991, -0.10293028473218727, 0.10636559222877015, -0.09811551276974202, -0.20725966622661224, 0.10827537439184481, 0.012207319630276768, -0.04545850467524245, 0.04514615150924746, -0.07459741819048189, -0.07182947888215756, -0.05994946055080335, -0.08695456315833167, 0.09908314965586902, -0.02576874040096088, 0.1361156733651859, 0.0019414908641832657, -0.026110034727933617, 0.20465889603186257, 0.06713411898000744, -0.15098276846595543, -0.12210764363444417, 0.07585781391414997, 0.010766116475619083, 0.013511803522213586, 0.03322767022820862, -0.10799907593033212, -0.22563084812638812, -0.22745646604057956, 0.08472322503821789, 0.19710507935842816, 0.018974335294787044, -0.10232293637760402, -0.04522363874732854, -0.11324913701619742, 0.027472457489411566, -0.007217735904435886, -0.16022012763635404, -0.04702540796910607, -0.045540397872175384, 0.06253806252925749, -0.016314284338300365, -0.19914235250714463, 0.11518269914050111, -0.23232664914180845, 0.09351129550664775, -0.005948869383073837, 0.012526379809327649, -0.00698382273607579, 0.11912229910949759, 0.14287774087569247, -0.07350478401860293, -0.04882900549968163, -0.11054690524424558, -0.009014482198631484, -0.025667893270460054, -0.008410188285510153, -0.1639217169063834, 0.043946887598491975, 0.060780592256837636, 0.01196262314324821, 0.06965549773447179, 0.13867277364175376, -0.10280238714760465, 0.13267696485431402, -0.04820715942873743, -0.011090639871270874, -0.00930700606473813, 0.06086896422727729, 0.11466499201354885, -0.07995473158499032, -0.025752107498420888, -0.0656574981953453, -0.028418290442249014, -0.009234150874667219, 0.09675474122916833, -0.12256779509447649, -0.013265684164797797, 0.007354335528184455, 0.04286063307577137, -0.02361631159184924, -0.025449559811358147, -0.06600509246357421, -0.204426232559765, -0.05247532651693458, -0.061478749405644184, 0.08673027699678927, 0.0693651309096995, -0.03378355339401501, -0.09370994431369961, -0.044719475316867124, 0.06897678371450143, -0.036229472393299336, -0.1523549168773357, 0.08331354869052927, 0.0819950495121287, -0.051452823718083324, -0.1415638029989814, -0.022477683270445897, 0.05485261089111712, 0.08505895256289403, -0.11424825356401266, -0.03394869666542019, 0.018475007900919927, -0.11431320222244709, -0.2031728541604684, -0.06774527400668041, -0.22420262601666846, 0.05567312188202404, -0.09394140306066892, -0.2435676683008274, -0.18373960812668771], [-0.29188975021649716, -0.16954826110267474, 0.014133562893184928, 0.06005417573161977, 0.047888248201692296, -0.02153043504252542, 0.00621299192917311, 0.038839999430725865, 0.05837105726437716, -0.03490657824693357, -0.15735467472526538, 0.052012546285606046, -0.1536819667614673, -0.17248689010598137, -0.01588735186302976, 0.0827584269568037, 0.06052629453422206, -0.017930866318235025, -0.06543038662666169, -0.02051416408075159, -0.06093387868197331, 0.26449359950202705, 0.007786503397350297, 0.09528431523708732, 0.059301466838508066, 0.025219219516980296, 0.10706252725416412, -0.1482866295048727, 0.05201137191890612, 0.13690463404049907, -0.11021145576158756, -0.04847278646909664, -0.18646753363440885, -0.013931934623281876, 0.0744680505241547, 0.08720788627372503, -0.00686126144648878, 0.07394607394979448, 0.044321229428426055, -0.1327603043203056, -0.031500332470901476, 0.06194177220199254, 0.046185005993764086, 0.10505969526375189, -0.04631706298548604, 0.09817462689533106, 0.028837552934879607, 0.011839717177971191, 0.05271963308866386, 0.1562173708406554, -0.11245346719103555, 0.08251937968872036, -0.09220447853982729, 0.06314224907766885, 0.028614277313613507, 0.08207214445205602, -0.017589673185094398, -0.1458919374626598, -0.0753101451713319, -0.00038696130259980005, 0.10639310081655129, -0.1120417248756931, 0.14460110079019162, 0.083008339346801, 0.0872102247894988, 0.047969340423857094, -0.0776376628291769, -0.05078125583607822, 0.26578990343493336, 0.1156212558678433, 0.05621811101497251, 0.02189943721496681, -0.02578577643311469, -0.08152596742224892, 0.06823314022355194, -0.031264820407053154, -0.05424672649993469, 0.16941051357818132, 0.0632137937235272, 0.07025004194099296, 0.2038513574834591, -0.05751181915660121, -0.018040758935738373, 0.12784422905416892, 0.14691207775841733, -0.053696584536054526, -0.07027643760864744, -0.07215257672391293, 0.09504039519441397, 0.05996719406701543, -0.08539427914697686, 0.10798602982833189, 0.08433705097800254, 0.06328299625189665, 0.1236068120370667, -0.11984359118999126, -0.07187563726269451, -0.04996650445028065, -0.09884231669737048, -0.1147677654804012, -0.06538820107631817, -0.03155684121168223, 0.0969119312024375, -0.0644937623317562, -0.009911388335204236, 0.07004578158546758, 0.15538830677590185, -0.05780415654676043, -0.14250461166664175, -0.0653863319069969, 0.031484980195429196, 0.06221117362338403, -0.10906312418985667, 0.09832360795804035, 0.2159984596583684, 0.010389309485067248, 0.03629391915022682, 0.036674423584378425, -0.008127111017242407, -0.06392742964421357, 0.2629720479957215, 0.10722505836399797, -0.0402140668714957, -0.11640649783318854, 0.08199275501419453, 0.08882345413663774, -0.0015767292910461134, 0.16542514000305306, -0.006569008782872999, 0.034593554177325105, 0.057210463195824325, 0.038606683388488966, 0.04207040436634124, 0.11690838764799223, 0.04422163675705969, 0.04388561398459872, -0.01922649277677397, 0.014568305991678718, 0.2395786403607324, -0.009440851976381616, -0.12478388453161927, -0.04774128716554414, 0.128041249205458, -0.06756270859409141, -0.025811059427253584, -0.10971340647501256, -0.11864192115133113, 0.05401048111216062, 0.06360544172715664, 0.05692709254145547, -0.0023286807709562564, -0.027339418757505708, 0.0010629365684553663, -0.03535938556658058, 0.10381162239568316, -0.116436468607949, -0.007711941666649114, 0.14474875440735507, -0.013380694263067613, -0.0554474201418871, 0.031724446511581086, -0.051856738644563485, 0.05218881983500877, -0.035169041837858156, -0.01947408097983943, 0.031254737128312574, 0.003573162863637843, -0.2358815890143577, -0.043424034967983256, 0.035024375428459174, -0.025560377863283367, -0.0823416076338544, 0.07333295557996712, -0.12030872178895557, 0.07966446336294879, -0.143641823283897, -0.03201390373613055, 0.11049705562759433, -0.19678825826475524, 0.008766604360944907, -0.044539179226211034, -0.003617259154876445, 0.04872109819285067, 0.02735345571491891, 0.19050230394502718, 0.05747366591100466, 0.04480043130771517, -0.00477698204505723, 0.11085474979268072, -0.1281202934118286, 0.06769406583900106, -0.21045954304395165, 0.1304619502974921, -0.0031384621924553393, 0.2364583480743359, -0.030739643418060916, -0.04433316571393907, -0.01718124870314018, -0.0945431435704579, -0.029849093363804438], [0.08215190651764481, 0.011291874703982602, 0.01827071709888648, 0.245503262491592, -0.05620188467217259, -0.02181597467688265, -0.0877359567146665, 0.17979786911330928, 0.018294406202943883, 0.1903749766626994, -0.10835084180081576, 0.1368147393127322, 0.060110167793890425, 0.10316593844194501, -0.05776800418319771, -0.12319464991139785, -0.03112821648524871, -0.09735941156369532, -0.006540145749636669, 0.019093968438370846, -0.2382275646683798, 0.26612173386125637, -0.07511100090339798, -0.025310393085430937, -0.19959342546706615, 0.05245581616390828, -0.06973011779947497, -0.06801398975289731, 0.0401243100463355, 0.04449004673702216, -0.030171658750391916, 0.006563423117468805, 0.04075226296006808, 0.04274274461678152, 0.17071860447112633, 0.07731026702520369, 0.10170437223879593, 0.13913489229472698, 0.1302036389037541, 0.21473096561541274, 0.03412273171149339, -0.09962262892902045, 0.08767407265260065, -0.06177053555059029, -0.20542473354836302, 0.015235261752342194, -0.192688620524557, -0.070283256867438, -0.04070788880746664, -0.25993238591588824, 0.13119042351359986, -0.12051043248877734, -0.0024550314565175285, -0.16742576090144307, 0.03929673818089318, 0.07413893418681669, -0.05041089363515022, -0.08636114586396768, -0.05995269869769964, -0.07917019685417728, -0.10426382728143646, -0.25884497279342383, -0.005222669947361393, -0.013989233153916546, 0.018399901863854876, 0.10756272164413173, -0.0022344415028670763, 0.13263782540106506, -0.0656688757479985, -0.05828295031305052, -0.03928874327613736, 0.09437748534649416, 0.0710115619162318, 0.03786795152253724, -0.004668704680920484, 0.09870901824349597, 0.03574245899202792, 0.16834354017381345, -0.19861920253815582, 0.03350959493355338, 0.012097408547410126, -0.023347676051549648, 0.06960710267872584, -0.04218920078368701, 0.04249634276854915, -0.07719633369606597, 0.13571759122193552, -0.02301759499816094, 0.05859046498344876, -0.11154322451448855, -0.17420530161578912, -0.028417372554914423, 0.11634717202996353, -0.09235347196755388, -0.008609399351659682, 0.017900018169463672, -0.044621425649073884, -0.008428179308443312, 0.005658814199804091, 0.1245245053674957, -0.006175473500892607, -0.018977153585560826, -0.1057643068785307, -0.17315167266987055, -0.03117897226417807, 0.033292225651079914, 0.11854673245872768, 0.02157588343314505, 0.0035845138198135457, -0.055365333145988356, 0.08697634676103666, -0.057099278445537346, 0.06630950153032046, 0.010404660920301543, 0.18842052285656047, -0.03116468916774719, -0.037726781471975446, 0.09333080558714665, 0.014591266726986766, -0.21217708391816542, 0.01086606978586853, 0.07844870842606771, 0.149655481462589, -0.08511128729444702, 0.0022999620949013437, 0.020543272231478674, -0.10097090222560991, 0.10172311109808607, -0.014799290402384958, 0.03316500229866392, 0.0005504349586493248, -0.010649305975223225, -0.132939667208447, -0.16147071388620504, -0.07870686967969183, 0.07714623427676694, 0.027974863231354563, -0.024410031690590344, -0.08846502328003321, 0.006243822131788756, -0.062227796093222966, -0.1528950187854775, 0.11869813506898523, 0.02647440958953301, -0.0022198922294777725, 0.09555826822263573, -0.08428188619480544, -0.024197059486077938, 0.10506962200569472, 0.07678722267667021, 0.040574501826147996, -0.03780408385851297, 0.10525003425713118, -0.09335028838620942, 0.03173065423504679, -0.0902563776915892, 0.07786102118165825, -0.09626411782062436, -0.04949424475215635, 0.016994789262801735, -0.11096007264583554, -0.1337075078653703, 0.170656889353984, -0.10733060034945346, -0.021315123124356326, 0.013123183775381977, -0.1330648961889058, 0.0465022851001766, -0.11530178527963306, -0.16889807534273055, 0.14731427740062134, 0.10295426757647079, 0.06113349453101972, 0.0024821673444111216, 0.02343357351330842, 0.15800337731369227, 0.08139175346635112, 0.06198758352360754, -0.07555373870084706, 0.102042091578368, -0.10756652271467708, -0.14102902663993458, 0.04048486433002079, -0.1582148484943941, -0.002807872987783941, 0.07637927337407344, -0.04249000981888156, -0.12809740683554943, -0.048685968200574394, 0.017944698953661315, -0.07229993164786809, -0.16359236241093358, 0.023739737542354197, -0.16104421226712737, -0.016667772454339192, -0.13956721139597644, 0.017998164825105897, 0.00299517923258941, -0.10190212715738194, 0.004003159106991067], [-0.09395322121482101, -0.056933009445369914, 0.14242702655341472, -0.07292969970458811, -0.06354967101150225, 0.04093495480582859, -0.02956899420406925, -0.043277002890523004, -0.05812610769129846, 0.10990529450251428, -0.049018199904765226, 0.0438120461753668, -0.0010652008944080206, 0.049794141791403054, -0.10177932249413525, -0.1441745329017265, -0.10704628655176654, 0.005865222179223162, -0.05700512577002299, -0.04952904744501383, 0.1022641609908776, -0.05674049796971928, -0.025027553807223022, 0.06837342217383424, 0.01082998744937907, -0.007690463475414273, -0.310104028490341, 0.1264271867194712, -0.24629103504094818, -0.0146850243614022, -0.0669117986516042, 0.1013163003111734, -0.07318650335392934, -0.2670092504540552, -0.1261287882493947, 0.3742735860704847, -0.020241505593426797, -0.0933922699805397, -0.13548791674723581, 0.0036171895807851568, -0.00716498206951189, 0.0051243119410915566, -0.02836765061880336, 0.023699372121609143, 0.01049054388289127, 0.0969848453424483, 0.02410213458479002, -0.040306729433793355, -0.02053281336054508, -0.22931959795316498, -0.034196932587877656, 0.07146511546116023, 0.06844336535876429, 0.23407557943608343, 0.01759779351009513, 0.15423254414150753, 0.14831409568810375, -0.18069752631655725, 0.06593195093438523, -0.004296414422394381, -0.0473650795908096, -0.11144084002974475, 0.04714405183567247, 0.10183554513278682, 0.03230060663613967, 0.02459991808274743, -0.34497228387498424, -0.0703679587875606, -0.009398868217078535, 0.047162624748098556, -0.07611843376477474, 0.017139305992466266, -0.009494908344151402, -0.15308437719033685, 0.05397624932210455, 0.12353673973839334, -0.034745416808920314, -0.04752041955744153, 0.035996336204791014, 0.0774446421688542, -0.09228742780564655, 0.013108898722135285, -0.020293197391772082, -0.0771275224582739, 0.03393991070360553, 0.017509004804919202, -0.09745233534415089, -0.11014365646058398, -0.04256925951175137, 0.015110904184627906, -0.06013691128157445, 0.11117443402134113, -0.08929664076680574, -0.042781024487915306, -0.13072709205485575, -0.1863290928662608, -0.15954654103381316, 0.059099128569345453, 0.11760577240059245, -0.05094844204546216, -0.25309763763919135, 0.07722551988580628, 0.0731800017946952, 0.07944162035445029, 0.07834179189765945, -0.09345448180769855, -0.005152915299469073, -0.19332638449345516, -0.08184712763276769, -0.002154009311414666, 0.006600447645338172, 0.1417203194923587, 0.02110925787345974, 0.11930367315329368, -0.12000430411747065, 0.06356098594156957, 0.03167398760457943, 0.11741023689041798, -0.06904637383364177, -0.026352200305726218, -0.11013597967892501, 0.23737967864955606, -0.08076093117417502, 0.05940314248213186, 0.047623013076446064, 0.013951832213888259, 0.013655016461948126, -0.03772858278721932, -0.06583480189333091, -0.0021117556423519298, -0.0769398083161215, 0.14558961345994262, -0.11907322057512275, -0.037271892688165775, 0.03544304019162281, -0.01409789074456788, -0.1287137642850767, -0.03277605453707277, -0.03805328695721197, -0.041667097558138924, 0.1652169140350865, 0.04161207441999758, 0.12272320543834182, -0.08214212145795308, 0.18234458012991606, -0.17738614425466404, 0.027433007999779595, -0.19203673940293137, -0.04964613963404938, -0.021040636523599, 0.16738065077939498, -0.08308620298548451, 0.22873317893946848, -0.027511489806535606, 0.043720736644125804, -0.20396702031326197, -0.013136649912325672, -0.07659014055393638, 0.19291401918500786, -0.07483201508177463, -0.08655521228851783, 0.17103976016624114, -0.013059575981914645, 0.07359532308401502, -0.10324574690238127, 0.048318746733060934, -0.06539874142113883, 0.19538751802530127, 0.017757622315684167, 0.0016069763845394083, 0.184525202014786, -0.07023239319470521, -0.17692477154757427, -0.05278231425535986, 0.061976764940102964, -0.09555128982128713, 0.23598087091071496, -0.04743663238997221, 0.04865995188457864, -0.05141646312748195, -0.13727202569524033, -0.1499631452775915, -0.13881439327951636, 0.033582650300742846, -0.08618748530056031, 0.05791562269755569, -0.13705208024122523, 0.06269058862968141, 0.04857073221743181, 0.08221853521963643, -0.038536342864442484, -0.01451146173729402, 0.058620881366573986, 0.07604969298504062, -0.058696647386394754, -0.09455920357685586, 0.01284827590522327, 0.0043694548441647815, 0.14667930069183402, 0.0915437794958543], [0.18125001324323176, 0.06288627216182992, -0.07475776855404387, -0.0754794272200008, 0.0324025884941472, -0.07089910072697823, 0.00013222508316969902, 0.09253785303127253, 0.024297331793896246, -0.09363617791585326, 0.11361701985760563, 0.040233945458493084, 0.18628574537471881, 0.23742507839362373, 0.0026431463892306645, 0.0370704068634556, 0.08106049477278482, 0.002307584186876333, 0.1995047976805555, -0.023168507186753985, 0.09911561404332059, 0.10018881326669828, 0.14111765387235217, 0.06284120045330709, 0.016004329303132288, 0.07856957758966576, 0.0716006739692243, 0.09948900183994613, 0.08980761881888073, 0.17168473538081772, -0.044494181408721294, 0.10130665157746312, -0.09179072624491569, -0.22531246973279348, 0.11862397036373547, -0.050091546189027475, -0.12646306242404692, -0.1018698592709455, 0.11239584395327018, -0.05942216058690944, 0.04217263222803242, -0.09953910916355828, -0.012062925784777757, 0.120075519087743, -0.19306626912985542, -0.06989848904695956, 0.1334899227229696, -0.08963877033903614, 0.032091198646925556, 0.15079189465134657, -0.0005043291540692799, -0.030610531251638234, -0.011246596817442552, 0.011585436644004719, -0.06615406569188116, -0.20731987337085378, 0.1667155448576747, -0.07375485666745273, -0.045376772303222124, 0.100181068782904, 0.08885722023917572, 0.013708843524129691, 0.05907199162731385, 0.06793780778523759, -0.01819573880378663, -0.02524629786129005, 0.02848333819089215, 0.14400182918609966, -0.07263929612532931, 0.332749747478662, 0.04018893289444459, -0.0759590682630895, -0.01492723616601904, 0.02573730909458384, 0.07866120602665588, 0.05915444515007475, -0.06883603568066357, -0.04634963737460626, 0.02480721889465271, -0.010238401042967884, -0.12941186656659637, -0.02645570903320268, 0.12213583095636867, 0.08894138860863429, 0.02393312720469685, -0.0756644259835113, -0.04423250940171535, -0.19261466775200023, -0.16014263956482844, 0.07847509929134203, -0.05414683817998832, 0.08602396816856082, 0.038611739674604184, 0.16330077726186304, 0.12008655220137625, 0.11024735629830522, 0.08089366345683797, 0.10883316166655967, -0.05488682603621627, -0.034663832423296646, 0.21034008735399123, -0.14274257239277738, -0.23082430837644274, 0.14161057335576457, -0.18763083513841736, 0.027147200072512055, -0.024164436604031402, -0.012601524631829966, -0.09579313836776987, 0.15305801710657754, 0.013666288878711933, -0.03857033402421318, 0.05734481223899388, -0.05143156955889831, -0.0313690751627894, -0.21630890949451667, 0.09676612069541309, 0.02020755021769215, 0.28607432067419114, -0.05182238019126441, 0.021510590094160262, 0.011519226809723067, 0.14879066484085224, -0.03581866384952382, -0.028059222853457414, 0.10885397621276192, -0.03584501186452309, -0.24748847133101348, 0.052904959900333136, -0.05253496631896505, 0.024422300374538013, 0.0329212724607289, -0.02279656611150509, -0.05149680237311413, 0.02966775867767677, 0.028996991316520504, 0.009533872459628024, -0.020583233142148053, -0.0584079316539847, 0.041982588738835924, -0.0832406339048374, -0.06990986190136901, -0.08183277839492115, 0.01365177511585659, 0.033313201986500666, 0.025873162319585242, -0.08705200039910692, -0.08058182362920067, -0.02305728110450305, -0.016626844583390813, -0.1407872745041688, -0.09220474004247764, 0.03624935967735452, -0.030479782503764274, 0.003316645463980035, 0.11341227384849831, -0.010064104437717568, -0.1538030217381136, 0.1322230060324948, 0.10651375537509308, 0.011710198802627204, -0.06570253973396548, -0.05396838775677954, -0.19249960108141168, 0.03306302200808072, 0.02768814335705154, 0.10036228920538759, -0.03642417466633162, -0.08365472851176495, -0.09871389739618809, -0.20323160524089293, -0.08515194443444761, 0.051772993062098996, -0.09373638601478261, 0.01276116088103296, -0.020178125693779515, -0.045346149560523796, 0.0640498196845479, -0.2515991796398463, 0.21849635317660865, -0.12641643827199261, -0.25714895186385595, -0.19865137716519565, 0.06771845296689075, -0.055448866939384736, -0.11311348958374809, 0.027458578562130808, -0.01187499657694253, 0.018012476098022985, 0.013042425410350444, -0.018052418859554574, 0.183902620794905, -0.09475770538248843, -0.11927741035636855, 0.13433055895786922, 0.0011736256886791907, -0.07836448411003863, -0.20731450954434577, -0.16142980527877748, 0.34404454310482013], [-0.11243190566219666, 0.20932931940721536, 0.06393278830105549, 0.023725743780575397, -0.08180063954469456, -0.1859072033674051, -0.030171441192165766, -0.1635138590567652, -0.14545193773571172, 0.055777518854697054, -0.08914117708264918, -0.21039801362051844, -0.14628876082696088, -0.11418100111294231, -0.1540999231574651, -0.04871956414005982, 0.07842966222714795, 0.11669045582779321, 0.1728580223393855, -0.1433683803712731, 0.08823281989306615, -0.09515852445291875, -0.043233081691585476, 0.11737189390221368, -0.13086807972737086, -0.0018060701246289629, -0.02000953584789404, -0.05943983539363848, 0.03695720438942464, -0.03424851927627925, -0.0579669710308861, -0.13288152257991706, 0.013650874898618324, -0.04655209344539681, -0.15450084721258203, 0.08940227782958228, 0.01607790787467348, 0.01736266323609277, -0.006324762806008994, 0.10268029230372568, 0.1205666806586919, 0.17872102718578692, -0.01655073800428448, -0.08285308094628435, -0.174496133863168, -0.0949703899797861, 0.06884879394807243, 0.12291286136167086, 0.1989590341227511, 0.11398095075233002, 0.10216375127491593, -0.17533123288402983, 0.0987332859448771, -0.07010897514501772, -0.025588780070705554, 0.11119763619459447, 0.13542464071342783, 0.07708014417547891, 0.145309633447129, 0.06791789242885037, -0.18112131426601094, 0.039446941930084176, 0.007596432327490674, 0.03369998541588446, -0.024893821751722306, 0.15614160792629028, -0.17957554881650717, 0.017721932774023275, -0.0060302286705532105, -0.009958420053844794, -0.07786413535372567, -0.09582186009102969, 0.036706574675485944, 0.05140958173070261, 0.03276264019696112, -0.07593374886300089, -0.13246955679744868, -0.12047930811068558, 0.18581385983058465, -0.013882485253694211, -0.1310159462019385, 0.093194444755794, 0.06173716438871605, -0.23839125292279742, -0.0032347311504196097, 0.18784825415418357, -0.013171362335972903, 0.01566795784519962, 0.014298847005558191, 0.0871089639122103, 0.10772963144830708, 0.07783602337845362, -0.2419653170508793, 0.02952247651134307, -0.07905030118011847, 0.06528559237740074, 0.14168541103545376, -0.12167908201185892, -0.04276134565780069, 0.00934996370562143, -0.07351077582420765, 0.06609586078200792, 0.04156574499127698, 0.007952642407369452, 0.15720240411063657, -0.14937606592455144, -0.09974547990583138, 0.16176707952500688, 0.21585832102082012, -0.018479910180284904, 0.004935217332682782, -0.08514445232314018, 0.10072573181391639, 0.09616194163437618, 0.040799015140878726, -0.06897188322533411, -0.05910546009696798, -0.18597621836036954, 0.1936450855894817, 0.006973973044079989, -0.07520745966096319, -0.0710056813274844, 0.13805749100139714, 0.08433780332981078, 0.109487788275574, -0.0728699769008528, -0.054917528222335976, -0.05286394605205475, -0.04260143688611235, 0.14241893513226447, -0.017011273789941942, -0.04580784091365457, -0.10572568562597211, -0.029245337133282527, -0.0685563294645576, -0.028129849754441126, 0.08689606970703107, 0.0834235274073973, 0.061992785219853956, 0.04824776932875896, 0.01903176407934089, -0.17659891365894062, 0.042995293303095886, 0.12898658742074604, -0.05438829993763544, 0.014430223762520332, -0.07599181854318324, -0.21130797042447919, 0.01610329743699723, -0.20478172197528147, 0.029462970678452004, -0.1507779784875568, 0.11178301645502872, -0.09674623315468729, 0.15964311753355712, -0.1487685514738544, -0.06554201668926801, 0.025660151433199593, -0.0011222215434915142, 0.27366173872474847, -0.0569551010027238, -0.10856219670534244, 0.08448263360631043, 0.04392567994257757, -0.016023839233518845, -0.004001743323760006, -0.04092515666753606, -0.03188375822861951, -0.059086956707261724, -0.07299278793870151, -0.0028712434096764185, -0.08864594448410018, 0.002074440123255471, -0.03947090781375442, -0.0018973773950822915, -0.011892923172010565, 0.0941521850659069, 0.016175771465099863, 0.1039798359962865, 0.2535896357974499, 0.006911942430213282, 0.010222623581311652, -0.012936339104042948, -0.20560873526113113, -0.0786988169899414, 0.06378826317370027, 0.03705465643140753, 0.054326816872228206, -0.041057345787184736, 0.010904224347302293, -0.08333608626853242, 0.061481226656364754, -0.14466682296307884, 0.007309237873646434, 0.14148700690449093, -0.08331914576013719, 0.040824640704253914, 0.08059057956354262, -0.14088315553479017, -0.09742564510464545], [-0.00923478550496017, 0.07556422696893056, 0.06902389989347146, -0.10070139830536708, 0.103827396500279, 0.08871902278519991, -0.10059974917553416, 0.06278201398292874, -0.009569194550093365, 0.036348875633808994, 0.14265938981048926, -0.05446520028359774, -0.005117222403682253, -0.1458109453197178, -0.08169044781515834, -0.14198739275562156, 0.02642436675433409, -0.1245074497536127, 0.2648607314159742, -0.00843317300926052, 0.005116590721940521, 0.005961681368264921, 0.07126943598125822, -0.014345016487116629, -0.11054045026345644, 0.00909887896014753, 0.04710039204409228, 0.0664147030107401, -0.018850455011583174, -0.012914347780507212, -0.08470190156620806, -0.18664655657113197, 0.02068273327452239, -0.002181132637118548, 0.016643104910052556, 0.14010510518228386, -0.07593897525536408, 0.04120562898338094, 0.024151366521666717, 0.062193758208771974, 0.04720127179966652, -0.05265947591762218, -0.017859463471778417, 0.032578471625315575, -0.08346260153816763, -0.13957386209610656, 0.05315310648500717, -0.05001445708022762, -0.021836080878569128, 0.07807292295340795, -0.15081205727972877, 0.14849351162643556, 0.13293183042565151, -0.04024246790245483, -0.1580105471725394, -0.06913041000090943, -0.018275123022401387, 0.09521836314043737, 0.04842919094292626, -0.011381154081221256, -0.033165338599293784, -0.03180745537095428, -0.050454483398364815, -0.1284165764219486, 0.22846093604337184, -0.1314689925462047, -0.062402268733444094, 0.0452609271355654, -0.10182761745964564, -0.016002404481102014, -0.08184419177107467, -0.015140060371393375, -0.06300702040563318, -0.08535422223287262, -0.03895660008094478, -0.234926061750968, 0.04601065053555178, 0.007015810793420523, 0.0027848324137934384, 0.05647025813332315, -0.031891216474616034, -0.03195801724174096, -0.04854289753511405, -0.08888493776234825, 0.23102740116077627, -0.1883628782797126, -0.058951319213660196, -0.03144646235067069, 0.08403103318866614, 0.11868415743165059, 0.01298715481477755, -0.18425192497730386, -0.041555409178525175, 0.07085491710474982, -0.04968250661526672, 0.1259077859594308, 0.008287659285060874, 0.056722736838272426, -0.0123752986621126, -0.10970513082717648, -0.14979220378259023, -0.14202510496330809, 0.03832564059336538, -0.03258733996428949, -0.06156264032860153, -0.08004812844119823, 0.07620100789274074, -0.1803289708349533, 0.09311937418598071, 0.07365519647940483, -0.11293820008409843, 0.03091255991499706, -0.17906839149777176, -0.03067665541231123, -0.12220994760604938, -0.03585653521195263, 0.04210259569992744, -0.09627789889677936, 0.15400745665710802, -0.045453133433915285, 0.19904232451124906, -0.11464564416874842, -0.17687456165624352, -0.020764338070284015, -0.03897752114597171, -0.10303610117203825, -0.14084331573151612, 0.051960689528114466, 0.17148259302957236, 0.08959435481645182, -0.09320380516472665, 0.0879790530375713, 0.013240123644403625, 0.1273782761863383, -0.08887426021512698, -0.04955792452693908, -0.04124218242573868, -0.005349509513435708, -0.014954581813173707, 0.04456369273706885, -0.1360018867615242, 0.05076495979500245, -0.00525373694054217, 0.09972683496616926, 0.005050758287522662, 0.21199722383835404, -0.13788296257461938, 0.03230498305742702, -0.07672133403316188, -0.05776815658256122, 0.18578554994313057, -0.10264181636134624, 0.09769136733760636, -0.014262573606609007, 0.048946968811694476, -0.13662340641121853, 0.049559646205854166, 0.044944066773810236, 0.05394730420607628, -0.05432397774814246, -0.055128828572140104, -0.018073771789200957, 0.04036989389004574, 0.06097768383348014, 0.06621668737741107, 0.056830772707510906, -0.021545173795216914, -0.17781624137880583, 0.12350165199357142, 0.05390863060879587, -0.07579456835133505, 0.07866560368569883, 0.031861247779895276, -0.044138772464600934, -0.03835690753643463, -0.0035533192631965653, -0.07204409988267783, 0.18009944990940005, 0.049078933894927415, -0.08305150397720457, -0.08470931383192044, -0.006527158340872448, -0.08215903210356432, 0.11070371823541961, 0.1113781969553385, 0.06338142971189692, 0.20852993586618193, -0.06509548003258464, -0.03837253193832335, -0.0608560236406808, -0.021237376179267752, 0.030180100693010057, -0.07910687587481094, 0.0597588273889636, -0.08241016826407539, 0.11564211024416093, 0.20660977715327544, -0.08337082238291221, 0.1528759535983085, 0.10728056420670588], [-0.08114312784333289, -0.031212358368902647, -0.09981699638431327, 0.004532626559695681, 0.03956050650944774, 0.14920124896577985, 0.03383176252640863, -0.10754988604181513, -0.05897675325211372, -0.010360613027474291, -0.12742011454024155, 0.06954683836678886, -0.010002952591848304, -0.11184925948469383, -0.05131817474254268, -0.06856003482531979, 0.1900775843896307, -0.05865794257957864, -0.04585103983106895, -0.09635739202247838, -0.02722764783944249, -0.05655589715116816, 0.12565721583462505, 0.07174999986796332, 0.11058991120746749, -0.03834088160640208, -0.10668947935079971, -0.03486198223175195, -0.04352682497415048, -0.00869742516282701, -0.050215358741887164, -0.06954657931486907, -0.10744532368390208, 0.058251180275567506, -0.09137161233029861, 0.06723000702019717, 0.19708037401525594, -0.031016383871561207, -0.16350754663970762, -0.06799380037296887, -0.05643815381544812, 0.04839777158275971, -0.06756260037991817, 0.029715324346514662, 0.03554445479716833, -0.04427065131137211, -0.013497195886342512, -0.10273749843623421, -0.02141634824722788, -0.06691493961686865, -0.05080341788236766, 0.060426194886902616, -0.010808428477111519, 0.20359123307019789, -0.09796525006716793, 0.09150493717765537, -0.00840280339660313, -0.2065429286832777, 0.0743318542601308, -0.07734399342266143, -0.16443914414261768, -0.048731430110595074, 0.1595050998243683, 0.042849531742920735, -0.0372678340151971, 0.1813764120636465, 0.09042152532784589, -0.0657572139536214, 0.12004584435467916, 0.06671260146903715, 0.1917477618272765, 0.08145687995156332, -0.01886765954718762, -0.027053509321164803, 0.029889589793519196, -0.029059968232580558, 0.14826942437718169, -0.11777079195527879, -0.2391962151025053, -0.013172226175227904, 0.1109797216497441, 0.1698048300358427, 0.0790895799516371, -0.05088749227826784, -0.05277874069796707, 0.09559388028986893, -0.08559074328026092, 0.0036837451759300973, -0.1709054321962013, 0.03173279320333559, -0.014813845200282817, 0.08261926269646505, 0.007335909806999425, -0.01991111270213564, -0.04944510922275321, 0.01795642457783533, 0.0008409196349676799, 0.05625690143141115, 0.2382940906227695, 0.13414652058726761, -0.019194542790053747, 0.046104788244593006, 0.00560226849628545, 0.0018003095058542968, -0.01030358788593008, 0.04059708813132976, -0.03103647534648111, 0.06655609618502124, 0.021030809566641013, -0.27373134764638507, 0.019277318078071384, 0.0345264205281568, 0.10932398268117297, -0.03729829508832097, 0.010426611046448373, 0.0904277429791909, -0.036407061702637133, 0.09450699986083064, 0.0396694128752892, -0.19606506356700643, -0.16930676648221027, 0.028084473842863816, -0.10681044146841868, -0.062123664970454844, -0.03160461856494232, 0.14742231744964726, -0.02874720023406191, -0.04935411693663671, 0.10615573462357354, 0.1869391778183802, -0.07551104671785265, -0.10706504982709594, 0.09060212842319909, 0.2726134429662613, -0.0037427278521479893, 0.1325757836766542, 0.01367285116550894, 0.1301586399211435, -0.10067287901263428, -0.028361969904543736, -0.09775882115256757, 0.17941270644951782, -0.07797768741562351, -0.09343824868242305, 0.0348711364439887, -0.04867345724304906, -0.15389996889885754, 0.05738378184795577, 0.012044217959308667, -0.001204220402443641, 0.056706565488202264, 0.06747529079559754, -0.07614577639261949, 0.03601336719382232, 0.17464925670157808, 0.08326895294117638, 0.04084589788470903, -0.047569461506241646, 0.11737769145502826, -0.09981323519944134, -0.020718492614490217, 0.01825903278215053, -0.19123970255150646, -0.028069006459594315, 0.03224816418715708, 0.011488177636090453, -0.0018801387826335467, 0.12752723080192294, 0.08701513088560929, 0.05623779065876435, 0.0414164863424977, 0.011559336094786942, 0.1403908433089621, 0.21513331816023967, -0.18083560076538788, -0.0699746556395771, -0.11161751028260367, 0.22169513756778783, -0.03310542069678449, 0.00840955623030673, 0.09085097561489883, 0.18117467622398073, 0.2842513027231413, -0.0001984429807951879, -0.12063324511889441, 0.04964538204275929, 0.005768378023845109, -0.04611182204330855, 0.015207477288836058, 0.06900915311454803, 0.2154362120041576, -0.0054251589249723975, 0.010961085758708475, 0.029049248186128217, 0.05385276441586351, 0.058123034008396156, 0.0770548081254305, 0.03236127489960661, 0.06849107301669898, 0.022289221608280042], [0.08555804499736021, -0.1011317651904584, -0.017760227109437924, 0.19388999525850742, 0.04662855425732612, 0.14856632445426132, -0.05135180969999009, 0.14968890611988236, 0.007776579278882414, 0.14524267142354977, -0.06468024497878713, -0.03265304986856506, 0.12172884661556417, 0.2626621152736726, -0.10125386567324632, -0.09083138306327082, -0.02628889525930259, 0.0030906739246299737, 0.09420769758100977, -0.03093435589542359, -0.08350006304736071, 0.049896668173493, -0.036988851369635374, -0.0025094520420492687, -0.19808278696772946, -0.2466690151126544, -0.24031704949656113, -0.06278342383443947, 0.06840445546581049, 0.02146269597437097, -0.13891944806081863, -0.03776824668506861, -0.03342447930564061, -0.00434553836975125, -0.1089873128538161, -0.004194133724883038, -0.08061289535270742, 0.004108627097058606, -0.1199788093701846, -0.08175359819090676, 0.09356437869624894, -0.02287333811547939, 0.058776143207009614, -0.1353457359327111, -0.007038704250428988, -0.1239179812607011, 0.05337399185349168, 0.04627342031134799, 0.038540647216067384, -0.04433636137969443, 0.12236335744865982, -0.2986697605188423, 0.1672409422581637, 0.09517964015009647, -0.2041160018611517, -0.028260633122209607, -0.10126843993703362, -0.0021436282345651224, -0.13625412077487245, -0.042422830252089205, -0.028636832502423312, -0.0016501645274254499, 0.12028238150021595, -0.10485185332480909, 0.05775831782021568, 0.0025126728615063516, -0.03702933548132127, 0.1162442445523175, 0.028124118913654614, -0.024706813294312572, 0.03586603232879285, 0.14147829821663124, 0.10002195412194818, -0.10599237365467906, 0.042074687235880266, 0.033198460175014884, -0.06409309181319027, -0.08139031248123552, 0.14019325562423984, 0.05617504369271724, 0.16823081667321185, 0.37525326930683184, 0.08226336867842127, -0.018643180179751886, 0.0011620888652001662, -0.18293869398790483, 0.04331484544211152, -0.026364456325177962, -0.07601821220283207, 0.027827178960795926, 0.009372720482847789, 0.03644689244545803, 0.12972988042696043, 0.04115714525739685, -0.11619792571564268, -0.04057397556724689, -0.04399249502680905, -0.042607858176043685, -0.15510439729475317, -0.03631713256382273, 0.00278045618232739, -0.037956846565697186, 0.16792995632367444, 0.06727388411144875, 0.08163146460015748, 0.0916958185659311, 0.09502718122331813, -0.005127953857095436, -0.056087009604945136, -0.020615723473557515, -0.033717259885125604, 0.21088123900268477, 0.014398358513395682, 0.012197181955237977, -0.047980126647180626, -0.28397169792091764, 0.15415930445323034, 0.20965398763521048, -0.17197049097323736, 0.09915284739816012, -0.147550487896471, 0.017398250837169737, 0.15144632513480796, 0.05606523587846604, -0.10940141066221068, 0.030027406478435242, 0.06271554785255493, -0.11119135857424471, 0.028365390532302515, -0.030537252040038987, 0.2810466068332512, -0.1104826246056474, -0.13002397532548443, 0.08146180184717086, -0.06435328493651575, -0.04961594240358702, -0.01144799218955296, 0.09198674036913006, -0.21952357404882786, 0.07020551541106561, 0.08603835559958731, -0.08974074999786698, 0.000817521167031224, -0.06729797449390887, 0.07674391688745388, 0.02098549483540141, 0.02482001040626368, -0.12778807299176592, 0.009225310994744789, 0.11542386224013365, 0.13090221908487337, -0.0940982135457537, 0.10091751644078965, -0.011163259923015272, 0.28162876167337825, 0.06252316900244526, 0.0672767230016528, 0.17680830167572867, -0.030669375301506152, -0.028588074207067667, 0.005061977742579962, 0.008064628760003335, -0.05591369043341743, -0.2509853345313477, 0.08329945838592419, -0.0449522433269404, -0.09708769824321806, 0.048124088886401836, -0.02000792467899262, -0.0024133682240139844, 0.0742017471440389, -0.1945900303376154, 0.07886400628724384, 0.00993738156185054, 0.03455454238786304, -0.09325902398973251, -0.015710424871694, 0.021382750215435772, 0.3797422790860785, 0.038421621419387875, 0.10726397064735649, 0.19675898162333377, -0.059353409427901904, -0.015796741346749493, -0.039703289481691245, -0.026210858897925227, 0.10076063809085868, 0.10325650867275364, -0.016751253138922523, -0.09118162519457074, 0.022597189441250495, 0.18519023560447628, 0.003637686587110397, -0.08153828247353433, 0.07996684452562851, -0.0414767830900847, -0.045566778455417824, 0.11736354077725857, 0.07164627943644161, 0.019772568252708067], [-0.0347500475712599, -0.08089791830237608, 0.012062823446971427, -0.0893791332451308, -0.11193286673058016, 