{"architecture": [200, 128, 64, 1], "n_sensors": 4, "window_size": 50, "feat_min": [641.2100219726562, 1571.0400390625, 1382.25, 549.8499755859375], "feat_max": [644.530029296875, 1616.9100341796875, 1441.489990234375, 556.0599975585938], "layers": [{"W": [[-0.006306041261579527, 0.09197068510275482, 0.025952450643456134, -0.10823997234772206, 0.105096616439805, 0.10529164447297137, 0.06441899606223075, -0.0005736455399419809, -0.12424355611391265, -0.004172005460919576, 0.1724011531327543, 0.02134272937663232, 0.1570589152105604, -0.06525399930441184, -0.0043135923722462674, 0.0734501753145065, -0.20599894990219297, 0.14082653490317557, 0.03887931255428698, 0.07746265194114073, -0.19199466400165502, -0.029727322823885148, 0.04938513298873976, 0.15562240486668816, -0.002652012336541286, -0.05127916423734263, 0.12489609609608877, 0.14413745897028588, 0.02371061689113503, -0.05020605869426681, -0.14348879824378682, 0.10005917094640122, -0.11131394026904243, -0.08086159790794333, 0.1390945647082808, 0.11488839758970373, 0.10033659282049752, 0.019194890025940083, 0.18573869166426954, -0.21012054925735482, -0.04896512570284459, -0.12037028771946512, 0.020288698116091134, -0.14048117504575922, 0.06757494471201393, -0.04423354998181121, -0.10500243922861503, -0.08631489054341718, 0.009427484330630714, -0.1014963976010802, 0.0041186775720624316, -0.19451714053164873, 0.11098305627705149, 0.11074786711530368, 0.002870605032683861, 0.07228974686706595, 0.04017783267627397, 0.19895563980083122, 0.0617308629943678, 0.030031639227619325, 0.032490410012967645, 0.058468281180965184, 0.0632064952229182, 0.01019023545187473, 0.06066019000263565, 0.3034514276243095, 0.1460722046856333, 0.17830854844185093, 0.1756868548705344, 0.22467874646819294, -0.09481567981333879, 0.1547141153682317, -0.06627087743831438, 0.0017556035656074846, 0.0425035545961009, -0.09504897667070873, 0.09140126925059007, -0.180550107193836, 0.08939517137964222, -0.16258003112850772, 0.10940916026957277, -0.026445825592267085, -0.0635736588693149, -0.13617304836005384, -0.043390548100937794, -0.2969933879262669, -0.039014873422328525, -0.10618952234937451, 0.0012606052404112672, 0.13416730387212286, -0.1716222409437269, -0.04301767686615637, -0.07423845927734872, 0.005347777030930216, -0.011625749171272315, 0.12547178458555958, -0.25459015887085035, 0.1438619605699207, -0.10783598310679042, 0.0875495050850801, 0.0609806437178016, 0.04285344062889401, 0.02983022117688502, -0.08652139476374607, -0.0013495797396544846, 0.04546952181888574, 0.06644937253271566, 0.10782662477415958, -0.12993406253769452, -0.017372932394240457, 0.018404271533309337, -0.03344363715286942, -0.03621338807375932, 0.10037738592491499, -0.07257897848942951, -0.02295537491749353, 0.023805269561920302, 0.12350414892039682, -0.024564943465650673, 0.04863640403750288, 0.10121965553677703, 0.005422147871355645, 0.0461895493531495, 0.06560841461243465, -0.2049914442421785, 0.0332485482975851, 0.006962150160037883, 0.00526498352688026, -0.042523093294759576, -0.09762837205875151, -0.029260458418702815, 0.1343763454976054, 0.0868378724912044, -0.07751272659901422, -0.01881853370736602, 0.21757929894662886, -0.08042561550530028, -0.07450171957654038, -0.0381488615743332, 0.10431142005058949, -0.011292745588082393, -0.028842983279883685, -0.028390401641060815, 0.06725403574447496, 0.12722657693503517, -0.15342115747270837, 0.019590944373609972, 0.03557765978580322, 0.012635594933851862, -0.11891115288548237, 0.005186550389457536, 0.045283238656074795, 0.01334745204983539, -0.04670352928593028, 0.09918078795747763, 0.03374826018611481, -0.042822099860048736, 0.020787455247631346, 0.17685612728698782, -0.17577081778177864, 0.010714396030638042, -0.2438789472412532, -0.1343863294280642, -0.2325740241598318, -0.057432721066595215, -0.13393602731557117, -0.1266960067390909, 0.10666403260707788, 0.08775174006577384, -0.04097279350353599, 0.0791371048018604, -0.14231477439295193, 0.013858345660157112, 0.1947100867484004, -0.05385825381808629, 0.06440659905317081, 0.11110237933625539, -0.1187073405405796, 0.029936547180519107, 0.012854346655698373, 0.046634617504198235, 0.039264103886480294, 0.04178236302530157, 0.038737929507628235, -0.2602260640287698, 0.02318369526810805, -0.014050234442858392, 0.03656231739815709, -0.012421580190336377, -0.07358832225743105, 0.04377529499586693, -0.0428600444428337, 0.0039691310639281, -0.1251399910466294, -0.16107340821049165, -0.01812638452620686, 0.008668492625657198, -0.13951084917992043, -0.21397140962363298, 0.006333784513522548], [-0.10128074542348979, -0.13455837058099482, 0.20589768032446126, -0.09044505527131441, 0.13625970036901247, 0.13564697232836054, 0.06523060076485933, 0.10109394185518374, -0.1109093423817093, 0.04595846437245333, -0.024332513111271978, 0.08451335072815219, 0.07944880155659464, 0.02550118565177915, 0.01804176864747819, 0.10306699982961946, 0.08023832778487482, 0.07692540940624283, -0.18493032121077052, -0.03501573453516641, 0.0344133820901678, -0.1073451862569482, -0.011205097781277734, -0.02339438879033503, -0.013940207065098893, 0.04067284790098997, -0.2657795534295752, 0.10310669517088342, 0.1386529605296613, 0.14858329125990064, -0.18327880438762173, 0.2151364649454299, -0.1939360577284051, -0.004896314730614125, -0.20485062494413678, -0.0215286959339067, -0.011780045371640235, 0.04529472217865031, -0.23380863540996485, 0.10651258082965077, -0.005199764472584104, -0.13715520395687936, -0.1919689411877177, -0.013167031572312188, -0.10655947258798244, -0.06998011655918454, -0.06257872928158734, 0.10643068210003799, 0.10492181753135092, -0.05303778103255842, -0.07283063736862204, -0.17162188540724485, -0.028126391604450872, -0.04266132493055722, 0.04330958935903017, -0.019960498135337644, -0.16433457792892775, -0.025483666555121454, -0.05200694298445443, -0.022722952262813394, 0.09780241489640154, 0.07010076640870673, -0.007510835803870873, -0.07882210413964255, -0.09981763876683085, 0.04567344644593483, 0.006155255721584907, 0.12163794994841726, 0.031015119677885124, -0.08102911025521381, -0.10322399154773354, -0.13610726073078008, -0.15821769937593463, 0.07998578636968368, -0.054355048772088646, 0.08141027960614726, -0.1784591480125811, 0.015988925451905285, -0.0727565937329685, 0.1610733080339264, 0.09365379021422904, -0.0669478715671447, -0.02145963507578754, 0.01422533312918423, -0.049534867635521826, -0.042016134028843424, -0.11274924408109217, 0.1340446939032705, 0.027482548754686285, -0.0776927291356005, -0.0017712558168586205, -0.14540714407327315, -0.0729590990671017, -0.11769571857317568, 0.06458145705492267, -0.16029639728924114, 0.06651107119187044, -0.046025741907100806, 0.25286341557227326, -0.14570658257076274, 0.10579998964472258, 0.0004986636934682178, 0.0674513818928864, 0.03328340118288287, 0.05743427769512117, -0.025754998517332418, 0.043280705258900175, -0.044531882588265286, 0.010748364900462678, 0.11875900201775463, -0.043678387759943954, 0.09543157889799209, -0.07887712007536245, 0.008080388529338052, -0.11871035189882043, 0.14177900783420191, -0.0033261745738270656, -0.080026153663684, 0.08305109359951887, -0.07447195523117879, 0.13877263994263542, -0.051168728253846926, 0.06830863724924925, 0.029515847681718704, -0.007537440947827477, 0.0371584881369557, 0.027380361138910042, 0.17654875444357868, 0.13452297659295784, -0.021306420920306234, 0.10839293467659745, -0.05979353696335849, -0.035747575134334, 0.05407588579473902, -0.043315353707840315, 0.056960107273674045, -0.07849769706710058, 0.14172168290087486, 0.0265569201780073, -0.05935686691293028, 0.09248423275967106, 0.14586151918557333, 0.08028146302124735, -0.06438575737333548, 0.07849764161350667, -0.03580625274261743, -0.025079011199441437, -0.07053337765780705, 0.0037741387884117233, 0.15071064965090253, -0.10843798857275515, -0.014479669903534659, 0.27655558133329616, 0.15159688456177284, 0.11939015603567035, 0.10742085561502492, 0.0032122930572800875, 0.14674292852245863, 0.1316278119187321, -0.15669137391507137, -0.035460690318052886, 0.03771284816178237, -0.09483889978215078, -0.03779748905546098, -0.04976283572695415, 0.08739620508578284, 0.014428524026590468, -0.07962463841674539, 0.05317676162993001, -0.08488588548562026, 0.030075209868024092, -0.2043421348154577, 0.1310913672209525, 0.12219522228525821, 0.059008545303590676, -0.006773142863529035, 0.10960057635908348, 0.12122773235847856, 0.06720083666805413, -0.024750983312761033, -0.022408210820769582, 0.1213405184202325, 0.16719613448652604, 0.005139899184972654, 0.13166540385623288, -0.040938332402902004, 0.008691723844021585, -0.1860028298628304, 0.10396124584940092, -0.18645082478168118, -0.004096180734684363, -0.01856157221945439, -0.03907260046631192, 0.03730206974525873, -0.06343067340539107, -0.13178282316133347, -0.03653975223021994, -0.04366510215578666, 0.07837783429508215, -0.0259317326725079], [0.11867114510112897, -0.04354514116679895, 0.0894804258312668, -0.09771946178023616, -0.001104363613568878, 0.06867415158389373, -0.18625003011187197, -0.02049833258855698, -0.011759812786322049, 0.018133338908946316, -0.045105302061488724, 0.07142546516235376, -0.20072295159861356, 0.04758904087485304, 0.059691827482369196, 0.06452227826092212, -0.02497346719570042, 0.10535060688728715, -0.04336146727813153, -0.04184265890368055, -0.03056588179040363, 0.18313298889352317, 0.09308586992440657, -0.1305621178175605, 0.029708060036282655, -0.17411308697511999, -0.13706303609402096, 0.028182617322925034, 0.05610664440656734, 0.09599985760010994, -0.04335653722476712, 0.1453280893769448, 0.015766838523598784, -0.12094337855180239, 0.09776167299552062, -0.04604605076527687, 0.013150309361096194, 0.19313057410921575, -0.10774036488709052, -0.012067346688990257, 0.02384818019543993, 0.10241900031229764, -0.09869051979565875, 0.14824341449481512, 0.05149788264850954, 0.10046229940677076, 0.04155118176476125, 0.14738064564310938, -0.08361845613999193, -0.18834323629530925, -0.06509741079072033, 0.07197143526592426, 0.037282115344370204, 0.15534663170341467, 0.04405668156543631, -0.01097566030203203, 0.012248393166207834, -0.25114982363801946, -0.11849660381579406, 0.03255927411093571, 0.10650617536440675, -0.10265836784284713, 0.01206621973520067, 0.09064875525553188, -0.06703766875134382, -0.05398209237792226, 0.06734124812801406, -0.09453590912801796, 0.0022611831555578938, -0.01333072619870425, -0.0731191714893061, 0.03381438175776531, -0.04977022039619698, 0.022486716623863024, 0.03800213522724196, -0.05265649378890699, 0.05526686955449716, 0.13615376908345042, 0.010050221300888212, -0.11749099481583505, -0.06456231906101521, -0.0025672645346392483, -0.21108780178602415, 0.07638109566213057, 0.02877889426501981, -0.059999063094411775, 0.04400234907111797, -0.07771499398926061, -0.09354601372238869, -0.05211128885084191, 0.033476740084937506, 0.16871955237374983, -0.06246430199271324, 0.013749880056660172, 0.07832900026038604, -0.02390943129379559, -0.004863060039074046, -0.04876191999011889, 0.03638005239718611, 0.05133999704916184, -0.07293722394842227, 0.05491150598928935, -0.18573794686038414, 0.22568099776143752, -0.08720879171686789, -0.12797690449324903, 0.1418267897911565, 0.012485177302795906, 0.17425898010610713, -0.07278360133673743, 0.1711387816816943, 0.013361220328458033, -0.08241661783693502, 0.14633047507196026, 0.04053075685556784, -0.1356716605052465, -0.041120431007793466, -0.23364761406393647, 0.018360462971289612, 0.039103640541816274, -0.18943267153603052, -0.021192383410164394, -0.06612316482782254, -0.09471394998710239, -0.08030413329127237, -0.09289355160453253, 0.016685884176083302, -0.11186767045403961, -0.09668091367872292, -0.1082819335700877, 0.07134303455855275, 0.17330128930810354, -0.04364763466317913, -0.09281372336463066, -0.055719613629872766, 0.03501271408182869, -0.2183878486658658, 0.09544426674956213, -0.11648042364632584, -0.04808435375915464, -0.012104471560755439, 0.0345180211569556, -0.1788891976316631, -0.0119660686923488, 0.05153116770227192, -0.029033166757933722, -0.09193526120596726, -0.08307749728925025, -0.011237720509320473, 0.02888695653906574, 0.031658707811785626, -0.18554828778562427, 0.03856274907037748, 0.053457262879008996, 0.023073066636590388, 0.043099121935069984, -0.04840868037975899, 0.0004065181332096402, 0.0025553526025714887, 0.26655102890659405, -0.18029549843628592, -0.05684302306968486, -0.13447652446405908, -0.09677076911339483, -0.008901595231823383, 0.006149647716345378, 0.0008978844351395026, 0.15477356128484204, 0.008223138510177678, 0.01825154271803269, -0.025374360098635227, -0.07049119929704072, 0.005204096100230931, -0.07037719070724224, -0.11024032234195444, -0.16211104884055846, -0.010522441100289116, 0.11533277188808082, 0.0948194765532767, -0.05655170853036971, 0.029510682317441018, -0.04574762341284692, -0.0005581376268126967, -0.049839824065725506, 0.0661520390173627, -0.021208596611473014, -0.22708989700464266, -0.025125702511556467, -0.028099586611302126, 0.0018239714863861718, 0.01873782664591092, 0.01761719946079651, -0.12145865569254806, 0.011260614649994545, 0.011950819984920006, -0.1272859959962067, -0.05942751312927486, 0.10598606100002585, 0.028189573970461585, 0.01269579767289299], [0.024578151215348936, -0.0716381339224131, -0.18902164200023966, -0.22538814196482068, 0.12398039575091623, 0.021561446768371354, 0.092728100353902, 0.10648766354606387, 0.03138109245323139, 0.04176925661273737, 0.015091281343575886, 0.18983705195903344, 0.029480879922969994, 0.05741657974025625, -0.004696051633796907, -0.12028621630944746, 0.0657614090182159, -0.13798756862011424, 0.016106978262238086, -0.03033585001117575, -0.11060983351489191, 0.1293809748718865, 0.16842229831395797, -0.08106088790716719, 0.04963707299813602, -0.06702674583114092, -0.006701963747069071, 0.12054933573416354, -0.14730724150861346, 0.03322039580163852, -0.040066060041643675, 0.03840018413440152, 0.04281926511865603, 0.05986726337242298, -0.1533554032727325, -0.03931898706679233, 0.049444940237389705, 0.1408290515413536, 0.13771748640643774, -0.11245127839309593, -0.14428101473433058, -0.057153020917740265, 0.0390031594974973, 0.05814942238342538, -0.13923140484485672, -0.03940797897017645, -0.061758853934039785, 0.06309674698322855, 0.028056021468185706, 0.13708893180068746, 0.1189834921895393, 0.026554976444510284, -0.06259997844696102, -0.05917292479133817, -0.017257857349436034, 0.008958837387172852, -0.1006357130530746, 0.016297186391682778, -0.03200010989398497, -0.10398427021073249, 0.03990543074106895, 0.13192522537433068, -0.07344766940614089, -0.03295901706580264, 0.11863659268562016, -0.07575532813179946, 0.008146775409119398, 0.007548657090133951, 0.07534205425194722, 0.1401902841102425, 0.06188938209488202, 0.17909811972545595, -0.02418284443444014, 0.15509988734058178, 0.09575953225443605, -0.05145961486746137, -0.16408149189907859, 0.17858847409147016, 0.00635138164066897, 0.14585237798897355, 0.08379898528099809, -0.07372800679929233, 0.052212492436685354, 0.09456878611760398, 0.05878551316017985, 0.16864759856480815, -0.0038056103585962908, -0.0965182236746388, -0.0258996627289344, -0.10641058349034416, -0.17967341418014127, 0.16746355447104455, 0.057338580727416114, 0.07722526112420025, -0.0651963943310082, 0.03158271172070488, 0.0036282116107900064, 0.22615413931583417, -0.09185325879110401, -0.17648841649060382, 0.054958819128084306, -0.1643766985796402, 0.0688380772280754, 0.0030135675864377213, -0.1227717424280417, 0.16145460596332534, 0.021779546414501447, -0.18527572559706704, 0.11763757656286584, -0.03600909576960417, 0.08492944459891578, -0.12068606747967997, 0.012912911606068065, -0.060579599401502975, 0.031669694218095935, -0.11433081651443527, -0.010991171584315724, -0.016027542058525482, -0.03311459829855092, 0.08012911800389323, -0.08944330564206898, -0.12078521926432302, 0.01791955785740874, 0.07664133290963684, -0.13807190355273807, -0.12203953121230549, 0.05173121858466234, -0.05568389266483118, -0.06587959408908256, -0.06010150609958227, -0.16774580079867515, -0.022643478990180876, 0.039477096581556397, -0.10518437898793559, -0.20013078250543354, 0.05260179098418746, -0.07199735097399483, -0.10042853901626346, -0.011433726211372489, -0.021438340838171352, 0.03882614848433967, -0.20771217382769136, 0.11749159472821667, -0.09671291674561182, 0.03536704778842489, -0.11329572589134392, -0.01303670821000941, -0.050569842354286146, 0.07035575672603704, -0.0836076316851973, -0.039761646864102856, 0.11969365989180365, -0.07212248229777683, -0.01907209086383653, -0.0502547396086566, 0.22911339999511304, -0.056146472436312836, -0.15106413508082964, -0.17420091534914314, 0.04346692545949265, 0.02427504397524081, -0.01274975663853607, -0.022395222276185917, -0.1554783410086071, -0.04334640955119373, 0.022756038158966402, -0.15261360436495305, -0.16521443981471962, -0.04489920651699625, -0.11313449924042884, 0.030802241286543477, -0.09877665107686652, -0.003064128487573224, 0.08431510141431563, -0.25985799455385306, -0.15013856207322918, -0.06542180187640771, 0.004887276450727591, 0.03678505247799572, -0.01645467239512666, 0.029486864079898728, 0.1682181720749942, -0.13167927192004159, -0.14400398041159088, -0.028714949121106594, 0.06942673774230135, -0.19000949042038107, 0.05836715596084974, -0.048173039727236314, 0.01141505827405636, 0.03940533108039409, 0.12779524856030872, -0.03985641577770924, -0.06296214915624149, 0.04246812216171239, -0.01374517878551832, 0.0153025914438815, -0.1283219689574083, -0.06797287931969075, -0.0016580718943515326], [-0.05611433916197867, 0.17781249906745034, 0.10579872142141392, 0.008762660695460056, 0.12285491171000794, 0.07205173476029318, 0.09085791129538014, -0.21031485674635983, 0.0005315105998528078, -0.03205071733247329, -0.10196414023367131, -0.029327795874486348, -0.08815079828723733, 0.00507960826457062, 0.04343152595582232, -0.0014921643162297748, -0.056613574468212524, 0.047093247546280866, 0.15758682583391362, -0.19137267822554677, 0.08120182989050943, -0.046855889467793205, 0.05822896605367832, -0.10388318167743148, 0.06997515652854153, 0.07341862124061282, 0.022979027758468603, 0.14363601083244407, -0.09839483096265647, 0.389809022054412, 0.06409697128727163, -0.060018364182215914, -0.06497736148110651, 0.037402487440425285, -0.021370666617310925, -0.012727897136923898, 0.12236440894174347, -0.06839124491814327, 0.09927241485966512, -0.06084494233788871, -0.07092699568637414, -0.04383688494226673, 0.06498857459582669, -0.05329750811504995, -0.0018795934373123885, 0.016567172971055772, -0.08488095696431312, -0.11226734096287734, -0.019319446526877056, 0.03053279731495305, 0.07385556273716366, -0.005285690890652065, 0.02632262816107012, 0.02659793002133376, -0.03191832170530899, -0.012336349618414219, -0.10071767486476547, 0.133811015084113, 0.14687991827656846, -0.04536270620411868, 0.1343158312858469, -0.008982146208010805, -0.03571930169448578, -0.02731033124078435, 0.01683625393007863, -0.07281642360807547, 0.1012459675185555, 0.034957395848328625, 0.06410476052926162, 0.07576687090342658, 0.10278015359428357, -0.0985138126484997, 0.11973137595513775, 0.048969521129965506, 0.065980437634784, 0.08919601722254178, 0.17208119081583897, 0.08252175052150126, -0.015268063565940874, -0.03546018956746622, -0.03135256796324511, 0.11710574407497346, 0.057354903966320675, 0.05783408762171843, -0.054259292064938354, -0.0775981530642468, -0.08687888645861251, 0.1676654831857532, -0.15078067206616613, 0.05269981543349579, -0.039047166791564676, 0.0273197327612953, 0.04518006192344577, -0.213417858054644, 0.012740259659367557, -0.13391208905124552, -0.04924082473272229, -0.043904758049017535, 0.0329355217837489, 0.03341521486593689, 0.043542306609132914, -0.0630923680084629, -0.0014408957390245679, -0.048250855849989546, 0.06828177264221608, -0.05464834771358775, -0.07933196794576336, 0.04393632549352106, -0.021311678689776563, -0.0913538150107014, -0.03822698100981772, -0.11919032197837265, -0.004502453013264888, 0.0022480700141485266, 0.04604912722528714, -0.01995946616949652, 0.05507071558580528, -0.1539064534731799, -0.20498511026635066, 0.06011970444040965, 0.08462001526610823, -0.004530988357132758, 0.06598743106347407, 0.023889016927751493, -0.05892559775816491, 0.028303121189700384, 0.023802309362509117, 0.04847444561097027, 0.02712820275535995, 0.20730018650684692, 0.0041954880566714035, 0.10938327328326357, 0.05101365122463037, 0.053055243963386296, 0.02451254391173667, 0.1524503157148362, 0.15067729005903882, -0.09007953568576511, -0.10339325088316845, -0.03785682405367053, -0.0219406584821193, 0.04050806747094571, -0.11577473123704458, 0.10986506512856886, -0.012659446040599286, 0.03624758439625149, -0.07247638196724195, 0.31364665053678714, -0.045631048569643645, 0.12443658230774296, 0.04288402620046618, 0.31979897501365623, 0.05019506612212711, -0.08446806263598187, 0.047145691872779054, 0.24761952024524148, -0.16387774243500866, -0.16814431161083343, 0.13769898272715717, 0.16475035321971884, 0.1020122454149033, -0.05398457646233474, -0.10495255996736456, -0.1424419600200467, -0.030323373726522006, 0.12804199992358323, -0.11590279507618212, -0.012958057547624278, -0.06373564122642832, -0.17123954110868056, 0.03499323284912586, -0.0029430440582247732, -0.0911963906875743, -0.0646650772705946, 0.0030723460562539257, 0.0984831535965621, -0.03580838018914826, -0.06533208655826205, -0.060259858308642195, 0.1562014115134142, -0.15934780926643666, 0.011292202879461732, 0.008561652161526274, 0.19254654803649118, -0.14698933706606493, -0.02539973030113706, 0.10368420284264371, -0.01294121438726325, 0.15374584467983707, -0.13587913664789042, 0.012352745200142038, 0.12492174964916956, -0.05203177849536575, -0.16542705107791572, -0.078929076806423, 0.14808905256218055, -0.28223273633873314, -0.2142335462638304, 0.027409699908715408, 0.10754150334490793], [0.20509505675863743, -0.0009454848403189131, 0.021895044523571744, -0.053336147270416315, 0.019947453446402027, -0.04968156693138638, -0.0015724220298368805, 0.08223719465068946, 0.025617738214926314, 0.011364733971838969, 0.1439416465402558, -0.0712395217391982, -0.12159765779077936, -0.018884375425311684, 0.008634559906975509, -0.007737744277309695, -0.0739269765528192, 0.028690490373523992, 0.2601010252464434, -0.2767911855215567, 0.09597267465440888, -0.02706002914491351, 0.03575472624816556, 0.06683507162121738, 0.08812709812443069, -0.03993026544894493, -0.03922743477896826, 0.034294750871112195, -0.022685324589119933, 0.03014170424020827, -0.07877417112834459, 0.0737700811477731, 0.13905601638868728, 0.0996244126275973, 0.139633053655298, 0.0028696443121960504, 0.04871709181171986, -0.15778175581311032, 0.1055978517705881, -0.022101638885490875, -0.03976434676851609, -0.1730088784395138, 0.04409019046152591, -0.1502915618794344, 0.09086966259183069, -0.20727746741842082, 0.09227009711739458, 0.019471576631035648, -0.01827019584972029, -0.001248384842817932, 0.1304635511130034, -0.008805339854313077, -0.0952164042158612, -0.06483152307779383, -0.0742838590409599, 0.07494102037136495, -0.21573843934121562, -0.017049364948610996, 0.08679800149646234, 0.12715586208064159, 0.14131806971381175, -0.09454465731516729, 0.09059648811232833, -0.03571745702252332, -0.06107185050241161, -0.08704027554223827, -0.08947760071393582, -0.05159927442781094, 0.07458543386527114, -0.04097309164141009, 0.05805840839794527, 0.04081179414903018, 0.06948056683457576, 0.023480756487201764, 0.03993488257309599, -0.03938394395815696, -0.057687293992316147, -0.23132159902642904, -0.10861025543569784, 0.08100373175739518, 0.1815087261468945, 0.07881490147698844, -0.021787865247525316, -0.1098186297267556, -0.23889652129919636, 0.03822597064487225, 0.14801854194485575, -0.001966742825272137, -0.1181113891438814, -0.043668617563404365, 0.04830934895743216, 0.03971939230203917, -0.0706766246371088, 0.043152136080039996, -0.17519188725915172, -0.11893091212532682, 0.028423449867677662, 0.06529679460561905, 0.19056527333822107, -0.08160682188563577, -0.11513703226897981, 0.03432308709535653, 0.018790591775396083, -0.02462088359049915, 0.06293579674949852, -0.0723010673076181, 0.02045015705386901, -0.09257986800231861, 0.060950551469387486, 0.09956646096758266, -0.05986259776989536, 0.08282802644301822, 0.17608397631682565, -0.06566938413781856, 0.0213780902403609, -0.11694210227636294, 0.12669656612917293, 0.009008773224369864, 0.07413587741173144, 0.15011292316831643, -0.274748223135565, 0.023392727417980576, -0.02103542589296311, -0.035058159351673224, 0.04048485067398531, 0.001578686943424995, -0.004049815733313091, 0.01061420516455741, 0.039058821150561376, 0.06104542087093421, 0.02165896652180473, 0.059247110493394844, -0.050205696053778115, 0.061294268402710704, -0.04708657785494153, 0.06659902872943325, 0.01669448703876622, 0.08463110470608899, 0.01567887563089721, 0.060712507540524985, -0.061737608479844816, 0.06315475750519045, 0.036682327952414044, -0.048808373768377995, 0.006784519565741286, -0.057095820710926476, 0.025596948304838017, 0.031981315638876844, -0.10684301636455726, 0.09599763509695527, 0.023096452079202915, -0.1519514336236886, -0.23197089262517925, -0.031191073950996365, 0.11017217090714089, 0.02325492484452917, 0.18521979376225456, 0.04872030029273981, -0.026398324801974647, -0.026476196855243453, 0.0726590404947677, -0.07656881267167978, 0.11657150660722403, -0.019391528563439026, -0.004799081286266054, 0.15165200735122072, 0.05413372676316031, 0.14879609728980184, 0.01568626475535661, -0.06996507893481115, -0.06997849098528038, -0.008122677765328061, -0.0020744738821377407, -0.1492616892697382, 0.07693241159682236, 0.046826998270973946, -0.047371256588055584, -0.15821483509519577, -0.09486635747626605, 0.06691320621398222, -0.1697444515824343, 0.1129605962195434, -0.01555267569404378, 0.027587475673046535, 0.2233811938050803, -0.017693805475282102, -0.14992319009821023, 0.025032920934313856, -0.13211732572008933, 0.1877897979157273, -0.19835465963078264, 0.12179610203155519, -0.18397680515964074, 0.128972224252977, 0.037468672888297055, 0.07084336511121075, -0.06079720090828457, -0.04768107017169195, 0.11772421570189068, 0.004423157308783195], [0.03547265686949327, 0.028296011441886763, -0.2828933749101927, -0.1207626592559474, -0.046059901983598495, 0.11242026880870269, -0.22389363622186978, 0.06948260777184392, -0.005068373322645838, -0.04835634175088766, 0.02872466679897927, 0.014945944764607403, -0.10661782242469524, -0.12572895629783, -0.0208074546743706, -0.08463693185814183, 0.054209190474536297, -0.15634750663759592, 0.057452355213142924, 0.18413747181924342, -0.18919416347334672, -0.029756941392230576, -0.17525146109501866, 0.12753382527265703, 0.07031658030888815, -0.05342231350687944, -0.008167772864985509, 0.05391581576243561, -0.11692725416298816, 0.12943674339699926, 0.12389934817928268, -0.03715514726714769, 0.08382605919199579, -0.07424489807483127, -0.13217400588008768, 0.21047297749572205, 0.09804072633092761, -0.2049373683176952, 0.11038047554342324, 0.18076013396748403, -0.1052250495103462, -0.0025416380504958546, 0.027898276987229076, 0.1740420712957524, -0.16342420448730158, 0.17676707942502962, -0.10844450846717987, 0.22557817104602337, -0.04021719244325794, 0.14038038116194382, -0.12438019710682988, 0.09414878703929797, 0.09322182298068482, -0.00012288772891302523, -0.19195407410996795, -0.12057842289715244, -0.14072405735881993, 0.0028449951718896864, 0.03479820823767377, -0.01178609740874905, 0.02590116924353937, -0.06604755985161331, 0.0038711402915732993, 0.02522184358208546, -0.19974325611838792, -0.1220826800208234, -0.10941452367993987, -0.01143891200561426, -0.11455692770828566, 0.13427846584872297, 0.018719675475647898, -0.23533490783142777, -0.04351501686143598, 0.15153442248122262, 0.06028469980864874, -0.007381578407174154, -0.09369482000215715, -0.020109610515066902, -0.12906446994102247, 0.11714503290242431, -0.1394057654993406, 0.017730036556631263, 0.016116077096513894, 0.03614873892662307, -0.1277874609933495, 0.08765872867242736, 0.04223352496060351, 0.10405135690987309, -0.1541170434162708, 0.04503871666380041, 0.09471521829777715, -0.06825179095277645, -0.12268237877600882, -0.035218035382686766, 0.09585546922949789, 0.003579000972789179, -0.008972221098731128, -0.06536863008806036, 0.10817140428628455, -0.18366450433094542, 0.007243673676513176, -0.01932962364965039, -0.11654862169322823, -0.006683439840534812, 0.08082243471949521, 0.06920702428657445, 0.05355847934103763, 0.00910626518988205, -0.1638255468903135, -0.11976436060452032, 0.17552131247682054, 0.05981637554405377, 0.07553730745118918, 0.033391715776940716, 0.0027705937890618614, 0.22021393401091996, 0.08641265162396893, -0.013309523924690692, -0.003048389600911407, 0.07981474578787988, 0.06334099035825815, -0.060011357416672094, -0.0715092929928342, -0.16615416117452558, 0.050198709621694586, 0.06553550014756639, 0.15456515536868784, 0.22181967410995768, 0.12270511157102351, 0.11199227865958132, -0.04356069069665676, 0.06065900152152262, 0.10626664579861039, -0.02798087137328157, 0.07311846228520774, -0.013901788002589963, 0.05815695835170941, -0.012078706358825693, 0.07738549027405286, -0.21601484574848998, 0.04358215707146705, -0.059403460692195494, -0.04131301124455735, 0.032375576907098934, 0.0631944763224302, 0.15561402420274342, -0.012170091657371387, -0.07615349121657834, -0.018902625584480172, -0.008617781237233233, -0.0859538352966642, 0.03334294775537599, -0.0985108042311999, 0.1350761961002643, 0.29609540314178157, 0.048631194977795326, -0.04725176061841074, 0.021065103334810733, -0.009161007732971052, 0.04135865145040565, 0.1272405573065924, 0.052333949959504536, -0.13972328606406034, 0.021556170607680846, 0.010448429803972993, -0.10085956069540428, -0.08846687676922824, 0.10418983593910425, -0.02120250648306529, -0.0034022707971552973, 0.2525285188856624, -0.08843927188731453, 0.1629285633444159, 0.009597289442333453, 0.032564288911992534, -0.0762268930504115, 0.10632992082695764, -0.027903581058542296, 0.11102346141506755, -0.18582342781087727, 0.2087728528069397, 0.23956818600605598, 0.19117729904541372, -0.055187485637165856, 0.10498112368586958, 0.010699776185621153, 0.06572318490187284, 0.07314859701023603, 0.03680920334120272, 0.25156883529098983, 0.15673845441454376, 0.018547713971765713, -0.04774700033420216, 0.06952142240729758, 0.05952345872978372, -0.016516624129736972, -0.006241281843084679, -0.17171397790801013, -0.030713297225692448, -0.19624296991512832], [-0.052644802765004384, 0.08078735797252755, -0.017525991249431775, -0.08184781689855863, 0.08612036617471484, -0.03476213082919283, -0.04590201556522155, -0.019941389550078577, 0.040163263102625864, -0.1919590516906734, 0.0627169674780606, 0.15016675136459987, 0.01277560406165393, 0.05958724016285545, 0.03669509653187073, 0.021686413058701233, -0.09951110811641643, -0.13879795599957595, 0.03703984084363325, -0.1031132577998127, 0.09678589448739619, 0.06381662360787389, -0.0426762945966831, -0.03356487831061705, 0.11508446214325853, -0.020287879807420084, 0.1805105156378525, 0.12840629586276917, 0.0393888458613903, 0.2174481682364252, -0.0836242686165608, -0.042735265492007256, 0.06133094102466577, 0.031769536497752736, 0.1352120075591325, -0.009858196874770795, 0.07796689966222373, 0.09307164459141037, 0.11256201232510823, 0.050278915701155606, 0.02262382893477529, 0.03947891060897539, -0.033791811899541585, 0.06909834524772834, 0.010875493179951344, -0.07889144755098185, -0.0777370279438601, 0.12310413684351104, -0.04546722657435724, 0.13041627487737284, 0.20996980249059374, -0.056999381717071654, 0.10651237966439601, 0.17353513014329308, 0.187944983376607, -0.16896263644576037, 0.04715688788470512, 0.09313824379551457, 0.11406759750834378, -0.05796115566500452, -0.10605451197127705, 0.011774168127683914, -0.016750057370692455, -0.04839385766631611, 0.02165386446379875, -0.029237854552570778, 0.057430893288743796, -0.1944266495940047, 0.06739174178288783, 0.07462578326032887, 0.11698299453018096, -0.027053342337366715, 0.11991676182058526, 0.06135286812437989, -0.1330886416674801, -0.15524623320581302, 0.187679242402856, -0.030354721323192675, 0.03712242541160722, 0.0918341037139098, -0.10728089806680609, 0.12691966318533188, 0.23049640656698525, 0.11601286886501398, 0.12466488768327905, -0.16038067253809432, 0.04048183616407135, 0.027995453599413526, 0.06716735190199163, -0.1148647729912199, -0.07968720543557482, -0.016354904400504713, 0.08294293048327889, 0.03339396685031409, 0.12446675055084003, -0.06301852245851834, 0.16251419723314478, -0.03296210017359592, 0.0653844780965004, -0.08185008906663267, -0.10735593553422647, 0.10346784712862997, -0.13802577578489963, -0.00011416571563644941, 0.01147456240465029, -0.08165811571163935, 0.16684480893857198, 0.1297062369900989, -0.03730653096169866, -0.06371560021516554, 0.045096414809419984, -0.06492278009423151, -0.07973041465764999, -0.005008903188168852, 0.049493405678465094, 0.030029567167314742, -0.012298451702053615, -0.023998337492523152, 0.11704494235456447, 0.2052609114590185, 0.046233164972485884, -0.04678740543362289, -0.11862480402849755, 0.13554276221922262, -0.0371007140869866, 0.09124413916500596, -0.10177485929888486, 0.08258884621583379, -0.004129647637092872, -0.08896992897770549, 0.06924229884925386, 0.11859790713480996, 0.17704213195152196, 0.043500469679017564, -0.04342182377533311, -0.032858119574923565, 0.008436273920612008, -0.014284315812794183, -0.1157490104275061, 0.00924412739692446, -0.11236004849834735, -0.07407105444636455, -0.06617249714423104, 0.052654243722640034, 0.08470551485973053, 0.008402740141588374, -0.0350776910980262, -0.08633744467692589, -0.16533966829442648, 0.05025103965245887, 0.036599131668706826, 0.0858379969734509, -0.1035234398928347, -0.11541636619378653, -0.0828169108421481, -0.06558427387030767, 0.044683273901501716, 0.09289693095750778, -0.062082066225357314, 0.11324004875376094, -0.05855446436662327, -0.01737929800647622, -0.026140994790280907, -0.03301078480315284, -0.08203591362804212, -0.2484131140090891, -0.06341563389602876, 0.1343131260836569, -0.0210393992056203, 0.089396049575169, -0.03732661926150123, -0.11956652302061584, 0.0012962601483669698, -0.008046282714932308, -0.0505642472431155, 0.04969107149958967, -0.022446768759698192, 0.010225744840300187, -0.13440047909303407, 0.14661805623141103, 0.04954763800381887, 0.058303916954611276, -0.08981725991076767, 0.004592635377059796, -0.002035720054557391, -0.19957698406580068, -0.15878518118440801, 0.17581087583601743, -0.2488080399221634, -0.08950537185817904, -0.11003647556908977, 0.008974906947189353, -0.1324678518828585, -0.0004719105703043006, -0.16702787528671242, -0.0971934111038921, -0.03920648192736435, 0.014778610250319667, -0.10691634784752305, 0.1679359014270014], [-0.15776215416326045, -0.2593009496873137, -0.029829938084565997, -0.0524086118378102, -0.04193223254076913, -0.04211027139799247, 0.021689516513761754, -0.07647779587862749, 0.025103945648012667, 0.05264782274580101, -0.19005258744677261, -0.042520157432019014, 0.15212302338720235, 0.05626341203492405, 0.011481094769148555, -0.11762452832855311, 0.044179868491064846, 0.0079230260801342, -0.07647281541328628, 0.030992537001675594, 0.018412466854260855, 0.09543268631910524, -0.011034288412685077, 0.026645978893137363, 0.04585638167161366, 0.020634127585040893, -0.21951688799348548, 0.11961166400730545, -0.11539574748370374, -0.20000591038294482, 0.08603702972094007, 0.11810356340572875, -0.05543028255281139, -0.044927188130776445, 0.041736655097039214, 0.13103772659281376, -0.059085932036572905, 0.04188585334982158, -0.023530637973167835, -0.04739288695762808, -0.027973849163981695, -0.10278837360006109, 0.037810473189742046, -0.07674436417229524, 0.00040934546546762915, 0.12351871758939689, 0.08667629721189994, -0.003546962153801982, -0.057705558470823794, 0.19656536201116978, -0.07112398331966005, 0.17214578201366046, 0.021692764809216312, -0.0748215500721188, 0.018195624955475376, -0.02797501445190744, -0.08028024573316389, -0.03779557446951094, -0.023081581648199182, -0.13486350594553903, -0.09088497859244954, 0.005158990064687634, -0.06274466553922198, 0.09036659067595057, -0.10652618972383314, -0.21747015202980965, -0.0020357871132003678, 0.029811848761994844, 0.12559191147123747, 0.1912711030014775, 0.034346510963128345, 0.047013881756161315, 0.11833918044082536, -0.14338450623306936, 0.03393061121010049, 0.07581023449559617, 0.12544815591162095, -0.11161654985259996, 0.003368492399627124, -0.18085888280353962, 0.015509460969836762, 0.09662807004412019, 0.09583304119450342, -0.02326721359746011, -0.08898151259787367, -0.06184131112690609, 0.029756744574733242, -0.09049912099724707, 0.047967094047535005, -0.0777428794784472, -0.09525623438619107, -0.05700655927791579, 0.13519552041519806, 0.014069859571365244, 0.08553976279261054, 0.027248398491713913, 0.0680434205043593, -0.11878805691835816, 0.11694606211059881, -0.04064853543069799, 0.052716433103293305, 0.2098994418099697, 0.07679497671889265, -0.03305996528496608, 0.002874826944054715, 0.07558764478804846, -0.032389877893773344, -0.06594423555922087, -0.03426907513590637, -0.03765323532453673, -0.11836699493400275, 0.019032974070841483, 0.08439045379414502, -0.11345399771840187, 0.176192202480425, 0.06935194538270945, -0.021108315462746892, 0.009396421736213972, -0.15721632541394095, -0.05112216468511663, -0.052406413890509894, 0.10212263946065224, -0.053408813712330666, 0.04029252527827981, 0.0032612557709227313, 0.08222784662624526, -0.0013167318484023005, -0.001048954263543719, -0.09815495746891856, -0.14790977493010882, 0.0041220408135825394, 0.07461202348373763, -0.23329191022188533, -0.0007778378263564491, -0.20312746221257597, 0.05722519046699119, 0.029862936694182107, -0.0809272807396974, -0.07388305771412616, 0.02964357185068166, -0.07330477484586209, 0.11342553133586107, -0.12451779120645752, -0.01199541974436966, -0.10161629182137735, 0.018396530073873332, -0.08771087367996676, -0.02898363223639886, 0.009971089311077895, -0.11595978169382659, 0.02642086300553129, -0.09810566278311267, -0.0015643360243289563, -0.12639656385038092, 0.06486079565628768, 0.048364936172029825, 0.06783443573766662, -0.06586754375527065, -0.1300385284171188, -0.06746641199621514, -0.03492577106968827, 0.0676152552761381, -0.24728551937966436, -0.008511340628503427, -0.05605890070811072, 0.25516066886421995, -0.003955728419454866, 0.0540209705008686, 0.12264187303285047, -0.07236261848212032, 0.0010363316861407247, -0.017946591285265927, -0.06725942295402522, -0.04270480731578679, 0.016255658936575903, -0.0019018294703174025, 0.06632501584936566, -0.06783474795562865, -0.06805049448373539, -0.021969260061279812, 0.20608586972354478, 0.06921828032852108, 0.12606135393078982, -0.1067058574056725, -0.14519006387468122, 0.05425824380954459, 0.0011306555897412551, 0.0832509827315494, -0.0030838640786637417, 0.027159876457755406, 0.06816113800640904, 0.11143772069496838, -0.15229888920163195, 0.005883875471884418, 0.1434119276980416, 0.09323266296451234, -0.10859588736026903, 0.1513872708871468, -0.10912106124234057, -0.08066165636733152], [0.07958232574047029, 0.10797065761573876, 0.030680953864301554, -0.04561384447869147, -0.06625099718410847, -0.03813056066011035, 0.012318078112984463, 0.050081113689322304, -0.09540352975329994, 0.25759466168568995, -0.008587735741555719, -0.017268441679207956, 0.09351977429211535, -0.12658673791810895, -0.0005569416621070788, -0.11310842555785015, -0.07584363783887055, 0.06893108752671773, -0.27667924016921225, 0.11799221691679032, 0.009981751572234344, -0.08695219140810143, 0.10363419415480739, -0.07398584106784704, -0.11281292544051458, 0.15687924827511718, 0.006343637810941642, 0.15144887768418522, 0.03839542783243283, -0.0007779590909284332, 0.16804971579847314, -0.005250067132137186, 0.010367037272306295, -0.058901171710901104, -0.1953861033807165, -0.08422021923948772, 0.18080332426260726, -0.05975620574172356, 0.07395306059229265, -0.059458029981804335, 0.0503821411251409, 0.11271477335280108, 0.2247973320115826, 0.15268263125940257, 0.0971245106729278, -0.045466622785241766, 0.20562025816076396, -0.051730979409439624, -0.05403584723234166, -0.08056738257437604, 0.01423025928861694, -0.06173751916363608, -0.058609487414841545, -0.10536026755582704, 0.08248218606714214, 0.2066463119818545, -0.03376610679267576, 0.0002860236236865283, 0.12469544477883787, -0.10297485615413277, 0.05845774119473251, 0.18281954360519717, -0.06134445474315687, 0.11308078447293614, 0.09047177995522801, 0.11736204061269236, 0.24653913424251137, -0.09584389900006336, 0.006983298209739063, -0.0026460998830565366, -0.001172313416370109, -0.09359959418602716, 0.08020087913039026, -0.12844460718335843, 0.008693190331758277, 0.009780119977878728, 0.06392513179495246, -0.13314547481287756, -0.018334834965007367, -0.0716513329979388, 0.01409164103005132, -0.17359353042256592, -0.07674035852127256, 0.045116308993168874, -0.09455856231231945, -0.1540684698768422, 0.21708828155474005, 0.020492303335296204, -0.020506325535063697, 0.04364845264858709, 0.22190096317526753, 0.0015142212900612069, 0.10409830763354518, -0.09259247764028393, -0.04530510313872452, 0.03573509500426796, 0.20304050769926374, -0.11070167361155467, -0.11866474668035853, 0.13415613441837415, -0.1310852906978664, 0.1513120616976675, 0.052072893637361777, -0.051737612850347926, -0.02920837740374523, -0.16472824044409015, -0.07607931556433488, 0.19833352668674137, 0.07631529770986561, -0.01979964794824268, 0.28061739576333117, -0.013190538917587376, 0.08057296857901121, -0.036047645791652615, -0.05051830109451308, 0.11312054648589544, 0.1691647888844, -0.03583878941486947, 0.05817105670329415, 0.07843338399384245, 0.030590995917517197, -0.05823506045750168, -0.1059187812301719, 0.022641679724254387, 0.1165981967865141, -0.02245970186838736, -0.1630837480367752, 0.0358839403605406, -0.1254846169296512, -0.013857617045819302, 0.004062003274326224, 0.08897880526063819, 0.09248783736373815, 0.010692240599875422, -0.023940363846037222, 0.022538439707696773, -0.02018150686281913, 0.1411554954251451, 0.07507416244396464, -0.03156785283691843, 0.04453602511395458, -0.28196170807864207, -0.11433624567916156, -0.014716967506255963, -0.15104862815063594, -0.11000515587986044, 0.037977200139213255, 0.07202675788121304, -0.11411765830435021, 0.0512380716169447, -0.12411707396813368, 0.07567226754699281, 0.16747895411771535, 0.013257753757820522, 0.10822108546146453, 0.030982373565770795, 0.12403631829977269, 0.019807039401342846, 0.046635684673426464, -0.08408484438464152, -0.03749206665959061, -0.04745171991867862, 0.14528630685803098, -0.04801228128407935, 0.03816022512562456, 0.040231735283739356, -0.1067629428150516, -0.03615661519934841, -0.14547129850851198, -0.11367136223953395, -0.03764710575783957, 0.06808694644519463, -0.0038048396993252305, -0.08493849502423603, -0.04819979268592723, 0.05975579861407584, -0.20664101610337168, 0.11350777145159921, -0.06599297831985708, 0.0706514709012715, -0.05922726926841585, 0.051948821510449286, -0.05046707567053552, -0.03549019101287339, -0.011932632398677446, -0.06580235016615404, 0.12678320855624986, 0.12816833540192707, -0.029957405473624278, -0.11299963988714391, -0.008025199578622931, -0.036383332612694635, -0.056662235543164526, -0.15242090410673662, -0.026594153331299785, -0.035038001925646406, 0.14458503564661127, -0.1778686161921299, -0.10119581872712678, -0.0657964442448436], [-0.2512545296691574, -0.20054872320481867, 0.10821434866013507, 0.07771962095216456, -0.19478471538038297, -0.04808284019142703, 0.048791303873917696, 0.044418794749185045, -0.138429155048973, 0.0881856404161863, 0.02124896835225158, -0.03262036313637425, 0.0077549654607419385, 0.13212734207990479, -0.13295040689722254, 0.04731567271242096, -0.04182589859566397, -0.09587492649344986, 0.051429920264747096, 0.1385807951970929, 0.035546493561302794, 0.05270992057402176, -0.019528766244449203, 0.05394965976314607, -0.05923433371995321, -0.05817841807420061, 0.05956505769160834, 0.12068598509722268, 0.011001702968910407, 0.11175417895718638, -0.25748455807248855, -0.09493312638151723, 0.08842054198417428, -0.04852940053774167, -0.061616774286349464, 0.015752750809010486, -0.03023927998412405, -0.06591857098901276, 0.02352915527812375, 0.019600661178397313, -0.02318691542736117, 0.03259790883394304, -0.08414898448433408, 0.11240506515663816, -0.06396373812517253, 0.039013774601060765, -0.038731247707620306, 0.1464547236859621, -0.05551468403586704, 0.06188878744646309, -0.1084830927476926, -0.07775604012402373, -0.10181740705001306, 0.04495178078758541, -0.10020229666995277, 0.08210675611517015, 0.02761593673824622, 0.04681298132189318, -0.04505999025567148, -0.015230744079614184, 0.04215294614273616, 0.015248248504137607, -0.03096879365865691, 0.03720828090403036, 0.1476076852252329, -0.07706221649576785, -0.04176545305323103, 0.15118855398223277, -0.014569132049714797, 0.004335620171611614, -0.10426109185571365, 0.028090614323939823, 0.0705391307674107, 0.13342309817929582, -0.014933599127273085, 0.18585960154933148, -0.053317727293039394, 0.07310261278477488, -0.18130034598834696, -0.03870002766541394, 0.03817233726176051, 0.014465709720838833, -0.04714819580186922, 0.037137598211289966, -0.053592139179716475, -0.027326555089147903, 0.007281974097418025, -0.07645451001635718, -0.15484213484164686, -0.03248191452637228, -0.12066361573450546, -0.005593408235895484, 0.0028105695449567687, 0.10761991599069239, -0.0066363055734861435, -0.048031140298351274, -0.02775348778909832, 0.06436887965188504, -0.02017447059055631, 0.04128936741497656, 0.1195676455297122, -0.06252122002816549, 0.059886419479219424, -0.0675472873930081, -0.030230876129393368, 0.1725139055218608, -0.03128829335480986, 0.20411665309320853, -0.12463695673728109, -0.093883752320867, -0.12379911381150178, -0.06198377945494088, 0.06852233719379268, 0.220449302992835, 0.06647229563167598, -0.09216145491853193, -0.06554790210822756, -0.019564968049046727, 0.007752770103304998, -0.16933917903887483, 0.1503338722447456, -0.10315215216310482, 0.034051478145758984, -0.12693380691925255, 0.07319686534848005, 0.0158251180398752, 0.1133506904356392, -0.06533204243801034, 0.16418890292214544, 0.05928860286764716, -0.06512735655470359, 0.0070036025932564035, -0.015016079249005596, 0.08492794688016005, -0.05723246411304902, 0.0004721071454616469, -0.05699250868384597, 0.005494490452972306, -0.06785680020377471, -0.06407112859036916, 0.1162802490788631, 0.013480122648946201, -0.06466872686221777, -0.03156945712900306, -0.033908964582727866, -0.03687464681017119, 0.15588874188855253, -0.13934356819502947, 0.14082785846182802, -0.008805489916751437, -0.07036387588462867, 0.07985168019682655, 0.012771042639572799, 0.14411757329921954, -0.11402488447351751, -0.12271659405336162, -0.02359419143329176, -0.021122227057348023, -0.03326500256357793, -0.09792923222025215, -0.0642038794032746, -0.06300578613857744, 0.09970969171540023, -0.08090001069637409, -0.1282822396100046, -0.05395986197718298, 0.07855988019284209, -0.21607786831639084, 0.029227161666430402, -0.05013786184583473, 0.11511323054946236, -0.014639569715856731, 0.1970595028291104, -0.025775856075665897, -0.041489690605301985, 0.14054753399608128, 0.05202898285118385, 0.03754880388361039, 0.09127030538577006, 0.07523289440476019, 0.04380183940691811, 0.05623403863178508, 0.0877807147250327, -0.0885881970990623, -0.08471292491955351, -0.1397449090277529, 0.07664329950452434, 0.04062285938479232, 0.0737118886470065, 0.05338116637789855, 0.16820178538718772, -0.08679444003409394, 0.18250004028795472, 0.17546006072562034, -0.018119765686056378, -0.055700008272682795, -0.012630471181475679, 0.10845997941999147, -0.012168294063215889, -0.03655154467631289], [0.036176696993340585, 0.1217144703109548, -0.037096466709841826, -0.015133425474411677, 0.108454061508535, 0.12875361227188084, 0.05659603265319017, -0.14192718993301992, 0.004318017416128714, 0.08254292034686575, 0.14809774615029137, -0.00978010003454128, 0.11257958938041901, 0.03389358235249518, -0.026411075637820903, 0.027917898120179616, -0.1847741937600827, 0.08592833027292658, -0.05280037076080108, 0.05273426718923896, 0.22057631936874558, -0.006371620288079526, -0.001982788437840528, -0.16671840271373514, -0.10324616708182854, 0.17732902564563696, 0.1437252262241057, -0.0012137493337055609, -0.015114697238150458, 0.003852351522647307, -0.010823094859761984, -0.04403951843933973, 0.12913298910162063, -0.11728942088423258, 0.04520930645260305, 0.1121111409575265, -0.09284451695601721, 0.19758585113970165, 0.08425512883119408, -0.20216189728287595, 0.12332515934725195, 0.019708276106105947, 0.24126740207308836, -0.09296058062653556, -0.07281961655025236, 0.12196977382054894, -0.08727298044009522, 0.08497418019008869, 0.07190549967615707, 0.16729265547305575, 0.18170481403604724, -0.08265322939164592, 0.09740892919266587, -0.053729247018131754, 0.15042659087172686, 0.1332915791472207, 0.13856533971057428, 0.2164963710389799, 0.019164544393474973, -0.080150202270005, 0.01720752105112115, -0.022252704122593975, 0.12137782399807974, -0.022496063592038564, -0.12057870532410259, -0.1097968313579221, 0.17711950029518622, -0.06224748736016328, -0.022273625823664933, 0.0292233450566215, -0.06052718510815738, 0.13405962355830053, 0.05004597025542765, 0.016836025258617656, 0.09229324885327403, -0.13982352998990133, 0.20498327754180867, -0.056994819774712054, -0.24111989640515313, -0.046378608867746814, 0.18037550645723874, 0.07164402832110567, 0.0417169666350496, -0.06662053310494104, -0.12432303428422722, -0.04933603050303229, 0.07023144705528354, 0.12753784781047384, 0.1574624992933513, 0.05597469232316106, -0.10893193843361737, 0.03420045267308171, -0.02612317859259678, -0.14365780902664232, 0.04884317928759381, -0.09086989655594532, -0.060120285152275826, 0.03219505197304817, -0.09333586970472599, 0.0249301159341115, 0.04400893782171955, 0.08102526919020837, 0.027486201753978853, -0.06980406552718213, 0.00029288061773269055, 0.021222781417468455, -0.08113744917171667, -0.12741989916482804, -0.13430632550282792, -0.04327019132853897, 0.165868545986039, -0.04313294684316033, 0.0839220640348459, -0.06448954142306157, 0.06208014677701494, 0.12338076715291564, -0.00979411802522169, -0.03547056286009736, -0.14555993615653204, -0.0046544499009381745, -0.0039694099381899625, 0.16034546394068455, -0.013421949069440888, 0.0756138256011291, 0.08621987565218933, -0.06560523742667776, -0.12730678972698262, 0.012986365384367987, 0.08871927836780429, -0.07470876957634504, 0.04910784637686709, 0.2558587716958781, 0.06804130326451828, 0.05300049336352691, -0.07827100346376888, 0.02696244153246656, 0.11695512396563133, -0.1192611478236275, 0.002731862537613836, 0.18208965139874245, -0.0005304109773360851, 0.022921853162483664, -0.10471445665350367, -0.1237278096618437, 0.1434853333985222, 0.0207337388480535, 0.03693865196661234, -0.2395011481851466, -0.020825800553803078, 0.11648109652920063, 0.08245686452862262, 0.018442688335541756, 0.006351030750095615, -0.0802853204991039, -0.19531641746326142, 0.11368971161226644, 0.02396486344972131, -0.08499883520076676, -0.08641331605034804, 0.09041888446190345, 0.2591340001894243, -0.1767751574119755, -0.04898935153673034, 0.09190309586946017, -0.1269698925634793, -0.2129403974584812, -0.09752304188627375, 0.032219293199527425, -5.6147025166403795e-05, 0.05352889872278758, 0.12645019780101155, 0.017841869906142546, -0.18536769276023984, -0.13507552823807886, -0.012599308693528918, -0.047388871890781004, -0.14892446915066826, -0.08963227164877718, -0.19781024964698266, -0.03972545021360959, -0.05418824665617489, -0.25698349629297207, -0.07172160801656902, 0.1786195317105113, -0.17648766900175597, -0.0706444310780886, -0.052392121202502084, 0.003536521617335501, 0.18782842665997304, -0.287899015832255, -0.03889506768362123, 0.020288792048773506, -0.08277831865278246, 0.07412853460020635, 0.019946752241073222, 0.18278255834391344, -0.06918553806713951, 0.04064173897659634, -0.18192115582911209, 0.041001086238220685], [-0.15169388811706042, 0.06160203707275469, 0.13969774737062313, -0.00691367318896408, -0.05318234685530682, -0.011965807501246768, 0.04949641569826577, 0.0010335491258522394, -0.07727316883064211, 0.1357062922645594, -0.033428948771012296, 0.09901845373718565, -0.25303608681490825, 0.06668701980196744, -0.03465331890517253, -0.07390073426972768, 0.05974415341214881, 0.10112178993851084, 0.09246677857964808, 0.007664635367363518, -0.15162500015662128, 0.08990221054561448, -0.02175706364869262, 0.11599433449532857, -0.03090323825738785, -0.2400799091202481, 0.04604243063580746, 0.030973157387864547, -0.017040466029826572, 0.04833373234778482, -0.07000192929014441, -0.05203609082024643, -0.05405190583287261, -0.16071675949286596, -0.11464161369456216, -0.08951975875217409, 0.16137960244097058, -0.08727424553192786, -0.06779526521220557, -0.004395612200268303, -0.0446958528939697, 0.06381207831285192, -0.010465065376705766, 0.06595755176284464, 0.02728186899967305, 0.03905494037155102, -0.1258782604087648, -0.04763235116630478, -0.0069712570939305454, -0.07597495569962087, -0.05391330695518124, -0.05016764739309472, -0.2679587824132382, 0.0003539359179317826, -0.07422363878274767, -0.10335378485770144, 0.08708866876770459, -0.14274520281524092, 0.026980675977605673, -0.04112751950241707, -0.09830961258618516, 0.06386879238535773, 0.12738191304399565, 0.10797079965501469, -0.009926956750024049, 0.015409773182309204, -0.026638991542147446, 0.041162302596022826, 0.11651388278409068, 0.09302789780703168, -0.23393773279212035, 0.07347236933327675, -0.18061203656527267, 0.03179818472092879, 0.0232834363618205, 0.026213907119914715, 0.05090876959564786, 0.033873508064938586, -0.11229634206341971, -0.023385530880314892, 0.042431131497151525, 0.029978562902183245, -0.03831451478173897, -0.17558680339478197, -0.0034963779581436427, 0.022697963600098185, 0.021244660137873565, -0.1290626506340457, 0.042010549620211, 0.09855898629161933, -0.12647077338027946, -0.18503560965098378, 0.0190177288842565, -0.008068007713681817, -0.06102796984076551, -0.1034829312100212, -0.07563654915638152, 0.05056640521795428, 0.10804221969320574, 0.056119327558773094, 0.12020380694040905, -0.10047085887356173, 0.13943747797035838, -0.025905454826066106, 0.06090507637597321, -0.09953959396378477, -0.12339108739246459, 0.13693282122681016, 0.07631054277965255, -0.06511268035120397, 0.027336415783201465, -0.1533398189802601, -0.22624246883514548, 0.11469762934085422, 0.0472477037611382, -0.1739208266464087, -0.03201833900800609, -0.1314586085109063, -0.06491899212153555, 0.17660325872799432, 0.0560660998905047, 0.02714531411589868, 0.027595322481610635, -0.04024591231343634, 0.002563710467913514, 0.07239865355574902, -0.049876046039307904, -0.05050542357679098, 0.0036588192395729685, 0.18751222151393818, 0.025755109977824365, -0.020907760641688033, -0.07301396040911941, 0.09327130277345952, 0.08473941211675115, -0.036506839332492665, 0.14698549848420014, 0.00243827985432598, 0.08425799525679453, -0.06780099200955032, -0.27267929287500275, -0.11745919004599048, 0.04384310920780346, 0.08604318642461939, 0.0649774952035481, 0.005764660256434774, -0.032988264937245645, -0.10790487569774049, -0.07499657911724972, 0.04609743737010713, -0.1386085639610122, -0.04916759507604096, -0.004006545975560388, -0.02015595265549293, 0.14514898268436904, -0.1771058875350686, -0.031606653286722124, -0.13427731265756623, 0.07965566192531906, 0.07741689128304445, -0.06444463874595534, 0.05950707943884315, 0.001256690873888436, -0.15017407281208867, 0.10396103626988429, -0.10049092095443789, -0.022917385440345755, -0.041835646059631595, 0.020287986316786105, -0.0038838243295200576, -0.08149573217373297, 0.009583921426691342, 0.06410048934459298, -0.2770552029998163, -0.07769952654982154, 0.15782624738476128, 0.14384549529857965, -0.065406537148977, -0.15932549033399362, -0.15299795304214783, 0.11830362159879815, 0.08274641737164487, 0.04859734093487813, -0.03553792182567709, 0.05862401590199835, -0.07320810550420116, -0.04193704764912476, 0.18071360875114845, -0.05062010150200783, -0.11638396927090491, -0.1519891251907739, 0.0967136387289446, 0.04601851918214004, 0.11156927432024702, 0.04663767396817417, 0.04811843541395417, 0.08787389723652077, -0.24274721269060404, -0.05282870966528608, 0.21500146727775937], [-0.05123219693343868, -0.077340593041296, -0.060600657589656964, -0.19671946504226784, -0.12232988354071841, 0.010376932037964751, -0.09068987219955223, 0.10339890756145079, 0.024887164124614985, 0.09868891665325999, 0.02146379035196097, 0.06976380413187461, 0.009922906226282094, 0.07504275148434977, 0.11227686398635961, 0.051121201160199296, 0.08860664101131487, -0.07746309202746648, -0.14033325321926887, -0.06401676180871062, -0.032232362999066955, 0.02723521170856193, -0.09812070241043264, 0.021204154848832348, -0.00021346080630133565, -0.150894587440794, 0.10743862877341713, -0.013581655032908119, -0.25854619809170915, 0.005950236272715458, -0.08825608443943615, 0.07530138643943968, 0.019856948016357383, -0.04185559378028398, 0.03679214816698909, -0.05176521974621495, 0.005879236098069735, 0.04710650781011254, 0.11770175297855441, -0.02958159785699373, 0.043525037204319134, 0.1797914154705813, 0.06992434521127035, -0.1197851551092364, 0.10429499798955831, -0.03607225930451944, 0.10131061943343891, 0.06632020661727578, -0.0037970202290859797, -0.08163748924552378, 0.12347610302374012, 0.08487035974498675, -0.008272473381758986, 0.03163481794723017, 0.1372710499577106, -0.2166991025261028, -0.025659816753928495, 0.010403548095868567, 0.009818719698276052, 0.08157082942638902, 0.06172259548109296, -0.155686511675285, -0.005110742908327346, -0.09783219128365428, 0.004600729247709546, -0.10055224440264005, -0.14956713010273726, -0.01243409987171585, -0.11174499587033192, -0.1185563640769844, -0.025868352056712996, -0.06052796099429428, -0.10233088342717434, 0.05279787522209625, -0.14151666352510006, -0.1381036850977978, 0.06845838317174972, 0.0370005726212684, 0.09721797168756785, -0.1052541251905431, -0.08585519794584057, 0.002187050610989665, -0.06035215710390562, -0.04340659350491396, 0.053993178325790425, 0.006133860261506457, 0.08387481471271287, -0.16177417019960147, 0.19511185205400586, 0.15826080085906732, -0.0021039305522566392, -0.04533023193469033, -0.23945991572157346, 0.1962306266130518, -0.02473902886896366, 0.03593138821434529, -0.04673442581767101, -0.02410575650154042, 0.13837200241230346, -0.090653508432367, -0.14366476370653633, -0.00747552192717495, -0.16455508010926628, -0.056609678466206716, -0.003919231347867818, 0.002816036356823748, -0.0599740165801608, -0.13962015959785407, -0.0015609392152796473, -0.02663055649716141, -0.11702488481347649, 0.0011357229563755233, -0.10267564373844658, 0.03020349187769238, -0.09363688028950956, -0.013271197950915532, 0.03800025881898991, 0.1403671421817102, 0.05476980722928773, -0.03161092983295543, 0.1342050791972483, 0.03668795209411999, 0.1308743544926713, 0.07038205882938105, -0.09621601751979507, -0.03375577208014482, 0.0040445782763512935, 0.11700152304705896, -0.1863599783405352, 0.020585361987140602, 0.008314031804648733, 0.059411680592870525, -0.09514586895344351, 0.06837368985577162, 0.2821673227854794, 0.034894342918169945, 0.05463914269094349, -0.14019631150777334, 0.1579923367765353, 0.12623804465292388, -0.032119262570569546, -0.016623769379745728, -0.025105292614339615, 0.0016734137335642264, 0.02216338186349864, -0.09542040879369253, -0.03168451581861267, 0.07087153965053647, 0.04350267498266077, -0.07326330780687272, -0.0793079856271063, -0.18851949552544153, -0.024355797837722872, 0.03145209590063076, 0.020617238935815973, -0.004717462049634614, -0.09423672349128821, 0.011972238877711372, -0.09368218863221645, 0.17554720445387972, -0.39206032780580014, 0.057324902559795644, 0.002948150707313735, 0.07327002928677005, 0.05072470814747318, 0.08557482322443412, 0.18722581172239844, 0.2463749787730053, -0.035537990372154354, 0.12317170385579622, 0.01148664389060124, -0.18456546016173728, 0.02230917950679625, -0.055382163055093796, 9.983359079824713e-05, 0.1259695933513719, -0.0446051795074708, 0.05764935597261808, -0.10210258945963915, -0.08450097074814633, 0.23074589266669476, 0.08256955489783235, 0.20571013806642952, -0.13493004915787218, -0.07153730548903052, 0.05426723959883842, 0.14194281736926057, 0.024931253381472427, 0.017164233575912825, 0.029076326147221544, -0.01800888865672778, -0.15453239648499856, -0.08807687848151906, -0.13079435346946736, 0.16569489592093983, -0.2410318008469365, -0.22496184907151476, 0.0196682322539167, -0.04094584547881971, 0.002952718820145037], [0.23255157006900476, -0.016327455202282046, 0.10839533265614071, -0.10724564731933679, 0.06705714767261597, 0.005330183231176833, -0.06859854992390746, 0.02764962814224139, 0.10267651841537147, 0.10561737559608407, -0.044095215646937136, 0.19406316953261726, -0.023389791502071173, -0.1494356510445718, -0.04231185417918122, 0.09906630176581986, 0.12650431525002, 0.04040286248708419, -0.010528586186812105, 0.14462405466700087, 0.0634649566509512, 0.11637454964365752, -0.037761524550655956, -0.12663436922549576, 0.05264502783439197, -0.04564333193615207, 0.09696865764092441, -0.11745726136087647, -0.09968068580103903, -0.045156857730880164, 0.0155629609703088, -0.08092728030968936, -0.04182481315813409, 0.05332928008771747, -0.014820215001164953, -0.07720511130388563, 0.038170822227811076, -0.17259686210562744, 0.17185338321832588, 0.05970039658895121, 0.05979317588485988, -0.07886093708644203, -0.059623917730461565, 0.03737274790533132, 0.05881670741834913, 0.06799906739297659, -0.016275019035210232, 0.09127059520939973, 0.11744845096757986, -0.08662812500161385, 0.00980054917768306, -0.07507802673775038, -0.1131534811121149, 0.0710985655094181, -0.008480732056930524, 0.23037418187686498, -0.18764389845668894, -0.021976992541641985, 0.15712103837741104, 0.01757192319829565, 0.010584016506971702, 0.062278371672163296, 0.0123203815264889, -0.13898681842677543, -0.021741507352373183, -0.03953554681472425, 0.14600959415336187, -0.05685710306623592, -0.06902776009605525, -0.053148290238911045, -0.05840352731300674, 0.07228772499428741, -0.12421409913380166, -0.19810034948893468, -0.08411651116319745, 0.13503539571051631, -0.10152931929834935, -0.05189837345211316, 0.0820758935253341, 0.017626338556010725, -0.12609178954367556, 0.3186512544084257, -0.04320093099259723, 0.032429122271559065, 0.08298951961524731, 0.06808097184879863, 0.018946355266508785, 0.020106086373998418, 0.028106335845567893, 0.13090033997228762, -0.11189696856952516, 0.014258160881034397, 0.020785239400111805, -0.04984346272458649, -0.08105117125571201, 0.011375574024414345, -0.13507138125234397, 0.0835435656342326, -0.2434904948782721, -0.20826333337842878, -0.06639748047645168, -0.06754443272330916, -0.2529460901244695, 0.07364875761860416, 0.08538276413427602, -0.14877222047382233, 0.28100058336809725, -0.08284285441137533, -0.06527044605230901, -0.08608556002714901, 0.07076275846544977, -0.004979560500138373, -0.03013596274317847, -0.1799431072092882, -0.027417643626846285, -0.014425797423978544, -0.18273161111841807, -0.04809897465597413, -0.04348855133937, 0.025224575691362824, -0.11306459826666576, 0.12114874272442924, 0.2924236624792784, -0.019513033429483507, -0.16398473398003374, 0.0622017008742459, -0.03589726966189912, -0.09161391415666129, -0.06469251640614548, -0.0089139637992159, 0.014411003942000945, -0.08925787877470301, -0.18754763648167025, -0.05993366673613834, -0.0341423951346617, -0.11735719548891584, -0.07271592748142107, -0.10434620891064549, 0.17583832168664118, -0.005011051803136794, 0.0344636399574833, 0.021012292441583567, -0.14589916064938835, -0.10952265089769689, 0.03648238450936488, 0.09589846267747419, 0.15749478643431886, 0.0525499725496436, 0.14269990371382688, 0.03428618012212116, -0.04332663644376621, -0.020602712804275614, -0.11605259146762346, 0.28442490333258674, -0.08398159598862352, 0.02752587389449168, 0.15169720810027298, 0.014903679699873593, 0.03912938657193409, -0.07567808737170248, 0.04345386465637483, 0.05786675518534508, -0.005925108401729259, -0.025482569445843102, -0.016732252849376794, 0.07281517523942331, -0.19698286992205996, -0.04878635696430823, -0.12138441654456825, 0.11000419337130957, 0.001903063353893999, -0.0434965086044236, -0.03942689577939929, 0.044668099055090796, -0.1095172915535371, 0.12873960833668555, -0.047249035783271096, 0.05566187980005908, 0.01860768375430518, 0.07499759295867674, -0.004892143826789694, 0.00849752940591878, 0.1747964110306147, 0.0024062335272947676, 0.07671249360276272, -0.15423741538354163, -0.026644951599440986, -0.06517098662832803, -0.11169773351480478, 0.06969387697793934, 0.022261846753179444, -0.026721238174546826, -0.10789943137260705, -0.08042272897178504, 0.12898451340041636, -0.13233227097880332, -0.09327976257834796, -0.1680885683148863, -0.0962180188746957, -0.1455018893102077], [-0.045070170953765386, 0.011062290340421187, 0.027594546269427023, -0.017152306180244447, -0.12225678586276585, -0.1485887110415889, -0.0343103037750995, -0.032922529572150604, -0.08517967674561921, -0.1287627598647938, 0.04744995888842591, -0.035016279745217836, -0.04343622287979984, -0.042411824703031065, 0.009041987527212303, -0.02706731433111928, -0.10908301597211945, -0.02339986930715957, -0.052054312147226084, -0.22144967385154596, -0.19001802182964062, 0.06747758124907852, -0.021709412862123613, -0.027584522260579242, 0.05204064161946281, 0.08682816325915955, -0.09237916151632744, -0.013123559926148718, -0.111383427986252, 0.08002619794047879, 0.041821625900383304, -0.04444370263443686, 0.0989959708952572, -0.10190358461056859, -0.008416366385371169, -0.1333064471404984, 0.046527144209294186, 0.06851836196831275, -0.016613393162452476, 0.001657698310206544, -0.1220070184473594, -0.01221349647997022, 0.20972561953588112, 0.14913745197973535, -0.17916573737949126, -0.007930551662025317, -0.03693724033053223, -0.17097831906303484, -0.13298724470388562, -0.12619957513484054, 0.056821669986285184, 0.040304929231823265, -0.0844125802280747, -0.11128030858171188, -0.039906205146669343, 0.15969623983413728, -0.017792417178383268, 0.08384022831162642, 0.06267579651485977, 0.05782521602131655, -0.024294003025502196, 0.04087001786886752, -0.0002667026809059237, -0.04205039717812556, -0.0018053624788429, 0.03124601962777005, -0.08080467833183325, 0.0219689890313739, -0.06867647181298128, 0.0303262148345191, -0.01675674999747937, 0.14257896764155117, 0.10339398078026818, -0.13415698906997395, -0.005738795071361279, -0.04238665569696165, 0.16950140476245995, -0.04524176127924377, 0.15860918232476598, -0.06532227946106595, -0.06479394061518401, -0.2349614715989207, 0.1586544601600517, -0.029905047980515777, 0.01605193706236788, -0.00915136665659973, -0.03113822786099358, -0.08351603873749192, 0.012969516166060756, 0.07648747875942519, -0.0552526400794351, -0.15377212779857818, -0.011491359713025683, 0.04537758967281074, 0.10634373659308101, -0.07683086194437042, 0.08916979941554447, -0.025949903545277455, -0.023774678793923754, 0.05612952344560518, 0.06778806532610637, 0.21291251796705712, -0.04455301097911498, 0.03420218003574223, -0.13263220632079262, -0.08758102814030663, 0.13058031125426506, -0.0592094425093857, 0.10564615905022495, -0.08409157999603975, -0.11165438236574554, 0.03950196631980122, 0.0022321591277269493, -0.0475318087874217, -0.24826697760850114, -0.013366907514688914, -0.15112878397740412, 0.15856628119640254, 0.2043341382606486, -0.09915064885512018, 0.18017160022702655, 0.018410322663544938, -0.0933243406333926, -0.0158660928272403, 0.021581168128837758, -0.025233351281877342, -0.08398460931607768, 0.014814370668077975, 0.02775152074251444, 0.058238892551246646, 0.16447229667883936, 0.03747820428320705, -0.13720992514181554, -0.15681039442110278, 0.05789370847418293, 0.06523165776555691, -0.1248425305079391, -0.16204922610680106, 0.07111087897960525, 0.10486540836525278, -0.11139786586686987, -0.029187345022983986, 0.33524650810207524, -0.11342807845904788, -0.005298140573772897, 0.15177431355890408, -0.10881704643745363, 0.010355521453738662, -0.0074661572988759225, 0.004318004368131256, -0.08117246167993089, -0.007122047728100538, -0.0025860516717298014, 0.08623239705677611, 0.0201361691129762, -0.051436584938128894, -0.08634704355022083, 0.05759066509535091, -0.08365159004382577, -0.09497255737663077, -0.0809434215925408, -0.036836113244349246, 0.11605665382776785, -0.04560735751482475, 0.03713807023434682, 0.07151852238830315, -0.0876694642692926, -0.1887788335023526, -0.020062264426803263, -0.0020071205501454407, -0.19995171142324483, 0.14861525685653829, 0.061128876549680515, -0.03773997449807523, 0.03026401221551875, -0.05352293405675654, 0.1620211114911962, -0.09560495066995703, 0.04448847771020608, 0.07058387822256548, 0.07506497201022616, 0.19743771529743892, 0.09405487568026202, -0.05643702880877131, 0.08672418883167822, 0.14276931456227826, -0.07374174021854261, -0.033468324265476156, 0.15423266004557165, 0.023832904435373406, -0.0725817881303122, -0.04185730221098019, 0.0010725265932338085, -0.18666233063978976, -0.03876462854968415, -0.03695948226210988, 0.12327843357177833, 0.03140079646432836, 0.07844657547866823, -0.03687955526761966], [-0.15292348605627326, 0.07704018413097512, -0.011870057543217193, -0.2112828870144488, 0.10652486392663149, 0.06338923394533287, -0.09854198519451443, 0.055865007413750285, 0.16438502875494412, -0.001327755829139788, -0.06247580719750746, -0.15726284354586917, 0.0671100186058568, 0.09049623485898385, 0.06674021449071753, 0.14855834523656664, 0.00580461513438141, 0.07720817488477079, -0.014199563022549405, -0.043449864113779504, -0.10015002709333538, -0.013498149165833754, 0.04763664830378561, -0.09677949899390566, 0.0827080931017414, -0.07270195353269097, 0.16367220927730106, 0.0032403557994096863, 0.03554857617363429, 0.04666760545013153, 0.18954951670382325, -0.007554521029040756, -0.018242387535321765, 0.16962140316017416, 0.08088247753205567, 0.10250323582560968, 0.11827000384243824, -0.08565367483683425, -0.10061342691880366, -0.1815629402174659, -0.14267450832304696, -0.006337642516329221, 0.23670275460835546, -0.004641099825882884, -0.06373032877362561, 0.0691936116399899, -0.06741164237605013, -0.06929040191979445, -0.11428816902379163, 0.03847761371313356, -0.011945917952905099, -0.1251147665984798, 0.09216208037127718, 0.10533636029720121, 0.23621671295540905, 0.00564736246743317, -0.09364338659605818, -0.05753557471492274, 0.11604407765666981, -0.023710376588996544, 0.06598909835336536, 0.10904015437786187, 0.2201986980056675, -0.048004147025136654, 0.031925902956296874, 0.11531240432120671, -0.1239068818628575, 0.07263002449725744, 0.1713246346835022, -0.00017636604285253392, 0.12677406998464735, -0.09305295492442381, 0.01994184816014272, 0.037475202753141076, 0.11663568290597999, -0.08059626860058605, -0.013945348066923366, -0.048695202918244154, 0.06665489985251659, -0.007643638214750761, 0.17747123284893992, -0.04616831913443616, 0.05100761477569947, 0.07417039396215348, 0.0858034921051738, 0.05649690335495584, -0.032745816023875815, -0.052316500739475004, 0.18756808312775733, -0.04670793631469089, 0.0319623899240644, -0.06051482913319652, 0.14337129813286167, -0.11677253751926933, -0.028410014827703188, -0.028958052987012536, 0.008776183440302027, -0.0475585184282582, 0.07489971520306625, 0.06545536193264279, -0.002874777019709255, -0.13385681847411085, 0.24540726278229555, 0.040062782480800654, -0.11265551985771845, -0.05265377530490925, -0.18675916749966526, -0.040677909388629786, 0.10607972216365895, 0.0033525051000982678, 0.14707053571186657, 0.030434365964534207, -0.04203863274274666, 0.0332521675974218, 0.012360891249459903, -0.110567100462257, 0.03952338974626534, -0.05954187735377786, -0.006047106954135748, 0.1898536748083547, 0.03300256163296153, -0.08643174130187714, 0.12066055493856193, 0.1654380855606837, 0.0008760091771623861, 0.09883862281287883, -0.030305721986306985, -0.027704688829456845, 0.035955515519075464, -0.07248531390045646, 0.006114336425741532, 0.14804308628695168, -0.03161019979620479, -0.13975442424873324, 0.03267865939437244, 0.05600193158116576, 0.06339241795716541, -0.07592477843086358, 0.05086635494488667, 0.10146649590046705, 0.139931237309058, -0.006690055110349809, -0.18554080853460167, 0.20155423154866817, -0.1549953941379898, 0.05278300483330062, -0.0270520749119572, 0.026437670694957133, -0.19126745664113676, -0.049731920439184375, -0.1424368782690162, -0.004050398382442022, -0.0755738733900257, 0.09162543920382606, -0.18720640107902822, 0.19016174204001032, -0.08707927697769915, 0.09067831451560766, -0.027093256079284204, 0.07339608692529448, 0.09277679429963373, -0.04842842902714404, -0.18817468770819837, 0.02420051774403509, -0.16324136501678496, 0.08864584026656062, 0.1911201287791889, 0.20024873824911055, -0.08083659099466295, 0.04053899371198459, 0.017439818624673538, -0.023370233615747228, -0.045255689720883126, -0.06795721707975821, 0.12211509654279037, 0.1448593144833958, -0.11159507010352436, -0.06651647289395059, -0.07475198330976048, -0.07195276000070856, 0.03999961334902583, 0.03722915125975856, -0.09678312494346152, 0.13439342671260376, -0.05268635682847927, -0.08394468530091814, -0.10265593351623471, 0.1172019051440761, -0.204923263837863, -0.029646102785826967, 0.028644385987294567, 0.0633011709772591, -0.1530305001070718, -0.2503351606368528, 0.03570228542462632, 0.20974391476030643, -0.09627995688523475, 0.01305778916091428, -0.03679503740375265, 0.1901137064081235], [-0.07142508492391124, -0.028776767076174926, -0.20332420970649917, 0.03798782053475134, 0.025941682375812746, 0.05621226645298642, 0.01644001784326127, 0.006342286081150834, 0.03576059311346819, 0.03330108808425195, 0.024590919225670044, -0.03418130565306387, 0.034078494027807535, 0.056742766373492466, 0.13849411292476752, -0.08811553956820438, 0.009475652461634608, -0.05678455752164351, -0.11122811434411367, 0.014112221245203537, -0.03508564225081311, -0.1425050921209547, 0.03906189749075625, 0.23250981973543916, 0.0864534040235152, -0.12572435723926484, 0.004647359368809007, 0.0691775427914761, -0.02019059387739068, -0.08635839378818597, 0.05825805750856146, -0.12489836445003745, -0.10577745948988844, 0.08439687109271779, 0.08849788556161368, -0.03942925354672603, 0.0022284504427491905, 0.020511271893241815, -0.03751692400751775, -0.16269257201719123, -0.0347754920044331, -0.07719817421062097, 0.2201643306278413, -0.07860638635516952, -0.17871449308537893, 0.07080020686585849, 0.05801708705048697, -0.019476154461139202, -0.05247238659473293, -0.0015222744993608865, -0.017662650530526874, 0.22370376877323056, 0.011209830760156251, 0.04072746081264005, 0.11166118683770224, 0.2625768882227129, 0.15491980791375837, 0.04239777938777732, -0.16121292290696496, 0.013498455737968137, 0.0948796997014265, 0.06824102408351261, 0.13248813983070942, 0.05601588773946242, 0.06956213559657132, 0.11851640612126822, 0.02533353654587636, 0.030586638333913705, 0.01583714439155521, -0.04358019148999333, 0.12794870056445018, 0.0016716086799397555, -0.09321520234676167, -0.09641417386194212, -0.06128888180433983, -0.1421751718743899, 0.11151611213960165, -0.02489562691584608, 0.09107660682629651, -0.06011715694492151, -0.00967378786714059, -0.10669806919450123, 0.09419055944038335, -0.06008755741142357, -0.027775145042242676, 0.08223950443255021, 0.08071115744942195, 0.04943692825892692, -0.1460054375163222, -0.015894480019777762, 0.10665837800869381, 0.1674656960979696, -0.04432200276067762, -0.06942403955680097, -0.110153159171524, -0.21220381355244397, 0.14424904223295515, 0.17169459742186124, 0.08229168982107173, -0.01636890783105241, -0.0077200353659314476, -0.052380558767265356, 0.05366331199855332, -0.06811338639122055, 0.11785337941849001, 0.017608658084196607, 0.1272458263628605, -0.14845928154772844, -0.1388051864794504, 0.022936175940678573, -0.0955295071682717, -0.04369629976951685, -0.05265850607901992, -0.20590880445926987, -0.022642608011209292, -0.0006876596070579053, 0.0086469238200441, 0.00014832789291006155, 0.030834907663872358, -0.010029729019946997, 0.041655036547959136, 0.010760529225004424, 0.022623602666697305, 0.13006459346742094, -0.0011462657426417771, 0.05786127470006474, -0.09371589756516012, -0.12407021860431405, -0.08345062570562725, -0.22905164968568492, -0.16452960655330112, -0.006543512391438152, -0.05074678051138518, 0.13970970945580946, -0.13069531594071257, 0.035399071737360024, 0.09838888118072231, 0.0996690090179995, -0.11138376366453874, 0.00250384574120437, 0.029905232417740443, 0.09532157528059738, -0.024761441596774472, -0.11505960402115012, -0.0187951739695806, 0.06658877602110994, -0.22003743724283223, -0.04001268058973004, -0.12172665422315992, 0.15734577764541333, 0.059839800024546926, -0.005555435234566944, 0.0251495632189203, -0.2113967524992097, 0.17684179395511707, 0.1645814857477093, -0.09637222608450048, -0.12759809141676587, -0.0924931415107508, 0.12554190541767274, 0.11146423068473724, -0.03254514204413454, 0.12598179856945854, 0.07534045224711981, 0.02033658630349016, -0.03345673815038918, -0.08618226598784776, 0.003956630945493143, -0.003580182949201519, 0.00028157292876959054, -0.03254031754489849, 0.16799464654918447, -0.0694275815659172, 0.05381059179916618, -0.08538026534397446, -0.09130433376694722, 0.028452904741126352, -0.0691469523219046, -0.11303289868852034, 0.05191381855636335, -0.09255147991957763, -0.06823587212529383, 0.056040242458202695, -0.05721724996617106, -0.054332894230069095, -0.17745712564308702, 0.1604852321623103, 0.029081779434733602, 0.19097860721438645, -0.10375778650931788, -0.08648638531227935, 0.013637055589441678, -0.22700279542105695, 0.05284256164573091, 0.12298348369513258, -0.015803127102015653, -0.2027946333750959, -0.02010165452317803, -0.09292132072263233, -0.051455333925970924], [0.13838054588328993, 0.014932654736932215, 0.017608154778055718, 0.1666118279826196, -0.018441705740677345, -0.05459184068290852, 0.04204322923256751, -0.03304824734784931, -0.08445326613995101, 0.1662882834066696, 0.16414353415847982, 0.2122775587703338, -0.01671214304662902, -0.21562888180999404, -0.048022349520855136, 0.14834122333251032, -0.047321616885543864, 0.01795074353453596, -0.0586891150508915, 0.2504630519520518, 0.12132516034288088, 0.0701254030293147, -0.024905863670946365, 0.044736210099807786, 0.041706302933075125, 0.061091327106805114, -0.07245073106083803, -0.017572169959255726, 0.06503541271273595, -0.1971793352174164, 0.12522669033150277, -0.2387802517347971, 0.15945704682879092, 0.15862876806249923, -0.10518284606813054, 0.044258349228863826, -0.16383626762316686, 0.09234800480945933, -0.022936591115084698, 0.17750426475555753, -0.061690677367922477, 0.2560806323353241, 0.10461337266958325, -0.15016379749460287, 0.018891146306496596, -0.038808895796247946, 0.021429271984932958, 0.044426036458718336, -0.10115902182993433, -0.006791932612594098, -0.002141917805798235, -0.0023110620467810218, 0.17243827891692942, 0.026496222302379437, -0.05055021329095059, -0.08389925721437463, -0.04040630308506626, -0.025107059335647, 0.1346130416834581, 0.10789389308154469, 0.1898866406751744, 0.08523458328546084, 0.017098998899749956, 0.15831842934009047, -0.06813620352835462, -0.13555977680176576, -0.05336313680566231, 0.22482219601722483, -0.05554865359289447, 0.15287447986482242, -0.06348111302211201, 0.01802637761492039, 0.17971854340245857, -0.04194315022032217, 0.10938512641386297, 0.03583655230183018, 0.13703935737387085, -0.12718880459497234, -0.03021406788121746, 0.23760310367376136, 0.02455912539230852, -0.07469425794875668, 0.06867138554523428, -0.1506500912239557, -0.002970739399255564, -0.06050667149951974, 0.17541491588527888, -0.018721676892645537, 0.03936843215332265, -0.11209599538079322, -0.02379248764733752, 0.07577577230006699, -0.08776542550755592, -0.2461985029207499, 0.146749535075849, -0.017991453666473412, -0.04197750658827715, 0.028816994796807355, 0.006235394680415647, -0.10354310361393446, -0.0002569957711394955, -0.1312068214748037, -0.07511357725619759, 0.08726865348140424, 0.06532815124090227, -0.0028390065394275172, -0.09013069437405571, 0.11264391853331306, -0.15192111564984248, -0.08848073188053755, -0.002473710543073008, 0.05567305119131473, -0.1109944790622253, -0.11188605208200107, -0.2279584338671501, 0.07953663519433438, -0.1809965650453518, -0.07843480183772208, 0.11975943344831888, 0.002769452759931266, -0.3199683844513488, -0.20938070966308164, -0.04104123824479845, 0.08428482011137738, 0.1492865301783519, -0.03369689322305728, -0.017577532328803006, 0.037134197619710436, 0.24731859558988334, 0.15259183784572766, -0.06623531211784925, 0.037441837023200523, -0.22937945687620148, -0.014291905565673448, -0.040060857626127516, -0.03487609347052334, -0.2814605679139004, 0.17332172577852398, -0.07687084575099237, -0.17498174675445052, -0.21045805239417653, -0.21813509963297925, 0.046590466114504785, -0.060131136871919164, -0.08087054320444398, -0.055750874397123514, 0.10622260053988311, 0.04766818307046273, 0.030128936732774506, 0.11237170271704817, -0.12088345662786998, -0.009951434178667236, -0.17262368966683045, 0.12330630936772685, -0.041504248845468564, 0.014544334353500398, -0.027114830729065315, -0.04210466244141368, 0.08039349679766863, 0.061973263803369635, 0.09634010198645594, 0.03196575420586498, 0.031238712029704532, 0.06812197059456425, 0.02883929109654634, 0.008477886275912375, -0.019317256995967508, 0.06323754537539333, 0.22343362964079153, 0.05605115732435599, -0.18919392383676148, 0.2995314775420297, 0.008118164524909726, 0.0392715526220815, -0.03406060076614389, 0.07950227999220649, -0.10167415367247219, 0.23093135941256587, 0.03162154652756887, -0.06794286029228594, -0.1353979891742399, 0.008103546848353037, 0.051644927451276905, 0.024503367779378275, 0.025605238745625727, -0.20548412011096862, -0.09909269267793705, -0.07219463871215648, -0.04581785472565235, -0.07796156639728165, 0.0692087783947258, 0.044918147734429925, -0.008782214067119548, -0.009008763516988424, -0.04678084067416923, 0.07427671594442072, 0.1561297344077126, 0.06943100382621469, 0.08487112734401873, 0.1226728437167133], [0.002834046104421972, 0.07445015710972575, -0.07782119454896358, 0.07319026374514898, -0.1732515116025075, 0.11370926587965255, -0.03285214916299898, 0.03416949649540992, 0.0812049505981705, 0.09539975376857604, -0.05689702285990492, -0.18505924060795034, 0.08790411845100628, -0.05914221161022266, 0.10394822255842909, 0.1687999617928577, -0.007095383241158098, 0.025916629661119076, -0.07935192297820204, 0.0734867333112428, -0.05398616990356016, 0.007660554598363325, -0.046868389836463645, -0.07533314485646855, -0.009328159217789225, -0.04602622203098242, 0.1211796185653421, 0.0848093360909031, -0.10737820123828686, -0.10102695175877328, -0.1408586625721965, 0.07279861688109644, 0.009663134527555657, 0.20982417153701158, -0.04297355488489254, 0.07295073782590564, -0.04015723646106483, 0.17758441955937326, -0.017842026585271113, 0.2033353737818998, -0.15292383639394383, 0.04108019133432574, 0.008685201606085022, 0.03287398360563139, 0.11080544510952824, -0.01133963551502315, 0.020147914040210393, 0.08247747168903782, -0.12299783568263836, -0.06554640445839528, -0.05397656055400583, 0.046980521245568826, -0.06643039012000605, -0.006979014804763513, 0.07087304178359824, -0.14371579931365544, 0.07622673987128598, 0.03609103247758898, 0.05938519124567791, 0.10269797964906033, -0.1405246153472581, 0.08413125858736292, 0.022834554384382255, 0.09320118048379723, 0.13016538323905555, 0.02487398119677074, -0.10229546990429844, -0.06687337575078549, -0.02943039031484629, -0.2079096234548299, 0.0336080641310459, -0.06428794635461371, 0.03339652990755334, -0.05889593057042127, -0.2161031925030445, 0.08948410433695353, -0.11634285940661263, -0.15435382038695983, -0.07288416252004415, 0.0836323397015509, 0.08525396001401947, 0.03494127271048319, -0.032278442827947, 0.08103025980169902, -0.04600135812173218, 0.00716292845199638, 0.03948480969146002, 0.028719464316440357, -0.08345414444231958, 0.12821736589804728, -0.0890373360686949, 0.023210735061312056, -0.023290099845177433, -0.2541555768906253, 0.1197240879812726, 0.1077518958999473, -0.037562105610368546, 0.04694301956822556, 0.15957644891359715, 0.1741796734161839, 0.026429486685300423, -0.019400179043294694, 0.06645703859232385, -0.1503557008743633, -0.25969228486862017, -0.02824161490025024, 0.22748965102386956, 0.17211385050395042, -0.09762302340592749, 0.002467658347267644, -0.015018839862597713, 0.007473904364160315, -0.18759359099587494, 0.0033714072504019733, 0.008415696878794086, -0.018651405745068524, 0.027954208606685686, -0.04762124736934273, -0.03977697761574462, -0.007501675139148909, -0.16179662633146705, -0.13489365173486195, 0.12268502883951334, -0.03409148977502345, 0.010640568351539183, 0.12936493697002713, -0.027009082832071825, 0.08540561769883538, 0.06601649398826302, 0.12534538789015648, -0.052536389303621665, 0.07819203663008252, 0.13056111448435778, 0.0653449773856569, 0.11777496571840834, 0.26642054789896125, 0.06502256168890319, -0.13823920045615198, -0.1265681433140774, 0.11400990678427407, -0.011111017133375855, -0.2949064698680242, -0.06781348694303363, 0.11417947272880202, 0.06902837596750251, -0.19459691731897472, -0.10037941004420066, 0.02057505633349098, 0.002982512679370585, -0.12093189051942922, -0.023430502733957304, 0.11562327743371881, 0.06288952936539358, 0.12208082331563473, 0.009052962949065274, 0.23229599772011514, -0.20301433362668247, 0.12877980319480248, 0.07338728736447193, -0.03515281770503793, 0.08989023467145378, 0.04055766477366457, 0.03357927341315783, 0.15401349358349062, -0.0894969064762871, 0.11344470812824763, -0.15090809578538408, 0.09871033640134991, -0.1399472784431869, -0.15466938742835878, -0.19108973500146395, -0.12394744494659023, 0.04726536141441743, -0.06496475732687391, 0.010113942614034473, 0.06547450209507064, -0.17001847888597696, 0.05682377557551422, -0.029208715108904597, -0.18511485239280645, -0.009815346739612572, -0.0877792430864092, 0.06430803429348801, 0.07611325253837804, 0.006368273467573085, 0.03923128152843019, -0.04362938756945584, -0.17891152421739762, 0.22285394378593756, -0.21081448309028628, -0.1596372825913826, -0.0040090232361916, 0.11508296701604466, -0.03503579967248596, 0.08557351767894723, -0.05393267468369511, -0.0732998833990117, -0.012208454273823369, 0.0039688127574545665, 0.10055342826632657], [-0.2388977934429533, -0.12515724537909453, -0.2684590621683479, -0.06022346206447918, 0.0015090955566343601, 0.060803625877821114, -0.050507552753823855, 0.050923859913251324, -0.009261006779875569, 0.059684780168082645, -0.24185969468535926, 0.014582367795904168, -0.026965994530075282, -0.06617392424061873, -0.04334864372311214, 0.07760807147760702, 0.17285431911163832, 0.02717633357217143, -0.018742393264296886, 0.19817419738947833, 0.016038623789167924, 0.06424030892843821, -0.11289479285303375, 0.08086047526456104, 0.055562955111815686, -0.01773475419543145, -0.16606592037584372, 0.1452911602524652, -0.03581071536900346, 0.14795931380308616, -0.04898596135716924, -0.034756344131013965, 0.01495249404122934, 0.014596296556721787, 0.12101545838525696, -0.006847015440851234, 0.03706621225010692, 0.016532532836002707, -0.1618388278070336, 0.03656808377144905, 0.05107177412860189, -0.18317748710098047, -0.10069973135291825, 0.0003755202491514617, -0.01912374993721099, 0.21599180488029407, -0.034144190305293566, -0.024907921046341708, -0.03925634309228801, 0.004091223402995804, -0.12056633897536165, -0.1675914068758367, -0.12366575579434044, -0.05293562468670095, -0.09040527280689953, 0.13420460949063676, 0.04395676305011895, 0.045511222595776536, -0.02410871889137389, 0.05438111795372163, 0.12072582003927795, 0.06912811959225947, -0.15509539994001062, -0.044185840098005025, 0.014006264141411397, 0.07915986700147626, 0.020856106169505905, 0.18892113599767466, 0.012112198176381433, 0.07877826735400133, 0.018232579857971387, -0.14905470516484748, -0.050982703377765885, 0.08920592368356356, 0.08185099222484457, 0.15202692203444626, -0.12972645616734302, 0.04099203725781126, -0.007215982010462715, -0.022135279152043, 0.05607244249482245, 0.04761260283738904, 0.05618574282689545, -0.028600163795013504, -0.012321667180370364, -0.004411251414834781, -0.11332622345293081, 0.13758455743471226, 0.19200355380753364, -0.035024938286797765, -0.07768357606825112, -0.004497478149394534, -0.16276383747054565, 0.0985787661603285, 0.06876153050606765, -0.035737179651855314, -0.10822510578291224, 0.029290971897474483, -0.022252842209869717, -0.15330579772457123, -0.0534706371755102, -0.07671952077170445, -0.18309686424763738, -0.03676154058334093, 0.1876604398115982, -0.19445609933148597, 0.07688365862335113, 0.08861925758137243, -0.15902412827441526, 0.030285347859997046, 0.12733578120109762, -0.08672476989580354, -0.0030630671318895276, 0.04314638845244973, 0.017626558650303322, 0.05104608808700166, -0.09873397119048893, -0.028920914206248177, 0.10153707606401172, -0.04377748345124847, -0.043102539865873535, 0.007879675079920118, -0.19011069598304783, 0.09954166109668534, 0.053209307817754264, -0.05500631238698384, 0.06909837824461071, 0.026727817510097177, 0.08142503689223236, 0.04335976595115642, 0.11397544259598301, -0.07052908468326527, -0.012140749434026125, 0.036531101400507374, 0.3080206896744901, 0.1253009833605022, -0.04407463529766153, 0.128068948451188, 0.00828843395455941, -0.14155851136465816, 0.20548307033281987, -0.11627126318979868, 0.07783454693653367, -0.15280163313535583, -0.03320555808660186, 0.06583947507447578, 0.08549452150523043, 0.0972294651997911, 0.03681878881132508, 0.0036000791408639793, 0.15296451368004044, 0.07671630395562047, 0.0688009013550135, 0.015347931294291298, -0.03610113425232673, -0.04777595535775022, 0.14823962425336848, 0.06652511876498704, 0.1224162876676699, -0.02293665430512854, 0.19423735087832264, 0.02995875663920761, 0.1375084060766629, -0.1668178100386206, 0.05529577150114871, -0.13848489437319536, 0.023740137984986715, -0.055619517882225494, 0.0844390814064713, 0.05916024846345606, 0.06557522273453058, -0.06380073690155622, 0.03855105623186465, 0.1448837246678829, 0.11557777644389365, -0.027997909819517688, 0.05916391006164619, 0.07677520454350407, -0.041195026605830375, -0.29415764011207274, -0.09841691749027508, 0.13108490626110028, -0.156987963980847, -0.05202697569749311, -0.037850463666370855, 0.02214889559005508, 0.16067909373332304, 0.029224633166836378, 0.17434305061978703, -0.08034875746024836, -0.011956795865757649, -0.21614150469166368, -0.04692477553405424, 0.11864690135483409, 0.0624776720571674, -0.22378744624617813, 0.09213659061738665, 0.090845614915566, 0.08482464705487637, -0.02570428685250924], [0.1747406794471792, -0.19142856832396696, -0.20294150817573975, 0.08560896401766221, 0.040505245390954514, 0.03939512874599423, -0.11380865343129658, 0.05943594565958429, 0.14876584071318652, -0.1150491066524949, -0.08803278181151375, 0.09856990005330991, -0.01691053993931845, -0.022131069540055472, -0.0006666826117518024, -0.13256756114381774, 0.020062776603459016, 0.1520173117669336, 0.09378660927110097, -0.04774823949468674, 0.00783736956788067, -0.2795503413469806, 0.02590859499097543, -0.10905730478536367, -0.07340819236539713, 0.021653248564946017, -0.08942766891238901, 0.053441789922651556, -0.02973229044677232, -0.0336784051077753, 0.003211859382861904, 0.1894023892880332, 0.07807798011730542, -0.1656702122628056, 0.028024975433826222, -0.025988246112252426, 0.010705062965771131, 0.024996558683327348, -0.14328112604470167, 0.0041076953646197595, -0.10751542650402328, 0.023736884962909315, 0.12256294675642564, 0.009995020633877146, 0.13144918928088226, 0.10341550114285215, -0.03856369579041688, -0.06121989125345865, 0.08309745981379367, 0.02071415914053144, 0.11066015181417937, -0.07949948124328222, -0.06305338233068561, -0.06985604315405655, 0.07421133326193448, 0.2466546947821063, 0.12413955278585463, 0.0577288079382827, 0.0525722531109386, 0.16862760647664887, 0.07721858717507527, 0.08063383442272176, 0.13854035340123833, -0.29508970662890693, -0.08530311136356679, 0.11955717367478744, -0.08462659508000117, 0.1374017828036774, 0.001966771874562195, 0.08562138530000288, 0.22387752137873648, 0.07481423091364399, -0.08597373994607935, 0.11592458258439815, 0.07922563205108865, 0.09154248428185381, 0.008578994658362723, 0.07747163370074797, 0.046387506615706404, -0.015521333557917093, -0.05596184161626022, 0.17488426590108236, -0.04946072907225147, -0.12099739909099619, 0.05519749087023286, -0.05022175407175533, -0.12473455527061311, -0.06087114341757821, 0.020918133805927334, -0.00629966989099138, -0.21975018052762743, 0.10493422412599292, -0.20006800090000507, -0.07747184268523555, 0.09104576862397322, -0.09128361445228321, -0.022715467357754045, -0.15891961322123702, -0.05720480861359615, 0.16539889133624006, -0.03793019531400228, 0.014386216789851518, 0.013624954747603234, 0.09561645606728152, -0.21584622174528278, 0.0003013470915470195, -0.09747915268904697, 0.08864844112730888, -0.08292981835533342, 0.0632252715413876, 0.05115091600523988, -0.2800580040613787, -0.007632727870277965, -0.06259130547457283, 0.11569471960127564, 0.1920819078932215, 0.1139801545864705, 0.08454166251957129, 0.06477613121177424, 0.014096848605998498, -0.059071733053757965, 0.05484184198972239, 0.08106690841680521, 0.06816685446928457, -0.06588580659027933, 0.006842654751807439, 0.11062263677144589, 0.15912580446378985, -0.03769946942748208, 0.044572016297173014, 0.010380339441693228, -0.1754555168755667, -0.15729685647231872, -0.2807903633585911, 0.14368961324185742, -0.09020053884350994, 0.08376228057901779, -0.09023652761602087, -0.02479243256938697, -0.10268565663254459, -0.14126836613136937, -0.03535747226585584, 0.015413210729092644, 0.1340380873323592, 0.019436215848986787, 0.055381249917158745, 0.10727946163425119, -0.05939203636470047, 0.008802146011353238, 0.060024621779077164, -0.04408001671040078, 0.0642686561288474, -0.10811445219931481, 0.0456505889889246, 0.2892576303891427, 0.04137884681875349, 0.08935581992916536, 0.03187311564624591, 0.043366202279146025, -0.17261894224875832, 0.07096237989094606, 0.21309541029152596, -0.0472982102100009, -0.06782044417676161, 0.1673754531756547, -0.10033609448313938, -0.1567254838210028, 0.05444042117336971, -0.03815438708380607, -0.04057627346457676, -0.10344756731748704, 0.04209331486290727, 0.01635146133938335, 0.27844642900602984, -0.09961637360214749, -0.1184139916151297, 0.041191949991676004, 0.07342394699238178, 0.028224233523773398, -0.05934539052824257, 0.13089795851281147, 0.07205763839578988, -0.028273897074669724, -0.2635692462602769, 0.03302485411399286, -0.014934703458641672, -0.05373022734774088, 0.059654990588902654, -0.2029610117597908, 0.05500771420256206, 0.06505733907822929, -0.05117780692140167, -0.05098438503371384, 0.131669028697971, 0.0020452376115908852, 0.00884670065927069, 0.21831817900138897, -0.07196406447251978, 0.03252968708052872, -0.08863142031085582], [0.08739292141657559, -0.17235050602362093, -0.08474127200825242, -0.09557485063968728, -0.010874077282566355, -0.12513777785193725, -0.09260809899232007, 0.11313479278727034, 0.19545436097923807, -0.1285598361731008, -0.16104475256325587, 0.13019409834070148, -0.04287057877003643, 0.027103133348489548, 0.020999007232954003, 0.16544871300609004, 0.13042853629626824, -0.1680912671577325, 0.12425713281395298, -0.009736868902516684, -0.01351605087064208, -0.1564594869445892, 0.026066886644338216, -0.1736382948549804, 0.10772038097065731, -0.10634779686133541, -0.2526234741591622, 0.033794543512860965, 0.04747136323786748, 0.1853064601207898, -0.1401050047831305, 0.01693566774029372, -0.016731858217971133, -0.15325703669660037, -0.059135127094795875, 0.14299049191539046, 0.1578354541878463, -0.073260172898183, -0.08331914608558251, -0.023173453580537382, -0.15156377382200073, 0.12787544501228565, 0.11200993370649762, 0.07883415859655493, 0.15420739187223292, 0.1975370290853643, 0.0061682025962761095, -0.08990210607437413, 0.25410999967754816, 0.174280973794972, -0.06678039604956433, -0.11015932798735824, -0.04009991184579881, 0.0016453783251173142, -0.02987165726108213, 0.17945030053958155, 0.0002694444845067443, 0.07106435647794276, -0.034015833894123014, -0.0824011851394558, -0.05394774816282099, -0.15926853713222314, 0.044423669777964, -0.0696049291294611, -0.08821814759186504, -0.12105580831476606, -0.06376825065901681, -0.02554257491744047, 0.04043077354191044, -0.010427415259298127, -0.2355063621254029, 0.10098926625569137, 0.13189133613095472, 0.22291771227525697, 0.12856355609501924, 0.11115520477921405, -0.020551064608014095, -0.08526098526684883, -0.0777943092198093, 0.12344980435577939, -0.08611984590391401, 0.0156365613544051, -0.15760719335248502, 0.07277985765655832, 0.05628628917563698, -0.15499515148916956, -0.04284774535905404, 0.011759991689016388, -0.019106670615925015, 0.036228427226488336, -0.03581003490845177, 0.01965923866549036, -0.05500828582718492, 0.044631105743640404, 0.13795987976094432, -0.03561778479187505, -0.1950591971539812, 0.045840225423406926, -0.13024111554457335, 0.0001505999242227546, 0.08409350505487098, 0.111669667974589, 0.11525749891782522, -0.035825220672216204, -0.08210152665031693, 0.040500195537504995, 0.18331277583400732, 0.17414669126523524, -0.14059277403878548, -0.12980599704545848, -0.0698087826808874, -0.022933677098743888, -0.034048554758418455, -0.00410756424734227, 0.073691084376677, -0.0331118978382461, -0.18672964897952696, -0.0712513868339132, 0.2338786092848011, -0.012319406921591185, 0.09609696162126315, -0.001578175792438976, 0.03557207047622857, 0.05130384139436329, -0.034592951828786384, 0.005337258646718602, 0.030199888477563674, -0.13070838014302866, 0.14021455626551482, 0.054320466564829986, 0.14547284167146066, 0.186188501506614, -0.03303622958427799, 0.06633971041610198, -0.1800799165514289, 0.02671150671230922, -0.14214390935262347, -0.09537158572814397, 0.18337831976958538, -0.07930751161190301, 0.07235206735967004, 0.1096374117745169, -0.08128945042133434, 0.06149606807808964, 0.05740829868166601, -0.1317209149812923, 0.1345138721886403, -0.11028153501070297, 0.11990051912034094, -0.02824218902134393, -0.03974055507266771, -0.06417807776503735, -0.016332643017775098, 0.0821615035944366, 0.10295996639187747, 0.0912471334805736, 0.12476302733466135, -0.2075412181940393, -0.022919872368197362, 0.034562351202246204, -0.006402669412213017, -0.12635545352948474, 0.14541393856997814, -0.010192796880645002, 0.024555785628104034, 0.16913178926061043, -0.033290234413397755, -0.0634075150340509, 0.10941567356884337, 0.014570370112302364, 0.11193083260620272, -0.2017359753355785, -0.18105089228559787, -0.07741890739632226, 0.25318984317650794, -0.055315908130060994, 0.13573757939210063, 0.04500473499585061, 0.06534515115364117, 0.004433763646553647, 0.025309610960977752, 0.1876477454015359, 0.09274501126273904, 0.007504097862977028, -0.02402511285997389, -0.008587818813450318, 0.12002375219859165, -0.02299884755514217, 0.12727499990265617, -0.03925692109970223, 0.1470999523309298, -0.05866022309403362, 0.2104535573307423, 0.028749031558687455, 0.2686168429666648, -0.10304425385184508, -0.07666630301178892, 0.15610155104145246, 0.09063485483131856, -0.11091346619936139], [-0.09945037708818837, -0.05980094008524734, -0.023253259695901224, -0.17505069095141385, -0.1304069057198591, 0.07030078837924804, -0.06952897720358907, -0.05246568954839067, 0.09451303499017584,